tree
version=v4
num_class=1
num_tree_per_iteration=1
label_index=0
max_feature_idx=19
objective=binary sigmoid:1
feature_names=monthly_income collateral_value loan_amount collateral_debt verified_restriction dishonored_checks expired_debts banking_debts commercial_debts protests informed_restriction monthly_payment auto_brand auto_model auto_year form_completed channel landing_page landing_page_product utm_term
feature_infos=[0:580000] [0:800000] [2500:250000] [0:80000] [0:1] [0:1] [0:1] [0:1] [0:1] [0:1] [0:1] [0:9879.8400000000001] none -1:0:1 [1987:2017] [0:1] -1:0 -1:0:1 -1:0 -1:0
tree_sizes=3322 3384 3424 3401 3420 3429 3410 3438 3441 3403 3407 3428 3403 3394 3420 3426 3410 3422 3415 3403 3383 3385 3439 3424 3413 3401 3420 3421 3397 3389 3451 3384 3399 3403 3431 3380 3432 3406 3397 3428 3418 3377 3439 3410 3386 3370 3400 3416 3388 2954 3386 3437 3370 3409 3383 3395 3401 3420 3417 3364 3392 3418 3387 3408 3388 2369 3384 3392 3406 3355 3393 3415 2674 3382 3382 2995 3377 3396 3362 3397 3403 3394 3398 3419 3378 3374 3301 3398 3392 3353 3371 3351 3371 3399 3392 2377 3345 3398 3390 3392

Tree=0
num_leaves=31
num_cat=3
split_feature=3 15 13 4 4 2 11 14 13 14 14 13 3 11 1 0 1 11 10 15 0 15 2 11 0 14 1 2 3 1
split_gain=628.453 672.907 272.252 260.056 144.598 118.101 103.465 49.4179 45.0016 49.6086 39.4895 26.5524 23.7936 28.7409 22.3074 20.5461 21.9379 19.9168 19.5488 17.8655 16.6471 15.4449 16.6336 14.5444 12.0489 10.1223 10.1018 9.96615 9.5685 9.54945
threshold=0.11000000000000003 1.0000000180025095e-35 0 1.0000000180025095e-35 1.0000000180025095e-35 16441.685000000001 482.77000000000004 2005.5000000000002 1 2005.5000000000002 2013.5000000000002 2 4715.0000000000009 993.92500000000007 11998.500000000002 3408.0000000000005 57228.500000000007 421.185 1.0000000180025095e-35 1.0000000180025095e-35 11850.000000000002 1.0000000180025095e-35 13970.000000000002 1375.5000000000002 2907.5000000000005 2006.5000000000002 36995.000000000007 8992.8000000000011 1200.5000000000002 24872.000000000004
decision_type=10 2 1 8 8 2 8 2 1 2 2 1 10 10 10 2 10 10 10 2 2 2 2 10 2 2 10 2 8 10
left_child=1 2 4 5 6 8 14 -8 9 -3 17 25 13 21 -1 -9 23 -11 24 -15 -18 -2 -23 -17 -5 -7 -16 -12 -24 -27
right_child=12 3 -4 18 -6 11 7 15 -10 10 27 -13 -14 19 26 16 20 -19 -20 -21 -22 22 28 -25 -26 29 -28 -29 -30 -31
leaf_value=-1.4411139498750354 -1.4433078890702999 -1.3415775436787281 -0.86004378534869819 -1.4380152485812649 -1.4507959443284226 -1.2193233435743478 -1.4223943982236282 -1.3407008302923054 -0.86004378534869819 -1.2237302333477871 -1.3942768675798816 -0.86004378534869819 -1.4599382010908359 -1.3695675224687105 -1.3675858605201971 -1.2953348498600741 -1.412497958866616 -1.1524661040436617 -1.4433941262987533 -1.1849574727875467 -1.2779923513129146 -1.4144962154585308 -1.190759502920383 -1.2315152267803084 -1.2748272161216962 -1.0424819520924364 -1.432109805153378 -1.2565158444258644 -1.3564396967136054 -1.1078800023455151
leaf_weight=60.405785083770752 169.56297823786736 27.412407904863358 11.161938548088072 6.4017000496387508 140.83740109205246 6.4017000496387473 40.544100314378738 140.01667031645775 3.6112154126167288 65.166023582220078 10.669500082731249 4.9243846535682669 257.54531738162041 18.056077063083652 245.89094036817551 308.75891777873039 26.427530974149704 98.487693071365356 34.798984885215759 7.3865769803524008 14.116569340229033 43.827023416757584 5.7451154291629765 40.379954159259796 15.429738581180571 30.695331007242203 26.919969439506531 10.341207772493361 8.8638923764228821 81.908931404352188
leaf_count=368 1033 167 68 39 858 39 247 853 22 397 65 30 1569 110 1498 1881 161 600 212 45 86 267 35 246 94 187 164 63 54 499
internal_value=-1.34315 -1.30958 -1.3513 -1.19847 -1.35655 -1.16539 -1.34186 -1.31599 -1.21009 -1.21605 -1.19741 -1.08759 -1.43853 -1.41678 -1.38613 -1.30784 -1.29604 -1.18084 -1.39686 -1.31597 -1.36567 -1.42803 -1.38369 -1.28795 -1.32268 -1.09701 -1.37395 -1.32647 -1.29128 -1.09005
internal_weight=0 1451.71 1055.46 396.249 1044.3 339.618 903.46 570.244 215.688 212.077 184.664 123.93 510.987 253.442 333.217 529.7 389.683 163.654 56.6304 25.4427 40.5441 227.999 58.436 349.139 21.8314 119.006 272.811 21.0107 14.609 112.604
internal_count=11957 8844 6430 2414 6362 2069 5504 3474 1314 1292 1125 755 3113 1544 2030 3227 2374 997 345 155 247 1389 356 2127 133 725 1662 128 89 686
cat_boundaries=0 1 2 3
cat_threshold=1 1 1
is_linear=0
shrinkage=1


Tree=1
num_leaves=31
num_cat=3
split_feature=3 15 4 13 4 2 2 1 14 14 3 2 15 14 1 11 4 0 10 1 1 13 1 1 0 11 18 0 11 1
split_gain=528.116 489.314 180.208 170.306 126.543 86.143 68.5219 36.1905 27.9866 28.04 23.0472 25.4246 25.9137 21.7897 25.2567 22.4726 18.8643 18.1173 17.202 15.5938 13.2239 12.4437 12.2595 12.0325 11.0501 10.782 10.5498 9.83701 9.78549 9.35106
threshold=0.11000000000000003 1.0000000180025095e-35 1.0000000180025095e-35 0 1.0000000180025095e-35 14335.500000000002 16441.685000000001 10661.500000000002 2005.5000000000002 2013.5000000000002 4715.0000000000009 13678.905000000001 1.0000000180025095e-35 2005.5000000000002 33004.500000000007 592.2750000000002 1.0000000180025095e-35 6110.0000000000009 1.0000000180025095e-35 52255.500000000007 10661.500000000002 1 56255.000000000007 20498.000000000004 3143.5000000000005 919.22500000000014 2 2907.5000000000005 349.71000000000009 28005.500000000004
decision_type=10 2 8 1 8 2 2 8 2 2 10 2 2 2 10 8 10 2 8 10 10 1 8 8 2 10 9 2 10 10
left_child=1 3 6 4 5 7 8 -1 -3 20 11 -2 -13 -9 15 24 -14 22 27 23 -10 -8 -7 25 -15 -19 28 -4 -22 -30
right_child=10 2 18 -5 -6 17 21 13 9 -11 -12 12 16 14 -16 -17 -18 19 -20 -21 26 -23 -24 -25 -26 -27 -28 -29 29 -31
leaf_value=-0.098326863700619466 -0.091100970740304682 0.018365989073582591 -0.0906643256928093 0.33632641870786056 -0.10373869254102303 0.025888531284756707 0.19221434346961166 -0.075676071714344359 -0.0050403850368339956 0.01472277595397453 -0.11322437949442597 -0.059296031838497423 0.11248538520720619 -0.025963993112123704 -0.056832512359090197 0.052340227016448727 -0.1284989894749598 -0.023152090833045848 -0.096140546404275204 0.0080671858459447129 0.077859436519658987 0.33632641870786056 -0.092039474168634339 0.10135456852018687 0.01520630778184885 0.16607249506054494 0.17141943236983967 0.058995558018339882 0.12460852072047249 0.21556167339675791
leaf_weight=58.656077459454536 167.89779326319695 28.900220394134521 6.0467690527439144 14.206896543502806 131.98187550902367 212.00197839736938 136.03323152661324 52.958530768752098 6.3972266763448706 21.216387167572975 239.98369945585728 52.43510802090168 18.251619532704357 160.60047779977322 84.163933008909225 75.862314403057098 3.9516369402408591 15.400969401001932 32.760686159133911 34.181436538696289 34.697862267494202 6.2677484750747672 9.1978207975625974 87.661496132612228 109.73939508199692 3.7430929243564597 70.082454845309258 16.047630608081818 57.033257439732552 14.098008617758749
leaf_count=377 1080 174 39 68 858 1269 725 333 36 128 1569 335 106 990 518 454 23 92 212 207 197 30 58 514 670 22 388 94 314 77
internal_value=0 0.0292184 0.11913 -0.00755436 -0.0122694 0.00108243 0.143911 -0.02415 0.110452 0.123528 -0.0912534 -0.0695137 -0.0209535 -0.015148 -0.00769971 0.00424478 0.0695961 0.0388406 -0.0501525 0.0668551 0.13619 0.198562 0.0209849 0.0856693 -0.00925168 0.0138456 0.141326 0.0180368 0.121397 0.142635
internal_weight=0 1479.94 429.581 1050.36 1036.15 904.168 374.726 541.981 232.425 203.525 482.52 242.536 74.6384 483.325 430.366 346.202 22.2033 362.187 54.8551 140.987 182.309 142.301 221.2 106.806 270.34 19.1441 175.912 22.0944 105.829 71.1313
internal_count=11957 8844 2414 6430 6362 5504 2069 3342 1314 1140 3113 1544 464 2965 2632 2114 129 2162 345 835 1012 755 1327 628 1660 114 976 133 588 391
cat_boundaries=0 1 2 3
cat_threshold=1 1 1
is_linear=0
shrinkage=0.1


Tree=2
num_leaves=31
num_cat=2
split_feature=3 15 4 13 4 11 11 14 3 11 1 13 14 0 0 10 1 1 15 0 11 4 14 14 15 2 11 10 11 14
split_gain=446.467 367.805 131.103 122.719 110.826 70.8043 46.8309 34.8874 22.4143 24.5425 18.2373 15.7322 20.3509 16.8357 15.2664 15.1466 14.6271 14.2423 13.9051 13.0845 12.9 12.8027 11.9545 15.8198 11.0577 9.99455 13.1918 8.8545 8.2972 8.23992
threshold=0.11000000000000003 1.0000000180025095e-35 1.0000000180025095e-35 0 1.0000000180025095e-35 485.65000000000003 550.79500000000019 2005.5000000000002 4715.0000000000009 993.92500000000007 11998.500000000002 1 2005.5000000000002 2403.0000000000005 3408.0000000000005 1.0000000180025095e-35 10050.000000000002 57228.500000000007 1.0000000180025095e-35 11850.000000000002 388.48000000000008 1.0000000180025095e-35 2012.5000000000002 2005.5000000000002 1.0000000180025095e-35 5970.0000000000009 493.72500000000008 1.0000000180025095e-35 720.06000000000006 2014.5000000000002
decision_type=10 2 8 1 8 8 8 2 10 10 10 1 2 2 2 10 10 10 2 2 10 8 2 2 2 2 8 10 10 2
left_child=1 3 6 4 5 10 16 -7 9 18 -1 12 28 -14 -9 -4 -3 25 -2 -19 -20 -22 23 -18 -11 26 -16 29 -8 -15
right_child=8 2 15 -5 -6 7 11 14 -10 24 -12 -13 13 27 17 -17 22 19 20 -21 21 -23 -24 -25 -26 -27 -28 -29 -30 -31
leaf_value=-0.089881988699001256 -0.09266803551926385 -0.031393853090410352 0.015951210040640582 0.26882919950024936 -0.10008582348286058 -0.072000720869450877 0.076254191325591303 -0.00036288161064607923 -0.10998661421015493 -0.018603957001315695 -0.026045160838685872 0.27789602744942415 -0.010606197676102573 0.16315246771587844 0.13274057119257152 -0.09225369602392898 0.0073966553434227245 -0.063248687751182087 -0.091603345956108181 0.055797494233375967 0.036909493220848688 -0.12288109759946649 0.021498621647504147 0.11295398862045827 0.12236486556055599 0.049248486908056395 -0.039208296066988411 0.061941443020198189 -0.10483251765777808 0.070424484902831944
leaf_weight=53.672727987170219 151.43502621352673 11.330928176641462 22.290783792734146 15.885598838329313 123.55686584115028 37.158691838383675 6.8390963375568372 139.60318475961685 223.20977447926998 17.102645605802536 269.27724803984165 8.9725611805915815 6.3815603107213965 196.46531353890896 5.3843385279178646 30.827839553356171 16.363174557685852 24.848638400435448 22.886937588453293 14.69118496775627 26.278896003961563 6.1965183913707724 23.730581909418106 107.29633472859859 8.2478462308645266 333.47843532264233 26.039337575435638 9.9267098009586316 4.0159927308559418 10.074390992522238
leaf_count=368 1033 66 133 68 858 244 40 845 1569 110 1692 39 33 974 32 212 98 161 154 86 161 41 135 561 45 1922 154 49 23 51
internal_value=0 0.0257102 0.100791 -0.00698959 -0.011253 0.000886426 0.120328 0.0217463 -0.0873604 -0.0656053 -0.0366545 0.147952 0.142963 0.149476 0.0281493 -0.0468464 0.0780932 0.037991 -0.0769894 -0.0190166 -0.0341029 0.00642042 0.0865103 0.0989862 0.0272606 0.0441682 -0.00974545 0.154196 0.00925862 0.158629
internal_weight=0 1498.11 454.515 1043.6 1027.71 904.154 401.397 581.204 455.358 232.148 322.95 242.676 233.703 222.848 544.045 53.1186 158.721 404.442 206.797 39.5398 55.3624 32.4754 147.39 123.66 25.3505 364.902 31.4237 216.466 10.8551 206.54
internal_count=11957 8844 2414 6430 6362 5504 2069 3444 3113 1544 2060 1209 1170 1107 3200 345 860 2355 1389 247 356 202 794 659 155 2108 186 1074 63 1025
cat_boundaries=0 1 2
cat_threshold=1 1
is_linear=0
shrinkage=0.1


Tree=3
num_leaves=31
num_cat=3
split_feature=3 15 4 4 13 11 2 14 3 2 13 14 15 0 14 4 10 14 1 2 1 18 0 2 1 14 11 0 1 2
split_gain=378.998 282.21 103.102 98.2866 83.1206 58.8361 34.2334 33.3166 21.8118 21.9015 20.7349 18.4638 17.3441 15.9961 15.1424 13.5143 13.3756 13.0527 12.3883 11.4866 9.17357 8.37794 8.00867 7.98364 7.84336 7.57701 7.50998 7.32598 7.05042 6.91046
threshold=0.11000000000000003 1.0000000180025095e-35 1.0000000180025095e-35 1.0000000180025095e-35 0 400.40000000000003 16441.685000000001 2005.5000000000002 4715.0000000000009 13678.905000000001 1 2005.5000000000002 1.0000000180025095e-35 3391.0000000000005 2012.5000000000002 1.0000000180025095e-35 1.0000000180025095e-35 2015.5000000000002 9992.0000000000018 13970.000000000002 80090.000000000015 2 2907.5000000000005 5970.0000000000009 44032.500000000007 2014.5000000000002 1033.5400000000002 5999.5000000000009 38078.000000000007 10009.500000000002
decision_type=10 2 8 8 1 8 2 2 10 2 1 2 2 2 2 10 10 2 10 2 10 9 2 2 8 2 8 2 10 2
left_child=1 2 4 6 5 18 10 -7 9 -2 11 -3 26 28 21 -14 22 20 -1 24 23 27 -5 -15 -16 -20 -11 -13 -9 -23
right_child=8 3 -4 16 -6 7 -8 13 -10 12 -12 14 15 17 19 -17 -18 -19 25 -21 -22 29 -24 -25 -26 -27 -28 -29 -30 -31
leaf_value=-0.10023503030806909 -0.083603897369073601 -0.0010031953333024992 -0.095244703015063201 -0.087367177774681837 0.22903173826622383 -0.067525790211821285 0.13823471898478928 0.0022824208280032457 -0.10700209300625799 -0.076337363730680521 0.28086682444775962 0.066739646169389849 0.08586952795284454 -0.010357120666225052 -0.0096212477068027269 -0.12489536006009985 -0.088530915580689262 -0.0842819153548056 -0.027482296568343268 0.16053027821772678 -0.054567415606892093 0.15219020141658132 0.049269003714644349 0.041190236606437725 0.14668545160777374 -0.10228959645188776 0.010154852123683826 0.13271671704458335 -0.072994332944548393 0.09206683200263549
leaf_weight=30.973832726478577 150.43235477805138 27.815621376037598 116.09020069241524 5.769737675786021 16.234882235527039 44.239985316991806 164.94906851649284 157.41252726316452 207.31297065317631 34.040608108043671 5.0311454385519019 87.185672461986542 19.993750751018528 32.550635054707527 30.179297789931297 3.5882676094770423 29.006962180137634 9.394060552120207 199.24621896445751 5.6953402906656256 11.175256714224814 39.009537696838379 16.723150610923767 390.49754808843136 3.592456340789794 14.526905924081801 14.237687677145002 20.855700060725212 13.509938418865202 37.488795235753059
leaf_count=226 1080 167 860 39 66 302 755 962 1569 242 22 436 106 195 167 23 212 57 1285 29 69 192 94 2227 20 96 93 102 85 179
internal_value=0 0.0227885 -0.00644227 0.0867618 0.00476617 0.000736487 0.102685 0.0162904 -0.0836696 -0.0619095 0.079855 0.075839 -0.0164944 0.0223242 0.0853807 0.0537993 -0.0436538 0.0323387 -0.0411297 0.0291603 0.0348617 0.0974044 0.0142199 0.037224 0.00700581 -0.0325658 -0.0508301 0.0794755 -0.00366755 0.122726
internal_weight=0 1509.15 1035.85 473.302 919.762 903.527 421.803 658.78 429.606 222.293 256.854 251.822 71.8603 614.54 224.007 23.582 51.4999 443.618 244.747 39.4671 434.223 184.54 22.4929 423.048 33.7718 213.773 48.2783 108.041 170.922 76.4983
internal_count=11957 8844 6430 2414 5570 5504 2069 3897 3113 1544 1314 1292 464 3595 1125 129 345 2548 1607 216 2491 909 133 2422 187 1381 335 538 1047 371
cat_boundaries=0 1 2 3
cat_threshold=1 1 1
is_linear=0
shrinkage=0.1


Tree=4
num_leaves=31
num_cat=2
split_feature=3 15 4 4 13 11 11 14 3 15 11 4 1 10 13 14 14 0 0 1 1 11 1 14 14 1 11 11 3 3
split_gain=322.615 219.339 91.5201 74.8254 66.1173 50.0578 26.9169 24.7243 19.7021 22.5097 17.3546 17.8941 15.0917 11.7712 11.1466 12.394 10.9717 10.7834 10.719 15.1423 10.1781 9.40141 9.15234 8.97978 12.2689 7.70359 7.27555 7.25732 7.72139 9.65063
threshold=5.0500000000000007 1.0000000180025095e-35 1.0000000180025095e-35 1.0000000180025095e-35 0 485.65000000000003 550.79500000000019 2005.5000000000002 4715.0000000000009 1.0000000180025095e-35 388.48000000000008 1.0000000180025095e-35 11998.500000000002 1.0000000180025095e-35 1 2005.5000000000002 2015.5000000000002 2403.0000000000005 10310.000000000002 57228.500000000007 10050.000000000002 1015.6850000000001 10050.000000000002 2010.5000000000002 2008.5000000000002 36995.000000000007 720.06000000000006 993.92500000000007 1684.5000000000002 370.00000000000006
decision_type=10 2 8 8 1 8 8 2 10 2 10 8 10 10 1 2 2 2 2 10 10 10 8 2 2 10 10 10 10 10
left_child=1 2 4 6 5 12 20 -7 9 -2 -11 27 -1 -5 15 26 18 -17 19 22 -3 -20 -9 24 -22 -14 -8 28 29 -12
right_child=8 3 -4 13 -6 7 14 16 -10 10 11 -13 25 -15 -16 17 -18 -19 21 -21 23 -23 -24 -25 -26 -27 -28 -29 -30 -31
leaf_value=-0.083223883619178082 -0.081184875491754308 -0.033602012975969348 -0.092205427898937944 0.012619176646198211 0.20261937050312107 -0.064810103551163734 0.062253649189990073 -0.12485687729481927 -0.10421579372903277 -0.084052026568206387 -0.065122284802177952 -0.12001145698571576 -0.016988569452542523 -0.084934915392872984 0.21345708208783887 -0.017299826532864621 -0.083308099402915503 0.11243664675594628 0.017176339343030415 -0.057355642766017158 0.056242289797514645 0.092324125404307011 0.024587662150572103 0.031018532209278273 0.12830963230180975 -0.076045778934826364 -0.10480934172789964 0.14729406575054202 -0.019975340514366609 0.13556806238109442
leaf_weight=48.397863566875458 143.59069131314754 11.462024152278898 110.15081013739109 22.614476948976517 16.497242331504822 34.359863996505737 7.2090730965137464 4.1351138055324546 192.34320411086082 20.24854651093483 3.1349237561225918 6.6872572153806678 238.48433880507946 27.30086874961853 9.7051145881414396 6.5821320712566367 9.6211391389369947 240.29875947535038 28.310762897133827 24.549600049853325 68.429961636662483 40.411798894405365 456.60752183198929 54.391279190778732 36.076562747359276 24.341988801956177 4.0832935869693756 7.303021788597106 13.060312360525129 10.166722908616064
leaf_count=370 1083 66 871 133 66 247 40 26 1569 153 19 49 1534 212 39 33 61 1074 157 164 346 218 2607 279 172 169 24 36 80 60
internal_value=0 0.0200065 -0.00603637 0.0752697 0.00421686 0.000616967 0.0884829 0.0175443 -0.0812492 -0.0596153 -0.00850718 0.0294008 -0.0319078 -0.0407374 0.108247 0.104292 0.0225647 0.108978 0.0244033 0.019169 0.0574057 0.0613664 0.0232464 0.0639705 0.0811206 -0.0224582 0.00184406 0.0590803 0.0346425 0.0882695
internal_weight=0 1524.02 1035.87 488.154 925.717 909.22 438.238 597.996 396.535 204.191 60.6008 40.3522 311.224 49.9153 267.878 258.173 563.636 246.881 554.015 485.292 170.36 68.7226 460.743 158.898 104.507 262.826 11.2924 33.665 26.362 13.3016
internal_count=11957 8908 6490 2418 5619 5553 2073 3480 3049 1480 397 244 2073 345 1210 1171 3233 1107 3172 2797 863 375 2633 797 518 1703 64 195 159 79
cat_boundaries=0 1 2
cat_threshold=1 1
is_linear=0
shrinkage=0.1


Tree=5
num_leaves=31
num_cat=3
split_feature=3 15 4 4 13 11 14 13 14 3 15 2 11 4 0 18 7 1 14 14 0 11 2 2 10 1 11 11 14 10
split_gain=275.411 172.668 79.8614 58.1417 54.141 43.2438 24.0136 21.1459 22.3509 19.1486 20.0627 16.8423 14.7131 14.9816 12.3911 11.023 10.8372 10.6365 10.4497 9.28247 8.91239 7.74983 7.74286 7.45924 7.16076 6.94259 12.0829 6.65442 6.63427 6.36253
threshold=5.0500000000000007 1.0000000180025095e-35 1.0000000180025095e-35 1.0000000180025095e-35 0 400.40000000000003 2005.5000000000002 1 2005.5000000000002 4715.0000000000009 1.0000000180025095e-35 12507.600000000002 388.48000000000008 1.0000000180025095e-35 3391.0000000000005 2 1.0000000180025095e-35 9992.0000000000018 2013.5000000000002 2015.5000000000002 2450.5000000000005 156.29000000000005 10269.025000000003 17587.995000000006 1.0000000180025095e-35 40006.500000000007 1284.6150000000002 520.46500000000015 2014.5000000000002 1.0000000180025095e-35
decision_type=10 2 10 8 1 8 2 1 2 10 2 2 10 8 2 9 2 10 2 2 2 10 2 2 10 10 10 10 2 10
left_child=1 2 4 7 5 17 -7 8 -3 10 23 15 -12 -14 -8 18 24 -1 -10 25 27 -4 -17 -2 -5 -16 -27 -13 -19 -22
right_child=9 3 21 16 -6 6 14 -9 11 -11 12 20 13 -15 19 22 -18 28 -20 -21 29 -23 -24 -25 -26 26 -28 -29 -30 -31
leaf_value=-0.094694837560921952 -0.089232047990832036 -0.0077450112719177041 0.037505493647542791 0.040257242960217106 0.1837978418011246 -0.060869093218723726 -0.0047599387190694099 0.20369183492717347 0.049106198489674992 -0.10158244741012179 -0.080465180293812485 0.078764541119563103 0.051501592390233865 -0.11776543672765777 0.035032591792332181 0.10635556651566819 -0.097779697299055085 -0.024123972304391762 -0.043528186470286626 -0.07625300622297887 0.10509404387460269 -0.096961392223343712 0.010350829152020404 -0.030530105896039925 -0.059293116259728676 -0.031293922009324342 0.039061854428254029 -0.093562957354572776 -0.09717296832348743 0.025751194677461672
leaf_weight=27.74365495890379 108.68875899910927 31.322146952152252 4.4894187748432151 17.619912907481194 16.371782183647156 41.118728369474411 173.87070307135582 12.871863558888434 97.723008722066879 178.32073355466127 19.096485570073128 4.9039222449064237 34.584750756621361 6.1603263765573493 354.54829927533865 50.772496089339256 18.613794103264809 194.98941294848919 13.910956650972365 8.6157894358038885 213.92449358105659 94.636662781238556 10.066250354051588 27.029913276433945 12.24843715131283 47.41184064745903 50.315313659608364 4.1262095272541046 13.279386810958384 10.607991531491278
leaf_count=230 882 182 37 101 66 305 1065 52 464 1569 153 23 195 49 1964 237 143 1304 80 58 922 800 46 201 101 282 282 20 97 47
internal_value=0 0.0178823 -0.00555302 0.0661611 0.00355782 0.00032186 0.0131902 0.0773656 0.0736477 -0.0778828 -0.0562724 0.0799265 -0.00803632 0.0259098 0.0179876 0.0562258 -0.0378896 -0.0365298 0.0375628 0.0265691 0.0974281 -0.0908714 0.0904708 -0.0775409 -0.000566449 0.0285279 0.0049291 2.15744e-05 -0.0287816 0.101346
internal_weight=0 1526.1 1027.39 498.711 928.265 911.893 675.881 450.229 437.357 373.881 195.56 406.035 59.8416 40.7451 634.762 172.473 48.4821 236.012 111.634 460.891 233.563 99.1261 60.8387 135.719 29.8684 452.275 97.7272 9.03013 208.269 224.532
internal_count=11957 8908 6490 2418 5653 5587 3956 2073 2021 3049 1480 1839 397 244 3651 827 345 1631 544 2586 1012 837 283 1083 202 2528 564 43 1401 969
cat_boundaries=0 1 2 3
cat_threshold=1 1 1
is_linear=0
shrinkage=0.1


Tree=6
num_leaves=31
num_cat=3
split_feature=3 15 4 7 13 11 13 14 14 3 15 11 11 4 8 1 0 1 14 0 18 14 1 1 10 2 1 11 11 1
split_gain=235.267 137.135 69.7169 47.5266 45.0949 35.6619 20.2947 20.1279 19.9413 18.6181 17.9361 15.6559 12.5158 12.6471 11.8092 11.0765 9.92818 9.78239 9.57236 8.76941 9.80442 14.0651 8.26425 7.45438 7.13097 7.03773 6.851 6.63138 7.25083 6.33974
threshold=5.0500000000000007 1.0000000180025095e-35 1.0000000180025095e-35 1.0000000180025095e-35 0 400.40000000000003 1 2005.5000000000002 2005.5000000000002 4715.0000000000009 1.0000000180025095e-35 421.185 388.48000000000008 1.0000000180025095e-35 1.0000000180025095e-35 11050.000000000002 2450.5000000000005 9992.0000000000018 2015.5000000000002 9825.0000000000018 2 2013.5000000000002 11050.000000000002 57228.500000000007 1.0000000180025095e-35 17587.995000000006 38078.000000000007 400.40000000000003 170.65000000000003 22006.000000000004
decision_type=10 2 10 2 1 8 1 2 2 10 2 8 10 8 2 8 2 10 2 2 9 2 10 10 10 2 10 10 10 10
left_child=1 2 4 6 5 17 7 -3 -7 10 25 22 -12 -14 19 -10 29 -1 23 20 21 -13 -9 -18 -4 -2 -22 28 -24 -17
right_child=9 3 24 -5 -6 8 -8 11 15 -11 12 14 13 -15 -16 16 18 -19 -20 -21 26 -23 27 -25 -26 -27 -28 -29 -30 -31
leaf_value=-0.091671147071133108 -0.085956913874165777 -0.013169198519179437 -0.056632420500456138 -0.098505946120311993 0.16972851976847414 -0.05724707115269792 0.18808033114164702 -0.060212532743819464 -0.12104182519340859 -0.099064451028581357 -0.076962957914677693 0.066093681157676748 0.045113242806939319 -0.11580561758329533 -0.022836894449330347 0.0060757552726947153 0.026216964902616921 -0.026425266257736408 -0.078676275177695015 0.11447403453125791 0.10075684846995658 -0.032381392380359579 -0.039775310457125762 -0.018940003753320986 -0.11246936778660757 -0.028086310354285021 0.026309018780193483 -0.030126994771142238 0.06078351673633612 -0.058856775374607234
leaf_weight=25.889275617897511 101.90137587487698 33.807757571339607 41.007760897278786 18.553489305078983 15.975142121315001 39.437909804284573 12.948618978261946 8.7322439700365049 5.8426080197095862 165.24360676109791 18.025214374065399 118.78639520704746 35.48263031244278 5.6635658144950858 11.370977282524107 36.438117831945419 523.94767447561026 204.44943542033434 9.4016229286789876 62.605709731578827 114.02389627695084 16.521442830562592 7.9233168065547934 39.298143848776817 51.717451997101307 26.473880961537361 13.863818988204001 11.387273296713827 75.464756861329079 25.600930765271187
leaf_count=230 882 200 367 148 66 305 53 53 41 1569 153 522 195 49 73 225 2910 1401 66 268 491 81 40 249 470 201 60 56 373 160
internal_value=0 0.0160267 -0.00510445 0.0585823 0.00317132 0.000248369 0.0645617 0.0611909 0.0117683 -0.0745907 -0.0530273 0.0668956 -0.00747675 0.0229636 0.0773389 0.0160176 0.0172793 -0.0337587 0.0213959 0.0808352 0.0728336 0.0540696 0.0328769 0.0230663 -0.0877755 -0.0740227 0.0926862 0.0414538 0.0512287 -0.0207192
internal_weight=0 1525 1019.01 505.99 926.281 910.306 487.436 474.488 679.967 352.79 187.547 440.68 59.1714 41.1462 337.172 640.529 634.686 230.339 572.647 325.801 263.196 135.308 103.508 563.246 92.7252 128.375 127.888 94.7753 83.3881 62.039
internal_count=11957 8908 6490 2418 5653 5587 2270 2217 3956 3049 1480 2017 397 244 1495 3651 3610 1631 3225 1422 1154 603 522 3159 837 1083 551 469 413 385
cat_boundaries=0 1 2 3
cat_threshold=1 1 1
is_linear=0
shrinkage=0.1


Tree=7
num_leaves=31
num_cat=1
split_feature=3 15 4 7 13 2 1 3 0 1 14 0 15 10 0 4 0 1 14 2 3 11 2 3 11 14 1 11 1 11
split_gain=201.06 109.505 60.8283 38.9515 38.1002 30.3001 19.3736 18.187 17.6612 16.1249 15.0596 15.0236 13.9325 13.1617 12.3476 11.0818 11.0814 10.9227 9.77305 9.50882 9.01699 7.28205 7.13901 6.90599 9.49663 6.13244 6.00206 7.42313 6.72049 8.90905
threshold=5.0500000000000007 1.0000000180025095e-35 1.0000000180025095e-35 1.0000000180025095e-35 0 14335.500000000002 10661.500000000002 2810.0000000000005 4377.5000000000009 33004.500000000007 2005.5000000000002 2583.5000000000005 1.0000000180025095e-35 1.0000000180025095e-35 2403.0000000000005 1.0000000180025095e-35 6110.0000000000009 13911.000000000002 2014.5000000000002 13401.850000000002 370.00000000000006 156.29000000000005 21571.275000000005 853.2650000000001 908.18500000000006 2004.5000000000002 52255.500000000007 1265.6450000000002 20498.000000000004 919.22500000000014
decision_type=10 2 10 2 1 2 8 10 2 10 2 2 2 10 2 8 2 10 2 2 10 10 2 10 8 2 10 10 8 10
left_child=1 2 4 8 5 6 -1 11 17 10 -8 -2 -13 18 -12 20 22 25 -10 -16 -14 -4 -7 -22 -25 -3 28 -28 29 -18
right_child=7 3 21 -5 -6 16 9 -9 13 -11 14 12 15 -15 19 -17 26 -19 -20 -21 23 -23 -24 24 -26 -27 27 -29 -30 -31
leaf_value=-0.080169999798067618 -0.088758571433379757 0.089786748472159672 0.040310964727072011 -0.095232006292499227 0.15884347638960664 0.018743282763165208 -0.057617466243632509 -0.089506183898410502 0.085793607668514404 -0.050966872108904188 -0.022354489803952399 -0.045459461001294249 -0.07679350295145472 -0.016220118616227127 0.023803995876917023 -0.11479484028354757 -0.033629647570219863 0.045081908999046932 -0.0011732904486607702 -0.053904262745899503 0.21844864350522342 -0.09144113465996119 -0.018819190044040989 0.020254037988419762 0.19231981845996859 -0.044187158587685273 -0.085065221329690924 0.028453313118519587 0.062545194221744024 0.12422867224856018
leaf_weight=42.972514063119888 43.468407340347767 4.0414335876703289 4.4201780706644049 17.335542991757393 15.392298460006712 166.55134657025337 42.726161286234856 207.98292046040297 229.76619772613049 79.767898604273796 110.01310874521732 54.132268570363522 3.6596024334430757 14.801313564181326 218.91855359077454 3.8791783303022376 16.527445964515213 209.52993379533291 13.691785544157026 16.967246979475021 3.6430211365222958 82.37157529592514 72.676302433013916 12.005892716348173 4.3770039826631537 22.098288647830486 7.2559413239359847 27.94816729426384 101.71163100004196 4.5620099902153006
leaf_count=382 383 24 37 148 66 951 328 2024 995 531 723 469 23 82 1323 35 94 980 63 96 20 800 406 75 20 126 45 166 519 23
internal_value=0 0.0143873 -0.00468911 0.0521019 0.00282936 0.000186371 -0.0159087 -0.0713807 0.0572729 -0.0100131 -0.00160703 -0.0412622 -0.0159908 0.0753364 0.0053115 0.0418805 0.0209059 0.037478 0.0809027 0.0182144 0.0675405 -0.0847312 0.00733197 0.0939166 0.0662247 -0.0234736 0.0414574 0.00505594 0.0518928 0.000517807
internal_weight=0 1522.05 1010.78 511.264 923.991 908.598 511.365 333.148 493.929 468.393 388.625 125.165 81.697 258.259 345.899 27.5647 397.233 235.67 243.458 235.886 23.6855 86.7918 239.228 20.0259 16.3829 26.1397 158.005 35.2041 122.801 21.0895
internal_count=11957 8908 6490 2418 5653 5587 3383 3049 2270 3001 2470 1025 642 1140 2142 173 2204 1130 1058 1419 138 837 1357 115 95 150 847 211 636 117
cat_boundaries=0 1
cat_threshold=1
is_linear=0
shrinkage=0.1


Tree=8
num_leaves=31
num_cat=2
split_feature=3 15 4 13 7 2 3 13 1 14 15 1 14 8 14 2 4 11 11 1 14 11 10 0 11 14 0 11 11 2
split_gain=171.689 87.5377 53.0829 32.4743 32.0392 25.2845 17.9314 17.8062 15.2638 15.2112 14.9742 14.6345 13.4243 11.5926 10.5354 10.2985 10.0276 9.74166 8.75015 12.0495 8.07897 8.47225 7.5816 7.29363 7.05784 7.03357 6.58941 6.17836 11.5424 6.03804
threshold=5.0500000000000007 1.0000000180025095e-35 1.0000000180025095e-35 0 1.0000000180025095e-35 10269.025000000003 4715.0000000000009 1 10661.500000000002 2005.5000000000002 1.0000000180025095e-35 32964.500000000007 2005.5000000000002 1.0000000180025095e-35 2010.5000000000002 16441.685000000001 1.0000000180025095e-35 388.48000000000008 408.12500000000006 30751.000000000004 2010.5000000000002 525.40500000000009 1.0000000180025095e-35 5018.0000000000009 1033.5400000000002 2013.5000000000002 11016.500000000002 1170.3650000000002 1056.0450000000003 12320.015000000001
decision_type=10 2 8 1 2 2 10 1 8 2 2 10 2 2 2 2 8 10 8 8 2 10 10 2 8 2 2 10 8 2
left_child=1 2 3 5 7 8 10 9 -1 29 24 12 -10 15 -7 20 17 -12 -14 -20 -11 -22 23 -4 -2 -16 -27 28 -25 -3
right_child=6 4 22 -5 -6 14 -8 -9 11 13 16 -13 18 -15 25 -17 -18 -19 19 -21 21 -23 -24 27 -26 26 -28 -29 -30 -31
leaf_value=-0.076585163552474564 -0.077176822666828349 0.010273216737152995 -0.074521351262780575 0.15020112507898617 -0.092056322627794118 0.00098195902373466259 -0.094428829033100362 0.16883337150105782 -0.065104418001281403 0.057288750785993339 -0.064249473290319312 -0.053099811101558696 -0.012694144252169746 -0.026197282042252336 0.040685497608080136 0.074390036555327513 -0.10180433945604839 0.039525570723293033 0.017981743459598503 0.19452258194385522 -0.0048169797095582861 0.053746202204027954 -0.10751548218493452 -0.012915870771488766 -0.0057539320042609213 -0.012657511384003726 0.065583965927230412 -0.085199090608501976 0.25357513807700366 -0.082361720430608576
leaf_weight=40.170038685202599 99.309679269790649 24.555526115000248 28.426469407975674 14.686252713203428 16.199351117014885 246.83340685814619 142.65043091028929 12.470104321837423 30.43450004607439 156.89341164380312 12.077336087822912 69.338933080434799 137.83690758794546 17.894820600748062 177.80599676817656 178.3743631541729 8.9486862197518331 36.037608250975609 128.59146788716316 3.9859794676303855 56.152087211608887 44.106959618628025 45.745033092796803 5.0033782050013524 16.075114250183105 54.377201065421104 13.420559421181677 3.6567011475563049 2.4072499498724937 9.8623695820569974
leaf_count=379 955 145 281 66 148 1420 1569 53 241 688 113 479 928 120 961 735 89 195 736 22 279 195 483 50 128 316 71 37 20 55
internal_value=0 0.0129098 -0.00431819 0.00269488 0.0463553 0.000295312 -0.0682001 0.0508368 -0.0180374 0.0478206 -0.0465036 -0.0116842 -0.00213888 0.0526856 0.0155723 0.0559268 -0.00460136 0.013477 0.00494774 0.0232895 0.0431197 0.0209467 -0.0798044 -0.047707 -0.0672264 0.0302358 0.00283038 0.0211657 0.0736504 -0.0162711
internal_weight=0 1519.23 1002.72 917.481 516.509 902.795 315.099 500.31 410.358 487.84 172.448 370.188 300.849 453.422 492.437 435.527 57.0636 48.1149 270.414 132.577 257.152 100.259 85.2388 39.4938 115.385 245.604 67.7978 11.0673 7.41063 34.4179
internal_count=11957 8908 6490 5619 2418 5553 3049 2270 2785 2217 1480 2406 1927 2017 2768 1897 397 308 1686 758 1162 474 871 388 1083 1348 387 107 70 200
cat_boundaries=0 1 2
cat_threshold=1 1
is_linear=0
shrinkage=0.1


Tree=9
num_leaves=31
num_cat=2
split_feature=3 4 15 13 0 10 13 11 1 2 1 3 0 14 14 14 14 10 3 0 11 2 14 11 14 1 3 11 11 2
split_gain=146.81 83.1327 74.491 31.2981 27.7389 14.1159 14.0774 12.5989 10.9866 9.78002 10.7232 9.4858 9.17605 7.94406 7.83039 7.0126 6.82925 6.52174 6.39436 6.3983 6.22724 6.09406 6.53566 8.39271 6.58659 6.03427 5.86262 11.0292 7.25115 5.80218
threshold=1728.5000000000002 1.0000000180025095e-35 1.0000000180025095e-35 0 2993.0000000000005 1.0000000180025095e-35 1 421.185 9992.0000000000018 5970.0000000000009 11554.500000000002 2.0700000000000007 3558.0000000000005 2005.5000000000002 2015.5000000000002 2014.5000000000002 2005.5000000000002 1.0000000180025095e-35 550.50000000000011 4005.0000000000005 170.65000000000003 8000.7600000000011 2012.5000000000002 345.08500000000004 2008.5000000000002 38078.000000000007 4715.0000000000009 987.45000000000016 1265.6450000000002 12320.015000000001
decision_type=10 8 2 1 2 10 1 8 8 2 8 10 2 2 2 2 2 10 10 2 10 2 2 8 2 10 10 10 10 2
left_child=1 2 3 4 8 12 7 20 -1 -6 -11 25 -3 29 16 17 -12 18 19 -15 -4 22 23 24 -22 -10 27 -2 -29 -9
right_child=26 5 6 -5 9 -7 -8 13 11 10 14 -13 -14 15 -16 -17 -18 -19 -20 -21 21 -23 -24 -25 -26 -27 -28 28 -30 -31
leaf_value=-0.10167724015226408 -0.073083078555921874 -0.071661334152977305 -0.05499137191563639 0.14855325953307155 -0.019868609555620836 -0.094308509489192574 0.15593394594839938 0.048711534710934645 -0.014475681169205524 -0.092861983512926807 -0.034073174147811885 -0.095180122811422019 0.0037974015486231106 0.043081916383446987 -0.075972939751654173 -0.0044896594729158263 0.019063306846071205 0.0041763477651509551 0.1452660320053952 0.073110153422915866 0.0044590288858768158 -0.0067063402780765452 -0.027037773302386648 0.15149761348613117 0.07718310479928063 -0.0865530998611653 -0.092084221444703629 0.10396206341667982 -0.054771583235347088 -0.066132445014070937
leaf_weight=19.703380301594734 68.517396353185177 29.526471480727196 10.904558129608629 14.002016916871069 103.57425282895565 74.175822250545025 11.749386101961134 8.4445420652627963 210.50345826894045 9.3326768428087217 25.319527514278889 17.369052715599537 35.479649156332016 113.46650274097919 9.269353508949278 17.240817382931709 540.89641492068768 19.085437878966331 9.4796781092882139 189.40980468690395 24.988180816173553 40.189544759690762 11.369415484368799 7.924764856696128 24.827778682112694 12.293529555201529 132.19531559944153 6.3726112619042379 5.2477069050073624 9.1832507997751218
leaf_count=209 650 279 60 67 717 800 52 49 1409 87 206 178 284 481 71 80 3041 84 45 773 129 196 65 37 117 93 1569 43 34 52
internal_value=0 0.00935098 0.0163882 0.000137236 -0.00205427 -0.0644953 0.0477727 0.0451606 -0.0298912 0.00845421 0.0134703 -0.0240018 -0.0304768 0.0543789 0.0151947 0.0576901 0.0166872 0.0609245 0.0643919 0.0618607 0.0170685 0.0242577 0.0422642 0.0559101 0.040704 -0.0184528 -0.0791468 -0.0578052 0.0322783 -0.0111168
internal_weight=0 1599.71 1460.53 962.264 948.262 139.182 498.264 486.514 259.869 688.392 584.818 240.166 65.0061 366.31 575.485 348.682 566.216 331.441 312.356 302.876 120.204 109.3 69.1101 57.7407 49.816 222.797 212.333 80.1377 11.6203 17.6278
internal_count=11957 9661 8298 6078 6011 1363 2220 2168 1889 4122 3405 1680 563 1564 3318 1463 3247 1383 1299 1254 604 544 348 283 246 1502 2296 727 77 101
cat_boundaries=0 1 2
cat_threshold=1 1
is_linear=0
shrinkage=0.1


Tree=10
num_leaves=31
num_cat=3
split_feature=3 15 4 13 7 1 3 13 14 0 0 1 4 14 14 2 15 2 18 0 14 10 1 1 1 3 3 0 8 0
split_gain=127.14 58.5625 40.5834 24.1772 22.8415 18.4237 17.0246 13.9726 13.7702 13.5431 11.7714 10.3397 10.042 8.75228 8.4001 8.38899 8.28502 7.69072 7.4549 8.60882 7.38676 7.28377 7.26581 6.76309 5.99936 5.81246 6.74623 6.90906 5.65905 5.42733
threshold=0.11000000000000003 1.0000000180025095e-35 1.0000000180025095e-35 0 1.0000000180025095e-35 10661.500000000002 4715.0000000000009 1 2005.5000000000002 2583.5000000000005 2403.0000000000005 10050.000000000002 1.0000000180025095e-35 2015.5000000000002 2005.5000000000002 15581.355000000001 1.0000000180025095e-35 5414.0000000000009 2 9200.5000000000018 2013.5000000000002 1.0000000180025095e-35 16523.500000000004 35995.000000000007 83571.500000000015 370.00000000000006 853.2650000000001 8313.5000000000018 1.0000000180025095e-35 2302.0000000000005
decision_type=10 2 10 1 2 8 10 1 2 2 2 10 8 2 2 2 2 2 9 2 2 10 10 10 10 10 10 2 2 2
left_child=1 2 3 5 7 -1 9 11 -7 -2 15 -3 16 17 -13 23 -11 -12 19 20 22 -4 -16 29 -19 -18 -27 -28 -20 -10
right_child=6 4 21 -5 -6 8 -8 -9 10 12 13 14 -14 -15 18 -17 25 24 28 -21 -22 -23 -24 -25 -26 26 27 -29 -30 -31
leaf_value=-0.070162715015961871 -0.082199805417726826 -0.039340564172233625 -0.043016235201582022 0.13723626841948455 -0.086782193901394591 -0.04751080695385252 -0.08975626354989448 0.15098661151950632 -0.01534144410212962 -0.031556664510941843 -0.012536594847972059 -0.010835326689585908 -0.094138114426334588 -0.079416705497526829 0.077338941402300215 0.14444898896680122 -0.083636517613010275 0.018721125708985948 0.062677396892172305 0.075042660985959506 -0.027386983228268838 -0.10690559152124579 0.023168434755273359 -0.11664575657805838 -0.055332490929742545 0.16252563272950651 0.0026110070594874326 0.13353256589844037 -0.027594143298311259 -0.12330333221881849
leaf_weight=35.796910002827644 53.943281091749668 16.30557406693697 34.39875940233469 13.048849672079085 14.274549156427382 50.68164648860693 122.56055498868227 11.391475468873976 109.13680823892355 62.761274084448814 101.91868056356907 28.664533346891403 16.344668634235859 10.457779727876185 29.524066463112831 2.9547148048877707 4.107678495347499 561.40484681725502 192.0223977342248 41.433540068566799 23.73408941924572 37.078872755169868 153.45970182865858 7.7228272184729567 11.157291226088999 4.0992105379700652 23.328931793570522 4.8727882504463187 7.2050832435488692 4.8638596534728995
leaf_count=379 564 98 363 66 148 420 1569 53 733 595 664 167 170 84 132 18 26 3073 798 172 122 464 673 64 70 20 146 23 51 32
internal_value=0 0.0107617 -0.00360582 0.00209835 0.03796 0.000130482 -0.0613647 0.0414948 0.00305537 -0.0408306 0.00622079 0.0389615 -0.0215118 0.0113653 0.0416435 -0.0220413 -0.00954195 0.0127729 0.0450059 0.0334395 0.0251008 -0.0761587 0.0319087 -0.0260827 0.0172781 0.0284071 0.0426556 0.0252321 0.0594127 -0.0199477
internal_weight=0 1498.64 980.622 909.144 518.015 896.095 292.018 503.74 860.298 169.458 809.617 492.349 115.515 684.939 476.043 124.678 99.1699 674.481 447.379 248.151 206.718 71.4776 182.984 121.723 572.562 36.4086 32.3009 28.2017 199.227 114.001
internal_count=11957 8844 6430 5603 2414 5537 3113 2266 5158 1544 4738 2213 980 3891 2115 847 810 3807 1948 1099 927 827 805 829 3143 215 189 169 849 765
cat_boundaries=0 1 2 3
cat_threshold=1 1 1
is_linear=0
shrinkage=0.1


Tree=11
num_leaves=31
num_cat=2
split_feature=3 4 15 13 0 10 13 0 1 3 14 0 14 1 11 1 0 2 11 11 3 15 2 11 14 11 1 2 11 2
split_gain=110.735 60.1487 48.6657 23.8715 19.6194 12.9113 11.3745 9.76266 9.69994 8.06623 7.8689 7.81939 7.33237 6.70107 6.18535 10.8839 6.98826 12.8386 5.98194 5.83601 9.85223 6.17997 5.23082 5.20039 5.10202 6.76039 5.03108 4.83086 4.72265 5.74042
threshold=1728.5000000000002 1.0000000180025095e-35 1.0000000180025095e-35 0 2993.0000000000005 1.0000000180025095e-35 1 2499.0000000000005 9992.0000000000018 2.0700000000000007 2014.5000000000002 3558.0000000000005 2015.5000000000002 9992.0000000000018 1375.5000000000002 50192.000000000007 9650.0000000000018 19816.415000000005 170.65000000000003 868.78000000000009 6985.0000000000009 1.0000000180025095e-35 26685.865000000002 208.66500000000005 2014.5000000000002 818.9100000000002 38078.000000000007 5414.0000000000009 340.16500000000002 10505.700000000003
decision_type=10 8 2 1 2 10 1 2 8 10 2 2 2 10 10 10 2 2 8 8 10 2 2 10 2 8 10 2 10 2
left_child=1 2 3 4 8 11 7 23 -1 26 13 -3 14 -9 15 24 17 -16 -15 -2 21 -21 -18 -4 -6 -26 -10 -25 -29 -30
right_child=19 5 6 -5 12 -7 -8 10 9 -11 -12 -13 -14 18 16 -17 22 -19 -20 20 -22 -23 -24 27 25 -27 -28 28 29 -31
leaf_value=-0.098284893729492409 -0.084367978206141378 -0.066303596492118616 -0.075943069304654859 0.13843570456686191 0.0095227502037301404 -0.089905654177268035 0.14143080718866427 -0.071591525435240944 -0.011902266630721466 -0.090794619938434837 -0.019729341949530112 0.0052841528560062731 -0.076871332270964904 -0.043272945758258817 0.14360212240488185 -0.055897953803768087 -0.013077551887568463 -0.024926320884777066 0.048273250293325839 -0.033868820483046784 -0.077871361332728928 0.083866672602501122 0.078119973198947784 0.05458685173548327 -0.09457916119322049 0.029280111470173526 -0.080954027727704311 -0.061094567062975391 0.054860957387823789 -0.029267349987892634
leaf_weight=17.144440919160843 136.62280552089214 27.082665838301182 7.6577003672718993 12.317634150385855 557.53429681807756 64.36450420320034 10.531068027019499 4.8561476692557326 206.54683291167021 15.192698895931242 19.59689574688673 34.945811741054058 10.269651353359221 7.2710329741239539 5.3540976271033278 28.117745533585548 7.6565669327974311 29.028297990560532 389.3827511370182 11.10316848754883 32.610059157013893 7.4496168866753569 35.220180526375771 18.288918823003769 10.832618020474913 7.4287152439355841 11.119484044611452 11.670238025486467 16.332699842751026 16.111707344651222
leaf_count=209 1695 279 42 67 3318 800 52 28 1409 178 96 284 90 38 29 193 37 158 1658 104 450 47 176 96 79 42 93 59 77 74
internal_value=0 0.00764142 0.0133877 0.000125641 -0.00168397 -0.0585298 0.0385999 0.0363951 -0.0256916 -0.0203469 0.0421457 -0.0259723 0.00699643 0.0451657 0.00826086 0.00485253 0.0349028 0.00131728 0.0465951 -0.0735799 -0.0447721 0.0134063 0.0618347 0.00183094 0.00781915 -0.0441932 -0.0154298 0.0113748 -0.00653995 0.0130833
internal_weight=0 1581.86 1455.46 953.763 941.446 126.393 501.699 491.168 250.003 232.859 421.107 62.0285 691.442 401.51 681.173 603.913 77.2591 34.3824 396.654 187.786 51.1628 18.5528 42.8767 70.0613 575.796 18.2613 217.666 62.4036 44.1146 32.4444
internal_count=11957 9661 8298 6078 6011 1363 2220 2168 1889 1680 1820 563 4122 1724 4032 3632 400 187 1696 2296 601 151 213 348 3439 121 1502 306 210 151
cat_boundaries=0 1 2
cat_threshold=1 1
is_linear=0
shrinkage=0.1


Tree=12
num_leaves=31
num_cat=3
split_feature=3 4 15 13 11 10 13 1 2 14 9 0 14 17 14 11 0 0 1 11 2 15 11 3 2 11 0 1 11 1
split_gain=95.5358 50.6872 39.2503 20.9413 16.4808 12.1821 10.3758 8.94684 8.81926 7.79014 6.93556 7.19005 6.72512 6.67218 12.5568 6.36731 5.95076 5.83314 13.3255 6.27518 6.46737 5.78989 6.92305 5.87533 5.47491 9.38001 5.44779 5.08113 4.86514 7.1844
threshold=1728.5000000000002 1.0000000180025095e-35 1.0000000180025095e-35 0 592.2750000000002 1.0000000180025095e-35 1 7950.0000000000009 16441.685000000001 2014.5000000000002 1.0000000180025095e-35 3558.0000000000005 2005.5000000000002 2 2011.5000000000002 183.38000000000002 10080.000000000002 9650.0000000000018 57228.500000000007 1015.6850000000001 71955.000000000015 1.0000000180025095e-35 875.50000000000011 6985.0000000000009 32020.000000000004 1569.9400000000003 1301.0000000000002 34312.000000000007 745.99000000000012 38078.000000000007
decision_type=10 8 2 1 8 10 1 10 2 2 2 2 2 9 2 8 2 2 10 8 2 2 10 10 2 8 2 10 8 10
left_child=1 2 3 4 7 10 8 -1 15 13 11 -3 -6 26 -15 -4 -17 18 28 -19 -21 -2 -23 -24 25 -10 -9 -27 29 -14
right_child=21 5 6 -5 12 -7 -8 9 24 -11 -12 -13 17 14 -16 16 -18 19 -20 20 -22 22 23 -25 -26 27 -28 -29 -30 -31
leaf_value=-0.10121461309991507 -0.083897403019268624 -0.072498912509136787 -0.052718976341484251 0.13446078082211074 -0.049057090784521161 -0.087490278945211664 0.13607311433571381 -0.063441829134756614 0.049943526824174245 -0.072820091064272702 0.12980585897413388 -0.0012257476124206239 0.036871321625210639 0.11192884041492257 -0.12351648650537686 0.021941367526203952 0.092079051894244382 -0.011674934399215143 -0.076233754938906162 0.055012715504529158 -0.059074629294127018 -0.066856078362234811 0.072781561143173551 -0.044718603321550657 0.011631851695799552 0.058245263214491465 -0.0099602590758769219 0.18627315766841687 0.0038722074331574759 -0.053824089389282431
leaf_weight=11.957498975098131 115.29238956421614 24.507563374936581 10.949079819023607 11.457726106047629 18.179372124373913 59.765816375613213 9.8844173550605756 20.094231680035591 142.00453948974609 21.02214652299881 2.7998522967100135 33.503556482493877 100.46779365092516 10.219411209225653 2.9102236703038207 283.07067678123713 12.636788204312323 23.240042015910149 18.21832437813282 74.318075023591518 5.3248226791620246 44.091194070875645 7.7106969654560116 9.4968858361244184 31.363575726747513 4.9725148975849143 365.23473306745291 8.231595426797865 257.97573173046112 9.5657321065664274
leaf_count=152 1566 266 64 67 162 800 52 163 575 193 26 271 563 72 20 1295 54 123 134 371 29 543 47 140 127 20 2564 33 1404 61
internal_value=0 0.00687509 0.0120442 8.58435e-05 -0.00155428 -0.055428 0.034629 -0.015922 0.032596 -0.0134907 -0.0239168 -0.031336 0.0106651 -0.0103606 0.0597417 0.0221659 0.0249386 0.0128849 0.00724857 0.034044 0.047385 -0.0706943 -0.0458615 0.00793308 0.0497393 0.0574398 -0.0127492 0.138059 0.0113814 0.0289867
internal_weight=0 1573.88 1453.3 950.186 938.728 120.577 503.113 431.438 493.229 419.481 60.811 58.0111 507.29 398.459 13.1296 306.657 295.707 489.111 386.228 102.883 79.6429 176.591 61.2988 17.2076 186.572 155.209 385.329 13.2041 368.009 110.034
internal_count=11957 9661 8298 6078 6011 1363 2220 3164 2168 3012 563 537 2847 2819 92 1413 1349 2685 2162 523 400 2296 730 187 755 628 2727 53 2028 624
cat_boundaries=0 1 2 3
cat_threshold=1 1 1
is_linear=0
shrinkage=0.1


Tree=13
num_leaves=31
num_cat=3
split_feature=3 4 15 13 0 10 13 1 3 2 1 3 11 14 11 11 2 1 11 14 11 14 0 1 14 2 11 11 19 14
split_gain=82.3249 42.7196 31.7438 18.4507 14.6443 11.4305 9.49155 8.35959 7.31524 7.21713 6.60343 5.89842 7.66155 5.81504 5.72181 5.24489 4.99049 7.69833 5.64037 7.73964 5.29078 5.26723 4.74774 4.61772 14.4386 4.48324 6.84404 5.81327 5.32218 4.47674
threshold=1728.5000000000002 1.0000000180025095e-35 1.0000000180025095e-35 0 2993.0000000000005 1.0000000180025095e-35 1 9992.0000000000018 2.0700000000000007 16441.685000000001 15044.500000000002 4715.0000000000009 987.45000000000016 2015.5000000000002 1265.6450000000002 170.65000000000003 5970.0000000000009 11554.500000000002 272.18000000000006 2008.5000000000002 541.70000000000016 2005.5000000000002 10080.000000000002 11050.000000000002 2009.5000000000002 30887.540000000005 1317.3850000000002 1192.4200000000003 2 2007.5000000000002
decision_type=10 8 2 1 2 10 1 8 10 2 10 10 8 2 8 8 2 8 8 2 10 2 2 8 2 2 8 8 9 2
left_child=1 2 3 4 7 10 9 -1 -9 15 -3 12 -2 16 -14 -4 20 -18 19 -19 23 -20 -17 24 -6 26 27 29 -27 -11
right_child=11 5 6 -5 13 -7 -8 8 -10 25 -12 -13 14 -15 -16 22 17 18 21 -21 -22 -23 -24 -25 -26 28 -28 -29 -30 -31
leaf_value=-0.095056746879613296 -0.061755649908379832 -0.089572745910730958 -0.051829669357384346 0.13113835313829922 0.2534774728468161 -0.085067502787213367 0.13156938623135361 -0.013246533621139129 -0.087996114051665825 -0.006096734901089221 -0.005657614852604324 -0.083223529557535592 0.090141462795952934 -0.071965619998887606 -0.040803066966519662 0.019547742576641151 -0.087154714120147747 0.22645298994826435 -0.03639850465010213 0.023919550606616741 -0.096330177054343435 0.012661782187979928 0.081826612103973337 -0.012344551201373729 -0.11122208880856554 -0.055423209908865859 0.10258056387670955 -0.057415518724569584 0.034471280107513443 0.054728110184414917
leaf_weight=14.930184051394461 53.360620006918907 11.651853479444979 9.882513076066969 10.616361439228056 2.4612843990325919 55.540565002709627 9.2339546084403974 214.05719844996929 13.945057101547716 13.633600890636442 48.04354652762413 99.60023956745863 6.5012852102518055 9.4438381493091565 6.8562181442976007 285.45687490701675 7.9549029842019072 2.8714174777269346 22.797433905303478 5.5024863183498383 7.1979292780160895 546.0260374173522 12.789095044136046 86.812058538198471 1.9421711340546606 8.5891834795475006 23.043908193707466 5.4794158190488806 28.239733159542084 107.59933699667454
leaf_count=209 628 123 59 67 26 800 52 1502 178 57 440 1569 43 90 56 1300 84 20 200 39 49 2988 54 604 22 35 93 22 114 434
internal_value=0 0.00618702 0.0108428 4.8591e-05 -0.00143836 -0.0524159 0.0311173 -0.0225653 -0.0178184 0.0292423 -0.0220369 -0.0678104 -0.044801 0.00596763 0.0229295 0.0198434 0.00704432 0.0105484 0.0118949 0.0933684 -0.0137905 0.0106955 0.0222183 -0.00727714 0.0926245 0.0447638 0.0524508 0.0433342 0.0135062 0.0478879
internal_weight=0 1565.74 1450.51 946.558 935.942 115.236 503.948 242.932 228.002 494.714 59.6954 166.318 66.7181 693.01 13.3575 308.128 683.566 585.152 577.197 8.3739 98.4134 568.823 298.246 91.2155 4.40346 186.585 149.756 126.712 36.8289 121.233
internal_count=11957 9661 8298 6078 6011 1363 2220 1889 1680 2168 563 2296 727 4122 99 1413 4032 3331 3247 59 701 3188 1354 652 48 755 606 513 149 491
cat_boundaries=0 1 2 3
cat_threshold=1 1 1
is_linear=0
shrinkage=0.1


Tree=14
num_leaves=31
num_cat=2
split_feature=3 7 13 15 11 8 14 14 14 0 14 1 1 18 10 15 11 0 0 1 4 3 3 11 2 14 14 0 1 11
split_gain=70.8451 37.5352 30.3324 28.5111 15.0211 8.74516 8.13461 7.83994 7.31363 7.20418 6.85692 6.76404 6.67867 6.56947 6.43492 5.8277 5.92839 5.56589 5.50395 5.46222 5.34607 5.31723 5.14215 4.99455 6.85448 9.6182 4.96017 4.45945 8.55333 4.65474
threshold=1728.5000000000002 1.0000000180025095e-35 0 1.0000000180025095e-35 438.83500000000009 1.0000000180025095e-35 2005.5000000000002 2008.5000000000002 2005.5000000000002 5173.5000000000009 2005.5000000000002 10661.500000000002 16215.500000000002 1 1.0000000180025095e-35 1.0000000180025095e-35 875.50000000000011 13755.500000000002 1992.0000000000002 16523.500000000004 1.0000000180025095e-35 3015.0000000000005 710.00000000000011 263.94500000000005 12320.015000000001 2004.5000000000002 2004.5000000000002 6818.0000000000009 35995.000000000007 833.34000000000015
decision_type=10 2 1 2 8 2 2 2 2 2 2 10 10 9 10 2 10 2 2 10 8 8 8 8 2 2 2 2 10 8
left_child=1 2 3 4 5 7 23 8 18 22 -6 -8 -9 14 17 -2 -17 19 -1 -13 21 -18 -10 -5 25 -25 -20 28 -12 -29
right_child=15 -3 -4 6 10 -7 11 12 9 -11 27 13 -14 -15 -16 16 20 -19 26 -21 -22 -23 -24 24 -26 -27 -28 29 -30 -31
leaf_value=-0.1135619461001989 -0.079225759710330704 -0.093535552937465627 0.13326002776681251 -0.10657323181752512 -0.040665880115919859 -0.1013140609567397 -0.04658131601882419 -0.071246160349073259 -0.024246410559479296 0.10431295823496281 0.0066385804568044578 0.060962382586205927 -0.022206742071477218 0.043753307585374636 -0.030804512024563482 -0.059989360726352817 0.16676164764469537 0.07970543941642956 0.066666387017155979 0.014598012662533114 -0.10980075465726467 0.0075749249556518843 0.03324983732017011 0.14231364024660928 -0.071796977304275408 -0.011441412090962541 -0.044967900678140403 -0.0075014214736885245 -0.030236186098560387 0.027361007730431399
leaf_weight=7.6442846506834057 101.19502517580986 37.303018547594547 19.088909760117531 5.6297146230936042 32.822847817093134 13.797090440988539 11.646681882441042 36.074057444930077 28.235062621533871 8.7421739064156991 398.86606694385409 29.21972393989563 120.66557149589062 210.086490906775 22.733564645051956 39.372038822621107 2.6043922156095514 17.178973719477654 5.5363252535462388 194.87471234798431 2.9689584299921981 10.798563428223133 34.635961696505547 5.4638376981020018 10.199223078787325 15.931452259421349 14.160237241536379 51.257529836148024 74.681513883173466 151.48184090107679
leaf_count=79 1566 544 122 38 316 200 76 366 220 59 2386 129 924 904 133 543 11 71 56 851 41 135 271 30 60 92 126 303 500 805
internal_value=0 0.00556694 0.00799802 0.0064056 -0.00366762 -0.0237647 0.0252552 -0.0195802 0.00245765 0.0192557 0.00397011 0.0287078 -0.0334933 0.0305573 0.0200565 -0.0649236 -0.03896 0.0248488 -0.0415411 0.0206435 0.0116124 0.0385073 0.00742856 -0.0197976 -0.00433534 0.0278239 -0.0135896 0.00613647 0.000823191 0.0185469
internal_weight=0 1557.96 1520.65 1501.56 978.601 269.491 522.964 255.694 98.954 71.6132 709.11 485.74 156.74 474.093 264.007 156.939 55.744 241.273 27.3408 224.094 16.3719 13.403 62.871 37.2242 31.5945 21.3953 19.6966 676.287 473.548 202.739
internal_count=11957 9661 9117 8995 6611 2301 2384 2101 811 550 4310 2164 1290 2088 1184 2296 730 1051 261 980 187 146 491 220 182 122 182 3994 2886 1108
cat_boundaries=0 1 2
cat_threshold=1 1
is_linear=0
shrinkage=0.1


Tree=15
num_leaves=31
num_cat=1
split_feature=3 7 13 15 0 2 0 10 14 14 3 1 14 4 14 2 0 2 11 1 1 0 11 14 14 1 3 11 0 0
split_gain=61.7226 35.1986 27.1905 24.4045 13.953 14.5758 7.56393 7.51851 7.42375 6.90919 6.90139 6.6064 6.24133 5.68704 5.07447 4.85712 4.7764 4.64407 4.56832 4.23845 6.27546 4.06673 3.88899 3.8745 5.20884 3.5966 3.47844 3.45971 4.24581 3.87805
threshold=2810.0000000000005 1.0000000180025095e-35 0 1.0000000180025095e-35 2450.5000000000005 15770.250000000002 2503.5000000000005 1.0000000180025095e-35 2014.5000000000002 2005.5000000000002 2810.0000000000005 10050.000000000002 2015.5000000000002 1.0000000180025095e-35 2013.5000000000002 5000.2000000000007 2259.0000000000005 5414.0000000000009 208.66500000000005 15959.000000000002 16904.500000000004 3598.0000000000005 2561.7300000000005 2001.5000000000002 1998.5000000000002 9992.0000000000018 370.00000000000006 424.76000000000005 1901.5000000000002 1887.0000000000002
decision_type=10 2 1 2 2 2 2 10 2 2 8 8 2 10 2 2 2 2 8 10 10 2 10 2 2 10 10 8 2 2
left_child=1 2 3 4 5 10 18 8 25 23 16 15 13 17 19 21 27 -13 -5 -12 -21 -11 -2 24 -6 -8 -27 29 -29 -1
right_child=22 -3 -4 6 9 -7 7 -9 -10 11 14 12 -14 -15 -16 -17 -18 -19 -20 20 -22 -23 -24 -25 -26 26 -28 28 -30 -31
leaf_value=-0.07890287495085499 -0.070791782371028233 -0.092398027339845742 0.13022368492708586 -0.066549564718377849 -0.068383483309147244 0.22069737051984717 -0.058816053486854536 -0.018252859854875722 -0.028346700471688427 -0.062133155682092683 -0.03678644287065027 -0.011791175314317481 -0.073358759718026162 -0.039353880654163835 -0.088340389160533911 -0.11018169853835857 -0.11816590194407667 0.010902663252361578 0.0050711619010021386 0.12885196739366919 0.0031600770186128307 0.15337369827985642 0.06365836545718688 -0.049112820447175021 0.1349776304446535 0.034220035043793992 0.081082024329504732 0.038728592003082145 -0.04224223245647666 -0.021819724718146194
leaf_weight=34.608615696430206 122.96507091447711 36.596079997718334 17.654222846031189 9.866154268383978 2.2810629568994036 2.2919023111462584 4.0188351869583121 31.895566314458847 19.268353462219238 2.0880939848721023 23.802627947181463 105.55781737715006 10.062609057873486 26.753517743200064 7.6597737222909918 8.5911761373281461 9.6572574116289598 618.75443311780691 91.507182765752077 4.3954743966460219 41.249250464141369 1.5080137848854063 2.1896752566099158 37.053926754742861 2.8124610669910908 358.50879774987698 16.571729451417923 9.4519969113171118 20.567790888249874 18.13919810205698
leaf_count=385 1993 575 122 63 25 14 24 192 93 28 222 748 103 342 80 108 87 3474 469 31 308 17 31 359 28 1519 92 78 169 178
internal_value=0 0.0045266 0.00683501 0.00540088 -0.00390062 -0.029799 0.0226744 0.0284642 0.0322046 0.00155636 -0.0331855 0.00370527 0.00487485 0.005923 -0.0110958 -0.0693379 -0.0516142 0.00759537 -0.00189932 -0.00257602 0.0152639 0.0282388 -0.0684395 -0.0378716 0.0439052 0.0352823 0.0362905 -0.043849 -0.0167478 -0.0592728
internal_weight=0 1573.17 1536.58 1518.92 987.287 171.824 531.637 430.263 398.368 815.463 169.532 773.316 761.128 751.066 77.1071 12.1873 92.4249 724.312 101.373 69.4474 45.6447 3.59611 125.155 42.1475 5.09352 379.099 375.081 82.7676 30.0198 52.7478
internal_count=11957 9933 9358 9236 6784 1552 2452 1920 1728 5232 1538 4820 4667 4564 641 153 897 4222 532 561 339 45 2024 412 53 1635 1611 810 247 563
cat_boundaries=0 1
cat_threshold=1
is_linear=0
shrinkage=0.1


Tree=16
num_leaves=31
num_cat=2
split_feature=3 7 17 13 15 3 0 4 0 1 1 2 15 0 1 11 0 14 2 1 11 2 2 11 1 2 1 14 1 1
split_gain=53.1685 24.4602 22.6006 21.9588 15.7945 11.4542 9.89289 10.5102 8.35838 8.06976 6.09541 8.85969 7.35211 5.41449 5.19614 5.05224 4.80799 4.28328 4.44616 4.13621 4.0641 3.9488 5.14144 5.08902 3.73507 3.61588 7.6975 4.10867 4.08874 4.41753
threshold=8.1750000000000025 1.0000000180025095e-35 0 1 1.0000000180025095e-35 4715.0000000000009 3671.5000000000005 1.0000000180025095e-35 2583.5000000000005 9992.0000000000018 36780.000000000007 27357.810000000001 1.0000000180025095e-35 6301.0000000000009 10050.000000000002 636.83500000000015 12897.000000000002 2005.5000000000002 20531.410000000003 80090.000000000015 993.92500000000007 35955.000000000007 42388.220000000008 1569.9400000000003 33411.500000000007 5970.0000000000009 11050.000000000002 2006.5000000000002 11050.000000000002 12021.000000000002
decision_type=10 2 9 1 2 10 2 8 2 8 10 2 2 2 10 10 2 2 2 10 8 2 2 8 10 2 8 2 8 10
left_child=1 2 -1 4 6 8 7 9 15 -4 11 12 -10 14 -6 -2 -12 -11 -19 25 -14 23 -23 -15 -25 26 -8 -28 -27 -30
right_child=5 -3 3 -5 13 -7 19 -9 10 17 16 -13 20 21 -16 -17 -18 18 -20 -21 -22 22 -24 24 -26 28 27 -29 29 -31
leaf_value=0.25777921169334728 -0.077132508364219199 -0.086719208122577038 -0.085662611836128708 0.12414656990139734 -0.046913160421173272 -0.076673433135036564 0.13839764526848311 -0.086585565469293746 -0.0352628191406393 -0.045239052005306812 -0.088216858315300503 0.16955365776740938 0.011961126826008145 0.036014939034475835 0.01599496446909705 0.089038281462284596 0.065492109315891181 -0.0018648296465919032 -0.064539908620864006 -0.046984660860492328 0.10605978146714623 -0.061082092168568913 0.038271304849599133 0.029905036461979839 0.13629735098754367 -0.086762483946723479 -0.091507083345370985 -0.012091680222497521 0.10506390685892573 0.0110572661981551
leaf_weight=3.6066951602697372 36.074756480753422 27.929438102990389 13.730044063180683 15.862283647060393 13.662788845598696 82.149871993809938 3.167698808014392 19.115515623241663 42.179557662457228 27.638545252382755 14.785522770136597 2.9255661591887465 26.313214614987377 108.50558263808489 336.74903696775436 1.9274359494447697 2.3597960695624343 305.00551404058933 11.754875354468821 13.990132838487623 5.5596002116799346 8.9178323894739169 12.522533625364302 5.0752270668745032 9.4322005510330182 4.2231354489922515 7.373122349381446 55.952585775405169 5.0537180453538886 459.67124885693192
leaf_count=17 518 479 219 119 90 1569 32 306 508 262 140 21 199 464 1506 21 15 2023 65 97 25 37 52 21 40 52 61 393 30 2576
internal_value=0 0.00597031 0.0077668 0.00713948 0.00583385 -0.047352 -0.00186902 -0.0143383 -0.0291212 -0.0104821 -0.0131395 -0.00112947 -0.0078726 0.0202581 0.0135421 -0.0687045 -0.0670611 -0.00748488 -0.00419068 0.00669253 0.0283748 0.0365496 -0.00305341 0.0434522 0.0990774 0.00809502 -0.0137285 -0.0213382 0.0111894 0.0120796
internal_weight=0 1468.94 1441.01 1437.4 1421.54 214.275 926.676 377.244 132.125 358.129 94.1233 76.9779 74.0524 494.865 350.412 38.0022 17.1453 344.399 316.76 549.432 31.8728 144.453 21.4404 123.013 14.5074 535.442 66.4934 63.3257 468.948 464.725
internal_count=11957 8941 8462 8445 8326 3016 6116 2875 1447 2569 908 753 732 2210 1596 539 155 2350 2088 3241 224 614 89 525 61 3144 486 454 2658 2606
cat_boundaries=0 1 2
cat_threshold=2 1
is_linear=0
shrinkage=0.1


Tree=17
num_leaves=31
num_cat=3
split_feature=3 7 13 17 15 1 4 0 14 11 14 1 14 1 1 0 1 2 11 11 18 11 10 2 15 2 0 11 14 11
split_gain=46.3145 27.4781 21.8229 18.444 15.7235 10.3655 7.95704 5.86682 6.19555 5.72082 8.65578 5.51421 4.7582 7.31505 6.3656 4.66495 4.37262 4.2229 6.76134 5.81 4.04151 6.55599 5.19068 5.40265 3.68964 4.55181 5.78109 4.43682 3.64125 3.46853
threshold=2810.0000000000005 1.0000000180025095e-35 0 1 1.0000000180025095e-35 10661.500000000002 1.0000000180025095e-35 4377.5000000000009 2014.5000000000002 592.2750000000002 2014.5000000000002 31950.000000000004 2010.5000000000002 36048.500000000007 25940.000000000004 5018.0000000000009 13911.000000000002 31452.130000000005 1315.7750000000003 1125.0900000000004 2 929.95500000000004 1.0000000180025095e-35 8890.2900000000027 1.0000000180025095e-35 24938.000000000004 11850.000000000002 1125.0900000000004 2004.5000000000002 810.06500000000017
decision_type=10 2 1 9 2 8 10 2 2 8 2 10 2 10 10 2 10 2 8 10 9 10 10 2 2 2 2 10 2 10
left_child=1 2 3 -1 5 15 9 16 17 10 11 -7 13 -11 -14 -5 28 18 19 -9 22 29 23 -18 -2 -26 27 -27 -6 -22
right_child=24 -3 -4 4 7 6 -8 8 -10 12 -12 -13 14 -15 -16 -17 20 -19 -20 -21 21 -23 -24 -25 25 26 -28 -29 -30 -31
leaf_value=0.23541026237392418 -0.076660168571819759 -0.088551572626133446 0.12566393443973242 -0.069563148671871342 0.053629759210171629 -0.0013136310014752646 -0.047846111600243352 0.034378842356229192 -0.033638070037810872 0.0034434790589161091 -0.078817146084532164 -0.038448185771836584 0.040095369346515607 -0.048457453773754933 0.0065050859649385595 0.064832205322579356 0.029929112712985668 -0.00086438567853757266 0.083624259448906835 -0.042593746174890458 0.025744005174802881 -0.083934186089788448 -0.058077742981198978 -0.013332697239254638 -0.055687770887403176 0.10141570213740092 0.15559474516019445 -0.088359715162703689 -0.045698314879177179 0.086732237902581749
leaf_weight=3.4483390599489212 71.296452194452286 31.644783686846495 14.98842318356037 30.731772754341364 4.3699685223400619 328.8277801759541 35.952283751219511 183.88344341889024 15.369861856102942 202.37801814079285 16.985492397099733 45.523779563605785 77.892500065267086 31.364773385226727 204.6301945745945 2.8196997269988051 53.873166296631098 34.397383660078049 27.06523285061121 10.358688682317732 85.334826357662678 5.1014106869697562 13.822730682790278 62.18963772803545 32.280105795711279 1.8109588474035243 2.4722040928900242 3.8531313762068748 23.742764409631491 10.469130814075468
leaf_count=15 1374 575 122 464 28 2337 521 806 72 1155 170 364 412 181 1142 32 264 144 115 44 394 22 87 273 531 25 34 60 150 44
internal_value=0 0.00368086 0.0055941 0.00440269 0.00387412 -0.00364841 -0.0017062 0.0177432 0.0280257 0.000121507 -0.00899739 -0.00582945 0.00703377 -0.00352085 0.015766 -0.0582684 0.00697739 0.0317322 0.0367986 0.030274 0.0115131 0.0265267 -0.000150691 0.00674825 -0.062977 -0.0388394 0.0280054 -0.0276835 -0.0302583 0.0324086
internal_weight=0 1557.17 1525.52 1510.53 1507.08 977.106 943.555 529.978 271.075 907.603 391.337 374.352 516.265 233.743 282.523 33.5515 258.904 255.705 221.307 194.242 230.791 100.905 129.886 116.063 111.713 40.4164 8.13629 5.66409 28.1127 95.804
internal_count=11957 9933 9358 9236 9221 6778 6282 2443 1181 5761 2871 2701 2890 1336 1554 496 1262 1109 965 850 1084 460 624 537 2024 650 119 85 178 438
cat_boundaries=0 1 2 3
cat_threshold=1 2 1
is_linear=0
shrinkage=0.1


Tree=18
num_leaves=31
num_cat=2
split_feature=3 7 13 17 0 15 2 1 0 14 14 3 10 1 0 14 1 3 14 11 3 2 11 11 1 1 0 8 1 11
split_gain=39.8459 24.0526 19.5564 14.8815 14.0163 9.93532 5.33739 5.33483 5.01117 4.90638 5.06109 4.8762 4.76609 4.74676 4.53429 4.31849 4.05777 3.84915 3.663 3.65031 3.55437 5.6038 4.976 3.47425 3.45152 3.34187 3.32921 3.04454 2.68735 2.16805
threshold=2810.0000000000005 1.0000000180025095e-35 0 1 2403.0000000000005 1.0000000180025095e-35 15770.250000000002 9992.0000000000018 2399.5000000000005 2015.5000000000002 2005.5000000000002 2.0700000000000007 1.0000000180025095e-35 10050.000000000002 5018.0000000000009 2014.5000000000002 12021.000000000002 7.8050000000000006 2015.5000000000002 631.84000000000003 6844.0000000000009 23281.140000000003 1244.5000000000002 1170.3650000000002 7057.5000000000009 12335.000000000002 3482.5000000000005 1.0000000180025095e-35 33004.500000000007 979.1450000000001
decision_type=10 2 1 9 2 2 2 10 2 2 2 10 10 8 2 2 10 10 2 10 10 2 10 8 10 10 2 2 8 10
left_child=1 2 3 -1 6 9 8 -7 11 10 16 19 15 14 -12 25 26 -15 -17 24 21 -2 -23 -11 -5 -9 -6 28 -14 -18
right_child=20 -3 -4 4 5 7 -8 12 -10 23 13 -13 27 17 -16 18 29 -19 -20 -21 -22 22 -24 -25 -26 -27 -28 -29 -30 -31
leaf_value=0.21113530417040025 -0.051412129019199032 -0.086433338309818725 0.12367767706612523 -0.092109124548090851 -0.022014969653952023 -0.07647860351857988 0.09939643920288059 0.083429702955475998 -0.10727118005297349 -0.11131235054506215 -0.096767629361635715 -0.067394532651732814 0.0099731747879448825 0.0062458005504909611 0.062583311499611327 -0.048776185663987004 -0.056009972235434816 -0.026742991297223503 0.049587876267424037 0.07100917428771289 -0.075136693912586261 0.14552543488582792 -0.050329672365464144 0.017925828755815932 -0.013750200578438711 0.024391122197848239 0.11272472744244251 -0.090909737474074437 -0.071344158271780839 0.038801620027152248
leaf_weight=3.4590261429548264 37.099051229655743 29.299714423716068 13.768687695264815 5.7870849445462218 4.4974670223891726 5.724925383925437 3.7526935935020438 9.8310784846544248 6.5171873159706584 6.528333738446233 8.3529977537691575 18.582704409956932 24.562977150082592 713.75635581091046 2.2711922824382773 14.186322510242464 29.698590714484453 37.213829886168242 5.1639439165592185 4.9401509389281264 63.35422033444047 2.9325864389538756 2.3261794596910477 3.0527583435177812 196.18076429143548 387.42408484220505 3.0962526313960552 4.6063981242477885 4.8697565346956244 2.6250052675604811
leaf_count=15 600 575 122 99 56 39 20 50 57 77 125 273 125 4160 24 71 298 406 23 33 1374 30 20 31 1458 1657 33 53 27 26
internal_value=0 0.00331057 0.00503997 0.00395581 0.00347907 0.00764367 -0.0189101 0.0194469 -0.0208237 0.00100247 0.00185282 -0.0183251 0.0206655 0.00367205 -0.0627023 0.0236051 -0.0328567 0.00461106 -0.0225261 -0.0139181 -0.0601434 -0.037718 0.0588903 -0.0701341 -0.0159955 0.0258522 0.0329236 -0.0153125 -0.00348108 -0.0483103
internal_weight=0 1549.75 1520.45 1506.68 1503.22 1267.46 235.761 456.369 232.008 811.093 801.512 225.491 450.645 761.594 10.6242 416.605 39.9173 750.97 19.3503 206.908 105.712 42.3578 5.25877 9.58109 201.968 397.255 7.59372 34.0391 29.4327 32.3236
internal_count=11957 9933 9358 9236 9221 7281 1940 2045 1920 5236 5128 1863 2006 4715 149 1801 413 4566 94 1590 2024 650 50 108 1557 1707 89 205 152 324
cat_boundaries=0 1 2
cat_threshold=1 2
is_linear=0
shrinkage=0.1


Tree=19
num_leaves=31
num_cat=3
split_feature=3 7 13 17 1 15 4 0 14 0 11 2 1 11 2 18 0 0 15 2 2 1 11 0 0 11 10 0 14 3
split_gain=34.2054 21.0422 17.5476 12.2709 11.6209 10.2841 6.72256 5.23496 5.11252 4.83127 4.48666 5.19709 6.07885 5.35555 4.36442 4.86424 4.33796 3.70733 3.68782 3.72658 4.72478 3.69577 3.57385 3.709 3.4367 3.32563 3.1914 3.13765 2.97677 3.11428
threshold=2810.0000000000005 1.0000000180025095e-35 0 1 10050.000000000002 1.0000000180025095e-35 1.0000000180025095e-35 5018.0000000000009 2006.5000000000002 1399.0000000000002 331.25000000000006 12320.015000000001 17995.000000000004 833.34000000000015 5414.0000000000009 2 7127.0000000000009 6006.5000000000009 1.0000000180025095e-35 24938.000000000004 26447.090000000004 54950.000000000007 170.65000000000003 1006.0000000000001 3999.5000000000005 286.47500000000008 1.0000000180025095e-35 3792.0000000000005 2007.5000000000002 2650.0000000000005
decision_type=10 2 1 9 8 2 10 2 2 2 8 2 10 10 2 9 2 2 2 2 2 10 8 2 2 8 10 2 2 8
left_child=1 2 3 -1 7 6 9 28 10 25 -7 12 -12 -13 15 -11 -9 -16 -2 -20 -21 -22 -10 -24 -8 26 -6 -25 29 -5
right_child=18 -3 -4 4 5 8 24 16 22 14 11 13 -14 -15 17 -17 -18 -19 19 20 21 -23 23 27 -26 -27 -28 -29 -30 -31
leaf_value=0.19316813608441519 -0.072066422839127869 -0.084275481147284281 0.12192109396901507 -0.063868502091680504 0.0060189616394367117 -0.067977286296162273 -0.077064694786843649 0.11710610684883922 -0.0465806426893869 -0.025869225391581235 0.068122249070231983 -0.05862700057298878 -0.031157538132628906 0.039606222378707555 -0.00031934909097088341 0.012416570596936599 -0.057990480473914252 0.015072345482123729 -0.048927258333620612 0.16136408520489809 -0.068057640409599593 0.10236970594514833 0.20428819100777207 0.0094318360799550208 -0.013927504275249089 -0.10321620576203172 -0.11639576344594274 0.026993621016659027 -0.081759634917405191 0.023035728104991514
leaf_weight=3.4050983190536499 62.984383504837751 27.156064353883266 12.628704413771628 9.6609144955873507 10.642016485333444 11.131541509181259 16.897031743079424 3.3318133242428294 7.9514078423380843 107.02619279548526 17.331484686583284 18.734792977571491 9.5743964836001378 7.8860718905925742 502.73589867353439 48.098333295434713 2.4593023806810379 227.21892744675279 29.222897533327341 1.9963835589587668 4.1814124286174774 1.8289661183953283 1.1020481586456288 159.91855898872018 17.602469854056835 7.1047661341726771 2.6624906659126273 279.61597199738026 23.677033998072147 7.1943954899907103
leaf_count=15 1374 575 122 120 95 66 300 27 49 862 86 93 47 39 3153 355 19 1214 531 23 67 29 5 740 223 64 23 1203 357 81
internal_value=0 0.00297266 0.00453595 0.00354962 0.00311905 0.00469075 -0.00152533 -0.0461875 0.0160752 0.00012538 -0.0102133 0.00179943 0.0327938 -0.0295267 0.00123458 -0.0139982 0.0427482 0.00447175 -0.0573179 -0.0323666 0.0280761 -0.0161964 0.0198644 0.0210634 -0.0448506 -0.047977 -0.0184786 0.020604 -0.0588943 -0.0267749
internal_weight=0 1542.75 1515.59 1502.96 1499.56 1453.23 939.988 46.3235 513.246 905.489 64.6583 53.5267 26.9059 26.6209 885.079 155.125 5.79112 729.955 100.214 37.2297 8.00676 6.01038 448.588 440.637 34.4995 20.4093 13.3045 439.535 40.5323 16.8553
internal_count=11957 9933 9358 9236 9221 8617 6289 604 2328 5766 331 265 133 132 5584 1217 46 4367 2024 650 119 96 1997 1948 523 182 118 1943 558 201
cat_boundaries=0 1 2 3
cat_threshold=1 2 1
is_linear=0
shrinkage=0.1


Tree=20
num_leaves=31
num_cat=4
split_feature=3 7 13 1 14 17 15 10 3 1 2 11 1 14 0 19 0 18 0 1 0 11 1 11 0 1 14 1 1 2
split_gain=29.9531 21.0875 16.7752 11.2367 10.1805 9.92358 8.83357 6.14447 5.9133 5.61079 8.31122 5.38477 5.93055 4.47961 4.44167 4.12967 4.00278 3.9816 4.3138 4.24746 6.73188 4.32423 3.86704 3.65442 3.58932 3.4522 3.44858 3.38258 3.56292 3.12742
threshold=4715.0000000000009 1.0000000180025095e-35 0 10661.500000000002 2005.5000000000002 1 1.0000000180025095e-35 1.0000000180025095e-35 7.8050000000000006 12021.000000000002 10269.025000000003 1033.5400000000002 21832.500000000004 2015.5000000000002 5018.0000000000009 2 1399.0000000000002 3 17618.000000000004 41549.500000000007 6301.0000000000009 208.66500000000005 16523.500000000004 1851.3900000000001 6301.0000000000009 39995.000000000007 2003.5000000000002 18035.500000000004 17242.000000000004 24938.000000000004
decision_type=10 2 1 8 2 9 2 10 10 10 2 8 10 2 2 9 2 9 2 10 2 10 10 8 2 10 2 10 8 2
left_child=1 2 3 14 7 -6 8 9 13 10 -5 12 -10 16 26 24 -7 18 22 21 -21 -19 -8 -15 -11 -13 -1 28 -17 -2
right_child=29 -3 -4 4 5 6 17 -9 11 15 -12 25 -14 23 -16 27 -18 19 -20 20 -22 -23 -24 -25 -26 -27 -28 -29 -30 -31
leaf_value=0.01080600705559819 -0.078839979565285351 -0.084369947538049314 0.12232824130496077 -0.0057213823469360811 0.17929734772696776 -0.043854791717905434 0.036690156752500223 -0.10564442099869412 -0.0063602840691075416 -0.012429821111909115 0.21522845678524893 0.05973519296336334 -0.078253124630742799 -0.097674192896283069 0.03466225823710023 -0.03968722040913672 0.0039095350480690778 -0.07296207125844402 0.077642128656644591 -0.11077447242324795 0.016682375462593668 0.033704938306343385 0.0015878191476539913 0.066224203156049002 0.097764627530443821 -0.057756039825034522 -0.069231062770241616 -0.086207620637986121 0.073833903118904212 -0.025021651014849523
leaf_weight=6.362183514982461 50.863678317517042 27.714926160871983 11.816936388611792 6.0201599709689599 3.3065778613090515 17.930014368146658 36.350183121860027 9.5007477849721891 20.64701771736145 16.555956937372688 2.3737416304647923 9.1113258413970453 25.827397771179676 7.4315348602831337 6.0737170502543441 25.735726114362482 817.19128324836493 3.8781635314226142 8.7756672352552396 5.4757564216852215 17.037201397120953 189.94144469499588 229.71174019947648 1.6652463898062713 3.5983757749199858 3.4469328708946696 34.993300195783377 14.872526500374077 3.097484938800334 13.707444965839384
leaf_count=81 1264 620 123 54 15 160 174 100 328 142 19 85 370 88 48 219 4946 23 37 26 72 837 1071 16 27 32 519 130 26 305
internal_value=0 0.00208298 0.00364014 0.0027216 0.00425756 0.00626376 0.00585345 -0.0300417 -1.58079e-05 -0.0201006 0.0567618 -0.0306137 -0.0463136 0.00212378 -0.0451904 -0.0302035 0.00288404 0.0166469 0.00865892 0.0267951 -0.0143186 0.0315706 0.00638361 -0.0676711 0.00724441 0.0274867 -0.0569181 -0.0474721 -0.0274919 -0.0674152
internal_weight=0 1566.44 1538.73 1526.91 1479.48 1397.73 1394.42 81.7547 903.251 72.254 8.3939 59.0327 46.4744 844.218 47.4292 63.8601 835.121 491.17 274.838 216.333 22.513 193.82 266.062 9.09678 20.1543 12.5583 41.3555 43.7057 28.8332 64.5711
internal_count=11957 10388 9768 9645 8997 8280 8265 717 6025 617 73 815 698 5210 648 544 5106 2240 1282 958 98 860 1245 104 169 117 600 375 245 1569
cat_boundaries=0 1 2 3 4
cat_threshold=1 2 1 1
is_linear=0
shrinkage=0.1


Tree=21
num_leaves=31
num_cat=3
split_feature=3 7 13 1 17 8 15 3 1 11 0 18 14 1 0 0 0 0 0 1 11 11 14 2 3 11 2 14 2 14
split_gain=25.9437 18.4712 15.0561 9.93818 8.64399 7.80141 7.23884 5.35005 4.5739 7.30686 4.05961 4.56804 4.35 4.27919 4.03048 3.95942 3.77586 3.6757 4.1747 4.05464 3.22019 4.96137 3.64151 2.99189 4.75841 2.87758 3.59062 4.05686 3.93505 2.35499
threshold=4715.0000000000009 1.0000000180025095e-35 0 9992.0000000000018 1 1.0000000180025095e-35 1.0000000180025095e-35 7.8050000000000006 57228.500000000007 2231.5550000000007 9200.5000000000018 2 2013.5000000000002 38078.000000000007 6818.0000000000009 3558.0000000000005 5018.0000000000009 2851.0000000000005 1502.5000000000002 21832.500000000004 1425.7950000000003 1975.8900000000001 2010.5000000000002 24938.000000000004 6550.0000000000009 1170.3650000000002 19730.000000000004 2010.5000000000002 15733.890000000001 2002.5000000000002
decision_type=10 2 1 8 9 2 2 10 10 10 2 9 2 10 2 2 2 2 2 10 8 10 2 2 8 10 2 2 2 2
left_child=1 2 3 16 -5 6 7 8 14 -10 11 12 -8 -13 -6 -7 29 18 -9 -19 22 -22 -12 -2 -25 26 28 -28 -17 -1
right_child=23 -3 -4 4 5 15 10 17 9 -11 20 13 -14 -15 -16 25 -18 19 -20 -21 21 -23 -24 24 -26 -27 27 -29 -30 -31
leaf_value=-0.01318006146072899 -0.076586379954701939 -0.082211330073628908 0.12081915948427741 0.168255521693917 -0.00086955430294193546 -0.07018159362545856 0.0058463773927438078 0.018647847796350758 -0.052950202597358664 0.035289395998908721 0.047584235918910894 0.026296177485233253 -0.036875681721145401 -0.028142666167823179 0.015861345180329233 0.005349197013766291 0.034952244113200519 0.030768834829775119 -0.09838541692060114 -0.035664418987654649 0.10578101818109159 0.01115466259777315 -0.0039853696688501201 0.18335921188467427 -0.040262572566762848 -0.084578532836090847 -0.01492922444037865 0.154456036567998 -0.12100115066610893 -0.091274465780831746
leaf_weight=4.9530014023184838 47.30928971990943 25.702764566987753 10.819136820733545 3.1777826547622681 642.29206662252545 20.510072238743305 218.31597347185016 4.02664287388325 34.618238221853971 12.874321460723875 27.480509787797928 175.27112978696823 26.754061464220285 15.735534805804489 185.58987990394235 11.844503533095127 3.7002070285379878 13.528316643089054 12.540035143494604 28.629863295704126 13.377701058983805 9.4584016129374486 27.291471123695374 1.0308461040258379 12.370880182832479 4.3729032874107352 2.7376961670815936 2.924322072416544 3.1126401908695689 17.521558206528425
leaf_count=66 1264 620 123 15 4132 341 1020 82 271 71 118 782 144 69 959 125 29 184 229 337 57 40 116 17 288 45 27 28 31 327
internal_value=0 0.0018601 0.00326925 0.00243399 0.00350247 0.00315186 0.00443325 -0.00081041 0.00114977 -0.0290301 0.0139685 0.0102182 0.00118245 0.0218114 0.00288108 -0.0376191 -0.0586527 -0.0300296 -0.0699397 -0.0143464 0.0350413 0.0665881 0.0218884 -0.064771 -0.0230618 -0.0108963 0.00473021 0.072555 -0.0209448 -0.0740638
internal_weight=0 1559.16 1533.46 1522.64 1496.46 1493.29 1447.78 934.099 875.375 47.4926 513.685 436.077 245.07 191.007 827.882 45.5021 26.1748 58.7249 16.5667 42.1582 77.6081 22.8361 54.772 60.711 13.4017 24.9921 20.6192 5.66202 14.9571 22.4746
internal_count=11957 10388 9768 9645 9223 9208 8611 6265 5433 342 2346 2015 1164 851 5091 597 422 832 311 521 331 97 234 1569 305 256 211 55 156 393
cat_boundaries=0 1 2 3
cat_threshold=1 2 1
is_linear=0
shrinkage=0.1


Tree=22
num_leaves=31
num_cat=1
split_feature=7 13 3 10 0 1 14 11 14 15 3 11 11 1 14 14 2 1 2 11 2 0 2 11 0 11 2 4 14 11
split_gain=22.7924 18.2237 18.8015 8.94361 6.78619 6.60209 5.6499 9.84028 5.57566 4.83447 4.79291 4.27165 4.26796 4.94963 8.26685 5.84514 7.95501 4.2674 5.15743 10.7056 5.76483 4.29385 4.26576 4.14907 7.45402 5.66037 3.73398 3.61727 5.071 3.44299
threshold=1.0000000180025095e-35 0 4478.0000000000009 1.0000000180025095e-35 2685.5000000000005 13050.000000000002 2014.5000000000002 993.92500000000007 2005.5000000000002 1.0000000180025095e-35 1200.5000000000002 1200.4150000000002 204.27000000000004 22222.500000000004 2012.5000000000002 2011.5000000000002 14866.200000000003 40006.500000000007 29813.000000000004 1162.4450000000004 25155.000000000004 8313.5000000000018 37054.850000000006 631.84000000000003 2403.0000000000005 562.55500000000018 17005.000000000004 1.0000000180025095e-35 2006.5000000000002 213.13000000000002
decision_type=2 1 10 10 2 10 2 8 2 2 10 8 8 10 2 2 2 8 2 8 2 2 2 10 2 8 2 10 2 8
left_child=1 2 3 4 12 -5 9 -8 -7 17 27 -9 -1 14 23 -15 29 18 20 -20 -6 -19 -23 25 -25 -14 -18 28 -10 -17
right_child=-2 -3 -4 5 6 8 7 11 10 -11 -12 -13 13 15 -16 16 26 21 19 -21 -22 22 -24 24 -26 -27 -28 -29 -30 -31
leaf_value=-0.053689599974180727 -0.083361723343877259 0.1351594765146073 -0.058753643754021118 -0.080467994640352175 0.0083227079845207327 -0.10062737631643784 -0.063330193162881562 0.090564264843730397 0.10117887800262187 0.019056094389544059 -0.081484359752292193 -0.0022209426947981648 0.012888473651308258 -0.051055215959120021 -0.079807052986830607 0.10165692052721852 0.17757027927103708 -0.034888337576002015 0.15878893354449775 0.018837219064632968 -0.036774448859442463 -0.0260396863030137 0.032624014055785105 0.1840001716326585 0.014125969355719303 -0.044046223736267952 0.02936701006192324 -0.046997887876115071 -0.0014932682374557563 -0.026802285551752972
leaf_weight=20.002970781177282 32.604735027998686 10.076444655656813 52.212873812764883 16.596977960318327 492.55702895671129 6.9646479934453955 28.702693451195955 6.6750382259488132 5.0668644383549681 376.3294127099216 8.434985373169182 19.331718511879444 128.28214697912335 43.521695792675018 11.014906525611876 2.2355320751667014 3.2605750709772101 50.018560484051704 6.7070013135671607 29.535080894827843 30.076626397669315 22.338108334690332 27.848151721060276 3.7120793536305419 8.4928743802010995 20.213342875242233 3.5520099438726902 16.373408444225788 95.067557532340288 31.28375044837594
leaf_count=204 861 125 1384 230 3119 80 246 38 33 1649 116 114 1012 304 134 19 22 344 34 147 160 126 145 22 49 132 21 275 574 238
internal_value=0 0.00110785 0.000245519 0.00227994 0.00481425 -0.0210263 0.00835844 -0.0229606 -0.0135472 0.0100133 -0.00869307 0.0215938 -0.00920602 -0.00572436 0.00400061 -0.0256392 0.00178703 0.00484992 0.00825714 0.0447368 0.00572745 -0.0141532 0.00651256 0.00974504 0.0657924 0.00513847 0.100299 -0.00342309 0.00370201 -0.0182348
internal_weight=0 1576.49 1566.41 1514.2 1365.69 148.504 1090.12 54.7095 131.907 1035.41 124.943 26.0068 275.572 255.569 171.715 83.8536 40.3319 659.081 558.876 36.2421 522.634 100.205 50.1863 160.7 12.205 148.495 6.81259 116.508 100.134 33.5193
internal_count=11957 11096 10971 9587 8279 1308 6122 398 1078 5724 998 152 2157 1953 1349 604 300 4075 3460 181 3279 615 271 1215 71 1144 43 882 607 257
cat_boundaries=0 1
cat_threshold=1
is_linear=0
shrinkage=0.1


Tree=23
num_leaves=31
num_cat=1
split_feature=7 13 3 14 1 11 3 1 1 1 15 4 14 11 11 10 1 1 2 2 3 1 11 0 2 0 11 0 11 11
split_gain=20.0626 16.4704 16.1123 8.25358 7.89024 5.55351 8.00774 7.77494 8.15908 5.1518 5.07374 4.62561 4.29137 5.24768 7.12507 4.23547 4.14767 4.13852 4.6919 4.08568 8.03173 3.86596 3.21241 3.13734 2.98518 2.87375 2.92466 2.4947 2.54376 4.72766
threshold=1.0000000180025095e-35 0 4478.0000000000009 2005.5000000000002 10661.500000000002 170.65000000000003 1.0000000180025095e-35 24987.500000000004 30021.500000000004 115250.00000000001 1.0000000180025095e-35 1.0000000180025095e-35 2007.5000000000002 292.08500000000009 243.20000000000002 1.0000000180025095e-35 18035.500000000004 28005.500000000004 7196.2000000000007 8513.1600000000017 190.45000000000002 22222.500000000004 1317.3850000000002 3999.5000000000005 17098.630000000001 1006.0000000000001 1569.9400000000003 1630.5000000000002 413.92000000000002 280.28000000000003
decision_type=2 1 10 2 8 8 8 10 10 10 2 10 2 10 10 10 10 8 2 2 8 10 8 2 2 2 8 2 8 10
left_child=1 2 3 15 12 6 7 16 -9 10 11 21 13 14 -5 17 -6 18 27 20 -20 -7 24 -13 -21 -12 -27 -1 29 -29
right_child=-2 -3 -4 4 5 9 -8 8 -10 -11 25 23 -14 -15 -16 -17 -18 -19 19 22 -22 -23 -24 -25 -26 26 -28 28 -30 -31
leaf_value=-0.11263779234791067 -0.081291173411007278 0.1348341923769745 -0.055960675364321089 -0.014939295145298449 0.029559989576009152 0.011447165843075202 -0.083401204912799648 0.2306181799423456 -0.012053207447977388 -0.084988619964173451 0.17206650177346716 -0.074398968574326041 -0.06599231485503225 -0.069308817684565649 0.2685798317998821 -0.085773823309474501 -0.1032549529115918 -0.11797547034992036 0.21113538003091181 -0.0079032804260606698 -0.024301191124235372 -0.0023656051111698097 -0.11360227455122095 -0.008532235167575411 0.079417174794214562 0.01224051866896282 0.044057567783395854 -0.05017934296272452 -0.071303793869192431 0.058362083530140399
leaf_weight=4.4874972030520466 30.215588504448533 9.1383537054061872 49.481464955955744 2.0719469264149697 4.6031534299254435 340.55482615530491 16.902566604316235 2.8110740818083277 2.7320221588015556 6.1947421655058852 1.1572959423065174 12.768312957137825 24.019710727035999 3.2067621350288391 1.5491013079881666 10.80357353389263 4.8064823374152184 4.0275594592094413 2.6981116570532313 32.959612127393484 3.1297606527805328 500.29865931347013 2.5467735156416884 16.676512319594622 4.4427928403019896 447.29408945888281 30.885422833263874 10.40739886462689 10.322897903621195 6.5311461202800265
leaf_count=55 861 125 1384 32 34 2175 164 20 25 44 5 262 411 31 18 141 37 39 23 266 30 3079 26 218 35 2027 135 101 101 53
internal_value=0 0.000974625 0.000190673 0.00202962 0.00391553 0.00502749 -0.036244 0.0170625 0.111013 0.00599717 0.00641479 0.00186447 -0.0461064 0.0238506 0.106352 -0.0269364 -0.0382825 -0.0191421 -0.0140076 0.00648001 0.0846981 0.00322872 -0.00493062 -0.0370944 0.00246896 0.0146765 0.0142956 -0.0435476 -0.0321746 -0.00832806
internal_weight=0 1569.51 1560.37 1510.89 1418.53 1387.69 31.8553 14.9527 5.5431 1355.83 1349.64 870.298 30.8475 6.82781 3.62105 92.3571 9.40964 81.5536 77.526 45.7771 5.82787 840.853 39.9492 29.4448 37.4024 479.337 478.18 31.7489 27.2614 16.9385
internal_count=11957 11096 10971 9587 8717 8225 280 116 45 7945 7901 5734 492 81 50 870 71 729 690 380 53 5254 327 480 301 2167 2162 310 255 154
cat_boundaries=0 1
cat_threshold=1
is_linear=0
shrinkage=0.1


Tree=24
num_leaves=31
num_cat=2
split_feature=7 13 3 14 1 11 3 1 1 1 2 3 1 14 0 1 2 11 11 1 11 11 0 1 10 2 2 0 2 19
split_gain=17.6341 14.8996 13.775 6.87913 6.6637 4.66228 6.94667 5.92218 5.37979 4.53937 9.36537 10.034 7.86158 7.82284 6.74204 7.10626 5.44037 5.16136 4.85604 4.80674 4.73907 4.61065 4.24975 3.83432 3.81232 3.95535 3.78427 4.82236 4.69347 3.68272
threshold=1.0000000180025095e-35 0 4478.0000000000009 2005.5000000000002 10661.500000000002 170.65000000000003 1.0000000180025095e-35 24987.500000000004 30021.500000000004 24872.000000000004 11984.045000000002 0.11000000000000003 33004.500000000007 2012.5000000000002 9200.5000000000018 44768.500000000007 71955.000000000015 195.64000000000001 219.16500000000005 21928.000000000004 208.66500000000005 227.29000000000005 5018.0000000000009 28965.000000000004 1.0000000180025095e-35 7196.2000000000007 10802.735000000002 7425.0000000000009 10190.400000000001 1
decision_type=2 1 10 2 8 8 8 10 10 10 2 8 10 2 2 10 2 10 8 10 8 8 2 10 10 2 2 2 2 9
left_child=1 2 3 23 22 6 7 -6 -9 13 11 12 -11 18 15 -12 -16 -15 20 -19 -7 -20 -5 24 25 -1 28 -28 -27 -13
right_child=-2 -3 -4 4 5 9 -8 8 -10 10 14 29 -14 17 16 -17 -18 19 21 -21 -22 -23 -24 -25 -26 26 27 -29 -30 -31
leaf_value=-0.040669609206752541 -0.079157209749345203 0.1346441971282816 -0.053170747059219453 -0.059253046570617952 -0.035459164272422627 0.040912137196737711 -0.07985635452063311 0.18041596714117736 -0.010940139132835341 0.026509067378724705 0.0068222595926255214 -0.015238232643121762 -0.025922011201555607 0.11442544245356696 0.030128000372103649 -0.030576066663985296 -0.060454242758674052 -0.064919651475479831 -0.047800348931138457 0.0032113382122210066 0.1712160902592163 0.013809629213883992 0.046328291121263673 -0.11565756746051843 -0.080454396255454988 0.016544650970769639 -0.039529951173280932 0.083005944745826926 0.14656680758055726 -0.054943779636607064
leaf_weight=30.733431797474623 28.040117274969816 8.2797473184764367 47.001555398106575 25.259963719174269 9.1912934295833129 17.957003064453605 15.938218243420122 3.208578933030366 2.7101878449320793 62.786682981997728 268.02642669156194 36.66171769797802 52.518826387822628 2.3796595484018317 136.10485606640577 62.69293275475502 6.9699804112315169 25.170514769852161 12.403210714459417 17.593188624829054 3.3047938942909232 587.42179947346449 4.4899587631225577 4.4299553688615552 9.3748471084982139 17.84836503490806 21.023758273571733 3.7907781079411498 3.2876372002065173 64.381380684673786
leaf_count=310 861 125 1384 456 71 133 164 20 25 364 1436 283 362 14 655 384 39 172 101 99 24 3379 36 48 132 155 176 26 23 500
internal_value=0 0.000853541 0.000141005 0.00180301 0.00350988 0.004514 -0.0338007 0.0147791 0.0927945 0.00539105 -0.000292908 -0.0175319 0.002628 0.011279 0.00757891 -0.000267167 0.0257152 -0.0289139 0.0142004 -0.0368902 0.0611657 0.0125357 -0.0433184 -0.0249288 -0.0202585 -0.0128994 0.00567442 -0.0208108 0.0367692 -0.0405373
internal_weight=0 1562.94 1554.66 1507.66 1417.17 1387.42 31.0483 15.1101 5.91877 1356.37 690.143 216.349 115.306 666.23 473.794 330.719 143.075 45.1434 621.087 42.7637 21.2618 599.825 29.7499 90.4888 86.0588 76.684 45.9505 24.8145 21.136 101.043
internal_count=11957 11096 10971 9587 8717 8225 280 116 45 7945 4023 1509 726 3922 2514 1820 694 285 3637 271 157 3480 492 870 822 690 380 202 178 783
cat_boundaries=0 1 2
cat_threshold=1 1
is_linear=0
shrinkage=0.1


Tree=25
num_leaves=31
num_cat=3
split_feature=7 13 3 8 0 1 11 0 2 2 3 14 18 1 2 3 0 1 0 19 2 3 1 14 11 11 2 0 2 11
split_gain=15.475 13.4881 11.9664 6.85114 5.66746 5.36791 4.35719 6.86041 11.0192 6.84534 5.58106 5.44571 5.62452 4.66328 4.2795 3.99768 3.57809 3.5606 3.54418 3.35537 5.4992 6.26767 3.06407 3.93575 4.32888 4.31276 2.88765 2.66114 2.97996 2.86068
threshold=1.0000000180025095e-35 0 6844.0000000000009 1.0000000180025095e-35 2450.5000000000005 115250.00000000001 1375.5000000000002 9650.0000000000018 19816.415000000005 36810.000000000007 1.0000000180025095e-35 2014.5000000000002 1 51050.000000000007 34197.265000000007 2.0700000000000007 10521.500000000002 27956.000000000004 3558.0000000000005 2 8992.8000000000011 1485.6200000000001 26952.500000000004 2012.5000000000002 540.04500000000019 631.84000000000003 24938.000000000004 10969.500000000002 5970.0000000000009 450.34500000000008
decision_type=2 1 10 2 2 10 10 2 2 2 8 2 9 10 2 10 2 10 2 9 2 10 8 2 8 10 2 2 2 10
left_child=1 2 3 4 15 6 9 8 10 11 -8 13 -13 -6 -10 17 -11 22 -5 -17 -21 -22 23 25 -25 -1 -9 28 -20 -30
right_child=-2 -3 -4 18 5 -7 7 26 14 16 -12 12 -14 -15 -16 19 -18 -19 27 20 21 -23 -24 24 -26 -27 -28 -29 29 -31
leaf_value=-0.0028985905462180815 -0.076957057547291208 0.13455880486088095 -0.056605712605193294 -0.06824170130555586 0.00698049727135556 -0.094446265039499711 0.16864662480910331 -0.010339323092993262 0.0086742065626317418 -0.025435280038526256 0.016418571918578401 -0.051423278581435854 0.028626537770166334 -0.035598021462011346 -0.049920327103281648 -0.10905451960572304 -0.1381336116405866 -0.040482162544924143 -0.088170064136876364 -0.064376498687909831 -0.058359022894858816 0.20603494036627243 0.088761139725598195 -0.079581187305992965 0.063693302624525647 0.087418374187054629 0.051924276406715444 -0.10057271528754726 0.094564416515218089 -0.003814897579579396
leaf_weight=148.6370587144047 26.060539515689015 7.4963002726435652 36.345496604219079 20.045692073181272 1029.8366950210184 5.3766356445848933 5.0414922684431049 8.4798489212989789 24.776299346238375 6.6899534016847593 4.6112572401762018 32.480890650302172 12.02763484790921 26.381281597539783 25.084017787128687 7.237897340208292 4.8665149509906769 28.66417371481657 3.2718055080622497 9.384427662938835 1.7004993371665471 1.8966298960149286 3.6084271371364585 11.914071081206199 2.5623552054166803 5.4820837453007689 61.25053509324789 2.9854757357388726 3.6621636282652643 15.322127547115086
leaf_count=1086 861 125 1174 399 5944 40 22 38 122 36 25 273 88 192 138 139 25 221 39 189 22 33 23 139 16 28 286 26 37 171
internal_value=0 0.000744195 9.68671e-05 0.00145873 0.00264055 0.00525691 0.00568869 0.0230678 -0.00187096 0.0036693 0.0959251 0.00447312 -0.0297912 0.00591701 -0.0208039 -0.0121154 -0.0728934 -0.0078491 -0.0368498 -0.0544985 -0.0240806 0.0810459 -0.00241717 -0.00436864 -0.0542213 0.000314022 0.0443525 -0.0119198 -2.77354e-05 0.015163
internal_weight=0 1557.12 1549.62 1513.28 1467.99 1246.9 1241.53 129.243 59.5131 1112.28 9.65275 1100.73 44.5085 1056.22 49.8603 221.088 11.5565 200.868 45.2873 20.2195 12.9816 3.59713 172.204 168.596 14.4764 154.119 69.7304 25.2416 22.2561 18.9843
internal_count=11957 11096 10971 9797 9125 7229 7189 631 307 6558 47 6497 361 6136 260 1896 61 1513 672 383 244 55 1292 1269 155 1114 324 273 247 208
cat_boundaries=0 1 2 3
cat_threshold=1 1 1
is_linear=0
shrinkage=0.1


Tree=26
num_leaves=31
num_cat=2
split_feature=7 13 3 1 14 15 3 11 1 1 11 14 11 19 2 11 14 11 3 0 1 1 11 0 1 3 4 10 14 1
split_gain=13.5587 12.215 10.2565 5.90118 5.12244 4.59698 4.30616 4.52959 4.87402 3.82244 5.49612 9.05293 5.66983 3.50042 3.44728 7.25061 3.2458 3.24212 3.07518 3.01815 2.73104 2.90178 3.13832 2.85761 2.67142 3.92652 2.43907 3.96623 2.31187 2.28552
threshold=1.0000000180025095e-35 0 6844.0000000000009 9992.0000000000018 2005.5000000000002 1.0000000180025095e-35 7.8050000000000006 1033.5400000000002 21832.500000000004 12021.000000000002 292.08500000000009 2003.5000000000002 474.22000000000008 1 12999.800000000001 1096.8350000000003 2015.5000000000002 1851.3900000000001 485.00000000000006 5018.0000000000009 18035.500000000004 17242.000000000004 339.91000000000003 7425.0000000000009 15044.500000000002 18.650000000000002 1.0000000180025095e-35 1.0000000180025095e-35 2002.5000000000002 80090.000000000015
decision_type=2 1 10 8 2 2 10 8 10 10 8 2 8 9 2 10 2 8 10 2 10 10 10 2 10 8 10 10 2 10
left_child=1 2 3 19 9 6 16 8 18 10 -5 -12 -13 24 -9 -16 26 -18 -8 28 21 22 -15 -22 -11 -26 29 -28 -1 -6
right_child=-2 -3 -4 4 5 -7 7 14 -10 13 11 12 -14 20 15 -17 17 -19 -20 -21 23 -23 -24 -25 25 -27 27 -29 -30 -31
leaf_value=-0.0038112859806422351 -0.074689515359335421 0.13454784477982551 -0.05387386210490145 -0.086536938757484028 0.0032493846079339667 0.011231222168280272 -0.085925287262253069 -0.074242066777211915 -0.073601010804802067 -0.050781220181142277 0.1831859117985111 -0.063166388733785647 0.11941961644670829 -0.086129058747500264 0.2192987157058377 0.0092643864296870406 -0.093905369808825065 0.061099432632851738 0.0097830756251749175 0.032536985106758197 -0.10144909212189784 0.055716158056417581 -0.015675207946970946 0.026798230436866473 -0.03293083837895127 0.069147442937801049 -0.0035585107563336537 -0.090972996292558825 -0.085749932018417407 -0.041063978730171383
leaf_weight=4.5445819515734973 24.260321389883757 6.7834327593445769 34.469051726162434 3.504311736673114 806.92508921772242 495.68481542542577 4.1289432588964727 2.7109710089862338 23.39983326010406 7.0775184705853489 3.7913114279508591 5.3423365745693445 2.4950137883424759 10.163981897756463 2.0747997537255269 7.9083274751901627 6.4782224930822823 1.7044183388352401 17.960085440427065 3.7354635037481776 12.662804100662468 3.4023344945162526 16.728305721655488 2.0137205086648455 6.8092181682586643 8.4378007650375366 17.830948401242498 7.3218901250511399 14.210702249780296 11.809336155652998
leaf_count=66 861 125 1174 42 4697 2337 58 35 412 69 28 52 23 110 18 68 92 16 341 29 132 29 141 18 62 77 245 181 334 85
internal_value=0 0.000650953 6.31933e-05 0.00129373 0.00206198 0.00348247 -0.000737162 -0.0270582 -0.0417976 -0.0221666 0.0232446 0.0563274 -0.00504029 -0.0323783 0.0257599 0.052916 0.00106015 -0.0616184 -0.008107 -0.0495469 -0.0484474 -0.031295 -0.0423034 -0.0838527 -8.32895e-06 0.02356 0.00166791 -0.0290045 -0.0658954 0.00261021
internal_weight=0 1552.11 1545.33 1510.86 1488.37 1405.94 910.253 58.183 45.4889 82.4287 15.133 11.6287 7.83735 67.2957 12.6941 9.98313 852.07 8.18264 22.089 22.4907 44.9711 30.2946 26.8923 14.6765 22.3245 15.247 843.887 25.1528 18.7553 818.734
internal_count=11957 11096 10971 9797 9368 8585 6248 932 811 783 145 103 75 638 121 86 5316 108 399 429 430 280 251 150 208 139 5208 426 400 4782
cat_boundaries=0 1 2
cat_threshold=1 1
is_linear=0
shrinkage=0.1


Tree=27
num_leaves=31
num_cat=1
split_feature=7 13 3 0 4 2 11 1 14 3 0 0 1 3 0 2 1 0 1 1 0 0 1 0 11 2 11 2 14 3
split_gain=11.8559 11.0655 8.76782 5.35918 6.00017 4.14247 6.20284 4.16814 6.81235 6.87292 4.81751 4.94212 4.13019 4.10587 3.59224 3.45253 6.08905 5.31065 4.41926 3.37881 3.22788 5.84847 4.98729 4.77097 4.03269 3.12177 4.28076 2.97703 3.21107 2.9586
threshold=1.0000000180025095e-35 0 6844.0000000000009 3671.5000000000005 1.0000000180025095e-35 5970.0000000000009 541.70000000000016 39995.000000000007 2010.5000000000002 16.065000000000001 8673.5000000000018 5557.5000000000009 46198.500000000007 1.0000000180025095e-35 4982.0000000000009 6009.1200000000008 20999.500000000004 6205.5000000000009 15044.500000000002 9992.0000000000018 6499.0000000000009 4798.0000000000009 13757.000000000002 10969.500000000002 280.28000000000003 13182.000000000002 619.35000000000014 21942.250000000004 2011.5000000000002 550.50000000000011
decision_type=2 1 10 2 8 2 10 10 2 10 2 2 8 8 2 2 10 2 8 8 2 2 10 2 8 2 10 2 2 10
left_child=1 2 3 4 19 6 12 15 10 14 11 13 20 -9 -10 16 -7 -18 25 -1 21 24 -23 -22 -5 26 -17 -21 -29 -20
right_child=-2 -3 -4 5 -6 7 -8 8 9 -11 -12 -13 -14 -15 -16 18 17 -19 29 27 23 22 -24 -25 -26 -27 -28 28 -30 -31
leaf_value=-0.054381827192191604 -0.072354988092385011 0.13458094384269806 -0.051145447110098032 -0.060794237048893252 -0.052797460685146437 0.12286321839110213 -0.098832667000147992 0.05176595770615209 -0.037590370997097278 -0.084663288192641017 -0.0035603405494633021 -0.11076519592772416 -0.085335982884603409 -0.097273460832469308 0.015864042044582326 0.015716516946900152 -0.060037420657624768 0.095590713434394042 0.011839370472933073 -0.0018511996627486389 -0.05597944312057377 0.15360384911609148 0.027843359169768697 0.060744900013792971 0.011436463962838731 -0.062793393869411462 -0.061016102764384732 -0.1070562920169995 0.0017633639310322203 0.044542692827491397
leaf_weight=13.032762533053754 22.624134307727218 6.1364589296281329 32.767386762425303 13.277428137138488 26.409356063231826 7.6406596563756493 7.8169941715896121 4.459963288158181 14.012006275355814 8.0600420571863634 17.613105338066816 13.486790824681519 6.1200641505420199 3.1567353866994381 122.31514110043645 28.714349921792746 5.5064577087759954 3.6434943862259388 529.83948177099228 549.48321128450334 17.824073379859332 3.5665784664452103 27.218534143641591 4.3578958213329306 18.498437907546759 11.654095800593494 9.7354425657540542 5.637930076569317 5.2244396954774857 29.187066068872809
leaf_count=303 861 125 1174 106 522 49 59 29 88 78 94 82 64 25 656 201 33 21 2657 3756 119 30 191 31 131 78 59 30 28 277
internal_value=0 0.000563209 2.92769e-05 0.00114163 -0.00619329 0.00598835 -0.0133546 0.00834769 -0.00492323 0.0050649 -0.0421723 -0.0743981 -0.00600093 -0.0100033 0.0103699 0.0122299 0.0569632 0.00193342 0.0109968 -0.00404674 -0.000271415 0.0113499 0.0424132 -0.0330476 -0.0187449 -0.0174543 -0.00371209 -0.00287602 -0.0547176 0.0135468
internal_weight=0 1546.4 1540.26 1507.49 599.788 907.705 98.68 809.025 183.104 144.387 38.7166 21.1035 90.863 7.6167 136.327 625.921 16.7906 9.14995 609.13 573.378 84.7429 62.561 30.7851 22.182 31.7759 50.1039 38.4498 560.346 10.8624 559.027
internal_count=11957 11096 10971 9797 4639 5158 731 4427 1052 822 230 136 672 54 744 3375 103 54 3272 4117 608 458 221 150 237 338 260 3814 58 2934
cat_boundaries=0 1
cat_threshold=1
is_linear=0
shrinkage=0.1


Tree=28
num_leaves=31
num_cat=3
split_feature=10 13 4 3 1 0 14 1 0 1 18 11 2 11 11 1 14 2 14 2 11 14 3 3 2 1 18 11 11 14
split_gain=10.3927 9.52971 9.3063 7.75486 3.80678 3.78973 3.62877 4.77418 4.21404 5.58403 5.33653 3.39093 5.67709 3.97326 4.40635 3.24227 5.63196 3.8717 5.67361 3.48782 3.36376 6.7208 4.08493 4.03314 3.26604 3.21188 3.08199 5.97765 5.54699 6.67642
threshold=1.0000000180025095e-35 0 1.0000000180025095e-35 4478.0000000000009 13050.000000000002 2851.0000000000005 2005.5000000000002 16904.500000000004 2233.5800000000004 15350.000000000002 1 1611.9900000000002 26447.090000000004 1105.3850000000002 987.94000000000017 31950.000000000004 2014.5000000000002 11984.045000000002 2010.5000000000002 6985.0000000000009 631.84000000000003 2008.5000000000002 4050.0000000000005 1.0000000180025095e-35 16929.985000000004 17008.500000000004 2 331.25000000000006 460.00500000000005 2011.5000000000002
decision_type=10 1 10 10 10 2 2 10 2 10 9 10 2 8 8 10 2 2 2 2 10 2 8 10 2 8 9 8 8 2
left_child=1 3 4 5 -2 15 -6 8 10 -10 -8 12 13 14 -9 20 17 -17 -19 -18 23 25 24 -1 -23 -22 -7 -28 29 -29
right_child=2 -3 -4 -5 6 26 7 11 9 -11 -12 -13 -14 -15 -16 16 19 18 -20 -21 21 22 -24 -25 -26 -27 27 28 -30 -31
leaf_value=-0.0036147046437144999 -0.066420223638981729 0.13596292945460239 -0.068993201028404103 -0.044428488782329162 -0.091457409952657887 0.00098552271712655146 -0.097536294315766131 -0.0068527598940345581 0.027115516867727875 0.17567476492789391 0.091379253346536252 0.087226792398081607 -0.10408493780713329 0.11008957934155379 -0.12130659524955439 -0.089494241122792653 -0.032278768213741538 -0.099829923248013236 0.072008570066286651 0.13345095758405157 0.17065127660730606 -0.0084954619158612212 -0.060978168415917439 -0.051052759474541222 0.10323382724417687 0.052752502567792105 0.069761046715544159 -0.0065153900683003769 0.012629222920671736 -0.11873120562696893
leaf_weight=225.00096566416323 11.493993792682884 5.3147328775376073 36.344775460660458 35.364245550706983 4.7678955476731053 587.01069266907871 3.6038423888385323 76.700537415221334 6.5214717946946603 4.1340760178864002 2.5556640680879354 3.3724066447466603 6.6131614241749039 2.7631724644452325 3.5179930217564097 15.265969218686228 2.3861089870333663 3.407693773508071 4.4052994921803474 2.7144282273948193 3.575712677091361 7.1221304535865801 7.9806292429566374 19.473218996077776 4.135449456050992 6.5313339829444894 17.16972566768527 23.965778240934018 423.85681237652898 6.8081003595143548
leaf_count=1676 153 119 1165 1244 60 3439 33 571 45 24 18 21 44 15 22 146 27 20 33 24 19 40 45 336 24 39 122 147 2241 45
internal_value=0 0.00231132 -0.0244121 0.00180256 -0.0115572 0.003004 -0.00605219 -0.00234301 0.0466912 0.0847526 -0.0191526 -0.0112119 -0.0149172 -0.00781099 -0.0118721 -0.00687726 -0.0391762 -0.0601928 -0.00294004 0.0559201 -0.00355329 0.0284377 -0.00624963 -0.00739331 0.0325481 0.0944632 0.00582237 0.0118403 0.00965289 -0.0313409
internal_weight=0 1401.49 162.389 1396.17 126.044 1360.81 114.55 109.782 16.8151 10.6555 6.15951 92.9673 89.5949 82.9817 80.2185 301.999 28.1795 23.079 7.81299 5.10054 273.819 29.3453 19.2382 244.474 11.2576 10.107 1058.81 471.8 454.631 30.7739
internal_count=11957 9786 2171 9667 1006 8423 853 793 120 69 51 673 652 608 593 2429 250 199 53 51 2179 167 109 2012 64 58 5994 2555 2433 192
cat_boundaries=0 1 2 3
cat_threshold=1 1 1
is_linear=0
shrinkage=0.1


Tree=29
