{"learner":{"attributes":{"scikit_learn":"{\"_estimator_type\": \"classifier\"}"},"feature_names":["monthly_income","collateral_value","loan_amount","collateral_debt","verified_restriction","dishonored_checks","expired_debts","banking_debts","commercial_debts","protests","informed_restriction","monthly_payment","auto_brand","auto_model","auto_year","form_completed","channel","landing_page","landing_page_product","utm_term"],"feature_types":["float","float","float","float","float","int","int","int","int","int","float","float","float","float","float","float","float","float","float","float"],"gradient_booster":{"model":{"gbtree_model_param":{"num_parallel_tree":"1","num_trees":"100"},"iteration_indptr":[0,1,2,3,4,5,6,7,8,9,10,11,12,13,14,15,16,17,18,19,20,21,22,23,24,25,26,27,28,29,30,31,32,33,34,35,36,37,38,39,40,41,42,43,44,45,46,47,48,49,50,51,52,53,54,55,56,57,58,59,60,61,62,63,64,65,66,67,68,69,70,71,72,73,74,75,76,77,78,79,80,81,82,83,84,85,86,87,88,89,90,91,92,93,94,95,96,97,98,99,100],"tree_info":[0,0,0,0,0,0,0,0,0,0,0,0,0,0,0,0,0,0,0,0,0,0,0,0,0,0,0,0,0,0,0,0,0,0,0,0,0,0,0,0,0,0,0,0,0,0,0,0,0,0,0,0,0,0,0,0,0,0,0,0,0,0,0,0,0,0,0,0,0,0,0,0,0,0,0,0,0,0,0,0,0,0,0,0,0,0,0,0,0,0,0,0,0,0,0,0,0,0,0,0],"trees":[{"base_weights":[-1.0475082E-1,-5.0915533E-1,7.6630795E-1,-1.1432532E0,-2.1841818E-1,5.367478E-1,2.51433E0,-4.0516526E-1,-8.3154505E-1,-4.895602E-1,5.713799E-1,1.5586312E-1,1.491155E0,1.91095E0,3.5344844E0,-9.85311E-1,-4.5031473E-1,-3.196223E-1,-1.1320418E0,9.0249157E-1,-5.2596056E-1,4.0408057E-1,-1.0134481E0,1.7720656E0,-6.6579074E-1,1.0882065E0,2.7107885E0,1.0777426E0,3.348118E-1,-1.0208503E0,6.1991996E-1,-1.1256341E0,-3.065843E-1,-4.3195078E-1,8.2337224E-1,-1.1552652E0,-3.4023342E-1,4.53631E-1,1.4329504E0,-7.112239E-1,7.823251E-1,1.8161567E-2,8.4555376E-1,-1.0834849E0,-3.366079E-1,8.7227315E-1,2.115125E0,-8.127259E-1,2.7370355E-1,1.3416473E0,-2.3530164E-1,1.4212842E0,8.8488245E-1,-1.1200439E0,-6.306383E-1,4.0083757E-1,-1.0769845E-1,-8.080237E-2,-3.6207575E-1,-1.7546487E-1,-8.825613E-1,-7.5976783E-1,-2.559316E-1,9.580428E-1,-5.88674E-1,-1.232189E0,-9.138483E-1,-8.102609E-1,1.3878733E-1,3.4206775E-1,1.6554337E0,1.5210485E0,-6.424745E-1,-2.760668E-1,-1.1111072E0,1.707383E0,-2.2675307E-1,1.2844637E-1,-1.077399E0,7.014258E-1,1.701525E0,-1.1461436E0,-3.654313E-1,2.4074318E-1,-7.544516E-1,9.860956E-1,-2.173116E-1,2.218914E0,3.544715E-1,-9.9933267E-1,1.8938997E-1,-2.9747438E-1,1.5765845E0,1.5808918E0,1.4656955E-1,-1.1353909E0,1.9435551E-2,-9.530833E-1,2.5088102E-2,-1.123249E-2,-7.733706E-1,-3.1901765E-1,5.7735678E-2,-8.5933447E-1,-3.588361E-1,-5.6453043E-1,-8.721723E-2,-1.667444E-1,1.040435E0,-2.9193157E-1,9.313076E-3,-3.7172288E-1,-1.0769845E-1,-6.0431117E-1,-3.8594294E-1,-2.7761313E-1,-8.080237E-2,5.0248814E-1,-2.8801936E-1,-4.0922232E-2,2.064415E0,-2.173116E-1,1.5956855E0,-2.9193157E-1,5.7735678E-2,-5.797589E-1,4.664325E-1,-3.66745E-1,-4.7282258E-1,6.930985E-1,6.8239935E-2,2.007188E-2,1.2031529E0,-1.050605E-1,-1.1577661E0,7.834939E-1,-4.8484242E-1,4.2347467E-1,1.9003843E0,-1.2046125E0,-5.431284E-1,4.3282217E-1,-3.128106E-1,-3.2065624E-1,-1.2208603E-1,6.2137365E-1,1.5653337E0,1.1276449E0,2.3487165E0,-3.0754346E-1,5.048886E-1,-3.714581E-1,-5.0038254E-1,3.348118E-1,-1.6708022E-1,-2.6903608E-1,1.9627373E-1,5.565524E-2,1.8470857E0,5.5908763E-1,1.4656955E-1,-1.1709965E0,-7.585679E-1,-3.0948204E-1,5.7735678E-2,7.620419E-1,-4.772836E-1,-2.8801936E-1,4.87368E-1,-3.42277E-1,1.0699404E-2,-1.0756208E0,-7.089945E-1,-6.0326487E-1,-2.834447E-2,-9.11977E-1,-4.1996828E-1,-3.1875095E-1,1.0125998E-1,2.7370355E-1,-2.7761313E-1,5.530597E-1,1.2535727E0,-9.228688E-1,-1.6905937E-1,6.417033E-1,-4.17569E-1,-6.2944037E-1,2.502935E-1,6.9413745E-1,1.4656955E-1,1.4008164E0,2.3090532E0,-1.033151E0,-1.2951015E-1,-9.8351665E-2,1.4510915E0,1.9627373E-1,-8.7565786E-1,-2.707851E-1,2.2113733E-1,3.5531718E-1,2.239283E0,-3.6209232E-1,-8.080237E-2,4.328445E-1,1.0955392E0,-7.60692E-1,1.774021E-1,7.289331E-1,-8.080237E-2,6.80946E-1,2.1455653E0,-8.3175176E-1,-3.8126025E-1,1.4656955E-1,-8.36872E-1,4.0083757E-1,-1.5008439E-1,1.9627373E-1,-2.3483245E-1,2.5655025E-1,1.2945542E0,-8.080237E-2,1.7219344E0,1.7389164E0,2.0316623E-1,1.0882723E0,2.4556718E0,-8.102609E-1,1.774021E-1,1.4656955E-1,-8.0338085E-1,-1.5008439E-1,1.774021E-1,-8.080237E-2,1.9966922E0,-3.5599452E-1,-4.5551357E-1,-9.5884407E-1,1.4656955E-1,-1.3050328E-1,4.3532747E-1,-9.2711496E-1,1.774021E-1,-6.102075E-1,3.15883E-1,8.673613E-2,1.4264952E0,1.9627373E-1,-1.5008439E-1,-3.4665948E-1,-5.1717293E-1,-7.825385E-1,-1.4480817E-1,2.2189064E-1,-7.274747E-1,-3.128106E-1,2.5030702E-1,-9.702521E-1,-3.784317E-1,-6.129985E-1,-7.6369286E-2,-4.0323508E-1,2.4618895E-1,-2.587351E-1,3.0463853E-1,8.924002E-1,-4.6623293E-1,1.8414345E0,8.350749E-1,5.7735678E-2,-1.0339737E0,-6.3342404E-1,8.168268E-1,-3.5510346E-1,7.860448E-1,-6.785997E-1,3.5106158E-1,1.0442601E-1,-7.7698433E-1,7.446151E-1,-2.173116E-1,1.4833736E0,3.693042E-2,1.1775237E0,2.6141179E0,-6.512437E-2,-3.5891473E-1,2.7879736E-1,-3.0340734E-1,-4.6623293E-1,1.774021E-1,5.7735678E-2,6.1188793E-1,-8.080237E-2,-2.979691E-1,-1.435823E-1,-7.701996E-1,2.827452E-1,-9.2711496E-1,4.0798783E-2,4.7334984E-1,7.2737247E-1,1.9627373E-1,-5.004017E-1,5.935749E-1,9.6605057E-1,1.9892126E0,5.7735678E-2,-9.27814E-1,1.9435551E-2,3.348118E-1,-2.1934044E-1,1.288271E0,7.2154456E-1,1.1775237E0,-9.4408375E-1,-1.3038639E-2,-3.3025727E-1,5.7735678E-2,5.286749E-2,5.2797157E-1,1.7937881E0,-1.2208603E-1,1.9042256E0,-8.080237E-2,5.7735678E-2,1.9681956E0,2.962393E-1,-3.8914403E-1,6.883789E-2,6.38698E-1,2.4773254E0,2.2189064E-1,-8.080237E-2,-2.7761313E-1,5.7735678E-2,-3.241111E-1,2.2768059E0,7.620419E-1,-2.4796793E-1,5.7735678E-2,-3.286087E-1,-6.512437E-2,-3.128106E-1,-8.080237E-2,1.0442601E-1,-2.2351244E-1,4.5681995E-1,-5.0421324E-2,2.1685626E-1,-1.11285314E-1,1.4656955E-1,5.2797157E-1,2.0287631E-1,-3.4784734E-1,1.9627373E-1,-2.4285942E-1,2.4074318E-1,-1.1744741E-1,-2.7042416E-1,-3.792858E-3,1.5271753E-1,-2.173116E-1,-3.0764428E-1,-1.03613615E-1,1.4656955E-1,-2.3530164E-1,-2.1744467E-1,3.952866E-2,9.2781164E-2,-1.7519194E-1,-1.4281125E-1,8.6411744E-2,2.250218E-1,-1.9143054E-1,2.6663354E-1,-1.02879636E-1,-6.4109187E-3,2.5444746E-1,3.5841584E-1,-5.599656E-2,5.7735678E-2,-2.173116E-1,3.6831483E-2,6.3783944E-1,-1.3050328E-1,2.8658766E-1,-8.080237E-2,-3.254001E-1,1.774021E-1,-3.0677333E-1,-2.1934044E-1,4.875234E-1,2.2189064E-1,-1.9002722E-1,1.4977607E-1,3.680049E-1,2.4660962E-2,-3.008716E-1,-1.0769845E-1,2.7370355E-1,-4.0922232E-2,-2.6014668E-1,-1.5008439E-1,3.81479E-1,4.6186343E-1,-2.3483245E-1,3.348118E-1,-1.6227199E-1,5.8316547E-1,4.8476107E-2,8.4855664E-1,5.7735678E-2,-2.0682965E-1,2.3421971E-1,5.7735678E-2,-2.173116E-1,-2.261801E-1,-2.3897728E-3,-2.6129162E-1,5.7735678E-2,-1.10825025E-1,1.2289115E-1,-8.080237E-2,-3.128106E-1,3.348118E-1,-7.256333E-2,-2.9423562E-1,3.534153E-2,-4.001841E-2,2.4431726E-1,3.3248517E-1,-1.096294E-1,1.9627373E-1,6.3233376E-1,-3.3556E-1,-8.632899E-2,6.8239935E-2,6.1188793E-1,-1.3038639E-2,4.9499497E-1,-3.4018177E-1,-1.6839784E-1,1.15210705E-1,-1.3134924E-1,6.1855084E-1,5.7735678E-2,-2.1934044E-1,1.4656955E-1,6.9888455E-1,2.042838E-1,6.866208E-1,5.7735678E-2,-2.7761313E-1,1.4656955E-1,1.85976E-1,-1.8197106E-1,2.8656426E-1,7.49063E-1,8.0201364E-1,4.2277136E-1,3.4526283E-1,-1.3038639E-2],"categories":[],"categories_nodes":[],"categories_segments":[],"categories_sizes":[],"default_left":[0,0,0,0,0,0,0,0,1,1,1,1,1,1,1,1,0,1,1,0,0,1,0,0,0,1,1,0,0,0,0,0,1,0,0,0,1,0,0,0,0,0,1,0,0,1,0,0,0,0,0,0,0,0,0,0,0,0,0,0,0,0,0,0,1,0,0,0,0,0,0,0,0,1,0,0,0,0,1,0,0,1,0,0,1,0,0,0,1,0,0,0,0,0,0,0,0,0,0,0,0,0,0,0,0,0,0,0,0,0,0,0,0,0,0,0,0,1,0,0,0,0,0,0,0,0,0,0,0,0,0,0,0,0,0,0,1,0,0,0,0,1,0,0,0,0,0,0,0,0,0,0,0,0,0,0,0,0,0,0,0,1,0,0,0,0,0,0,0,0,0,0,0,0,0,0,0,0,0,0,0,0,0,0,0,0,1,0,0,0,0,0,0,0,0,0,0,0,1,0,1,0,0,0,0,0,0,0,0,0,0,0,0,0,0,0,0,0,0,0,0,0,0,0,0,0,0,0,0,0,0,0,0,0,0,0,0,0,0,0,0,0,0,0,0,0,0,0,0,0,0,0,0,0,1,0,0,0,0,0,0,0,1,1,0,0,0,0,0,0,0,0,0,0,0,1,0,0,0,0,0,0,0,1,0,0,0,0,0,0,0,0,0,0,0,0,0,0,0,0,0,0,0,0,0,0,0,0,1,0,1,0,0,0,0,0,0,0,0,0,0,0,0,0,0,0,0,0,0,0,0,0,0,0,0,0,0,0,0,0,0,0,0,0,0,0,0,0,0,0,0,0,0,0,0,0,0,0,0,0,0,0,0,0,0,0,0,0,0,0,0,0,0,0,0,0,0,0,0,0,0,0,0,0,0,0,0,0,0,0,0,0,0,0,0,0,0,0,0,0,0,0,0,0,0,0,0,0,0,0,0,0,0,0,0,0,0,0,0,0,0,0,0,0,0,0,0,0,0,0,0,0,0,0,0,0,0,0,0,0,0,0,0,0,0,0,0,0,0,0,0,0,0,0,0,0,0,0,0,0,0,0,0,0,0],"id":0,"left_children":[1,3,5,7,9,11,13,-1,15,17,19,21,23,25,27,29,31,33,35,37,39,41,43,45,47,49,51,-1,-1,53,55,57,59,61,63,65,67,69,71,73,75,77,79,81,83,85,87,89,-1,91,-1,93,-1,95,97,-1,-1,-1,-1,99,101,103,105,107,109,111,113,115,-1,117,119,121,123,125,127,129,-1,131,133,135,137,139,141,-1,143,145,-1,147,149,151,153,155,157,159,-1,161,-1,163,165,167,169,-1,-1,171,173,175,177,179,181,-1,-1,-1,-1,183,-1,-1,-1,185,187,-1,189,-1,191,-1,-1,193,195,-1,197,-1,-1,199,201,-1,203,205,207,209,211,213,215,217,-1,-1,219,221,223,225,227,229,-1,-1,231,-1,-1,-1,-1,233,235,-1,-1,237,239,-1,-1,241,243,245,247,-1,249,251,253,255,257,259,261,263,265,-1,-1,267,269,271,273,275,277,279,281,-1,-1,283,285,287,289,291,293,-1,295,297,299,301,303,-1,-1,305,307,309,-1,311,-1,313,315,317,-1,-1,319,-1,-1,-1,-1,321,323,-1,325,327,329,331,333,335,-1,-1,337,-1,-1,-1,339,-1,341,343,-1,-1,-1,345,-1,347,349,351,353,-1,-1,-1,355,357,359,-1,361,-1,363,365,367,369,371,373,375,377,379,381,383,385,387,-1,389,391,393,395,397,399,401,-1,403,405,-1,407,409,411,413,-1,-1,415,-1,417,-1,-1,-1,-1,-1,419,421,423,425,427,-1,-1,-1,429,431,433,435,-1,437,-1,-1,-1,439,-1,441,443,-1,-1,-1,445,-1,447,449,451,-1,-1,453,-1,455,457,-1,459,-1,-1,-1,-1,-1,461,463,-1,-1,-1,-1,-1,-1,-1,-1,-1,-1,-1,-1,-1,-1,-1,-1,-1,-1,-1,-1,-1,-1,-1,-1,-1,-1,-1,-1,-1,-1,-1,-1,-1,-1,-1,-1,-1,-1,-1,-1,-1,-1,-1,-1,-1,-1,-1,-1,-1,-1,-1,-1,-1,-1,-1,-1,-1,-1,-1,-1,-1,-1,-1,-1,-1,-1,-1,-1,-1,-1,-1,-1,-1,-1,-1,-1,-1,-1,-1,-1,-1,-1,-1,-1,-1,-1,-1,-1,-1,-1,-1,-1,-1,-1,-1,-1,-1,-1,-1,-1,-1,-1,-1,-1,-1,-1,-1,-1,-1,-1,-1,-1,-1,-1,-1,-1,-1,-1,-1,-1,-1,-1,-1,-1],"loss_changes":[8.1896576E2,2.924323E2,2.9446667E2,3.11109E1,2.3364546E2,2.3710423E2,4.575287E1,0E0,1.1388763E1,8.826976E1,1.01834305E2,1.3617691E2,1.1394882E2,3.3754883E1,2.71698E-1,8.790451E0,5.464781E0,8.295823E1,2.722168E0,5.046321E1,1.6382463E1,6.5846756E1,3.5316086E0,4.9069946E1,5.8829756E0,1.48936615E1,4.3110046E0,0E0,0E0,4.7231445E0,3.087369E0,3.7997913E-1,3.676114E0,3.364521E1,1.157692E1,1.9226532E0,2.7313476E0,1.5220125E1,1.8882523E1,9.737156E0,1.3492629E1,2.5183708E1,2.1048553E1,2.9122162E0,4.964406E0,9.297657E0,2.0906616E1,4.0813265E0,0E0,1.0503532E1,0E0,1.5726185E-1,0E0,2.0838318E0,6.519107E0,0E0,0E0,0E0,0E0,4.1713405E0,1.9849834E0,7.850151E0,1.9895842E1,5.108536E0,1.3790883E0,2.866211E-1,4.2445297E0,1.8647194E-2,0E0,1.116234E1,7.4201126E0,1.694928E1,1.4821432E0,6.8031864E0,1.5367737E0,4.526623E0,0E0,2.2014843E1,7.0874786E-1,1.5567947E1,5.6203613E0,1.730072E0,4.4574466E0,0E0,1.304142E0,8.430752E0,0E0,1.3204041E1,7.3762784E0,1.4905128E0,3.4625182E0,2.9297857E0,9.339008E0,5.981369E-1,0E0,5.767822E-1,0E0,2.0532207E0,4.473479E0,4.889179E0,2.6515083E0,0E0,0E0,4.5375824E0,3.4059587E0,6.408943E0,1.0892089E1,4.5251713E0,4.4752007E0,0E0,0E0,0E0,0E0,3.4030752E0,0E0,0E0,0E0,1.1442781E1,4.339797E0,0E0,2.010582E0,0E0,9.487686E0,0E0,0E0,4.1545973E0,5.127801E0,0E0,3.319902E0,0E0,0E0,1.0171695E1,1.441641E1,0E0,4.0647888E-1,1.5533211E1,3.629915E0,1.1889983E0,4.9940186E0,4.4563293E-1,2.7722514E0,4.1309023E0,0E0,0E0,2.3202426E0,6.782997E0,5.2158012E0,7.4565945E0,1.0686462E1,3.213209E0,0E0,0E0,2.6129324E0,0E0,0E0,0E0,0E0,1.6348984E0,6.6973114E0,0E0,0E0,5.561371E-1,3.5322013E0,0E0,0E0,4.660447E0,4.016899E0,4.620284E0,4.6375294E0,0E0,1.614279E0,2.298912E0,3.9983292E0,4.592907E0,5.6497E0,8.41629E-1,6.409628E0,5.4407473E0,1.0178336E1,0E0,0E0,6.271278E0,6.7844505E0,2.0078344E0,6.044073E0,1.12389145E1,2.6603034E0,2.319748E0,5.139E0,0E0,0E0,8.325333E0,3.1675262E0,1.1154976E0,4.4887753E0,1.9586853E0,2.0748725E0,0E0,8.070731E-2,4.4076023E0,7.533249E0,4.0545254E0,6.4707947E-1,0E0,0E0,1.0878055E1,6.9605255E0,1.6064548E0,0E0,8.3400726E-1,0E0,5.2977343E0,1.5681305E0,1.0279436E0,0E0,0E0,1.961473E0,0E0,0E0,0E0,0E0,6.0421343E0,7.2455673E0,0E0,6.0935745E0,2.5241184E0,3.4656599E0,9.982071E0,1.5322266E0,1.8647194E-2,0E0,0E0,1.8768253E0,0E0,0E0,0E0,4.589676E0,0E0,1.053318E0,8.666544E-1,0E0,0E0,0E0,1.3486242E-1,0E0,2.2207408E0,5.264567E0,3.1607285E0,3.0329466E-1,0E0,0E0,0E0,8.400092E0,3.9207764E0,3.2713056E0,0E0,2.817953E0,0E0,4.344073E0,8.333473E-1,2.3073716E0,5.2742596E0,7.2586823E0,5.055722E0,7.2424703E0,5.16833E0,1.5718124E1,4.4779367E0,9.69998E-1,6.216011E0,3.7120533E0,0E0,2.2848988E-1,4.7845674E0,6.5707693E0,3.614033E0,7.8353653E0,2.3900185E0,1.80988E0,0E0,6.1266994E-1,5.1151514E0,0E0,1.0134766E1,3.8918903E0,4.0940895E0,6.4295807E0,0E0,0E0,4.800282E0,0E0,9.69998E-1,0E0,0E0,0E0,0E0,0E0,4.7877293E0,1.5459852E0,8.287441E0,1.3486242E-1,3.1716437E0,0E0,0E0,0E0,3.3545134E0,9.841871E0,1.3469597E1,9.098053E-3,0E0,6.300998E-1,0E0,0E0,0E0,2.6554127E0,0E0,3.3378592E0,1.2781906E-1,0E0,0E0,0E0,3.2031085E0,0E0,2.783863E0,1.6682808E0,5.8074226E0,0E0,0E0,3.5561981E0,0E0,2.5683722E0,2.5557058E0,0E0,2.633667E-1,0E0,0E0,0E0,0E0,0E0,1.1879501E0,1.5800064E0,0E0,0E0,0E0,0E0,0E0,0E0,0E0,0E0,0E0,0E0,0E0,0E0,0E0,0E0,0E0,0E0,0E0,0E0,0E0,0E0,0E0,0E0,0E0,0E0,0E0,0E0,0E0,0E0,0E0,0E0,0E0,0E0,0E0,0E0,0E0,0E0,0E0,0E0,0E0,0E0,0E0,0E0,0E0,0E0,0E0,0E0,0E0,0E0,0E0,0E0,0E0,0E0,0E0,0E0,0E0,0E0,0E0,0E0,0E0,0E0,0E0,0E0,0E0,0E0,0E0,0E0,0E0,0E0,0E0,0E0,0E0,0E0,0E0,0E0,0E0,0E0,0E0,0E0,0E0,0E0,0E0,0E0,0E0,0E0,0E0,0E0,0E0,0E0,0E0,0E0,0E0,0E0,0E0,0E0,0E0,0E0,0E0,0E0,0E0,0E0,0E0,0E0,0E0,0E0,0E0,0E0,0E0,0E0,0E0,0E0,0E0,0E0,0E0,0E0,0E0,0E0,0E0,0E0,0E0,0E0,0E0,0E0,0E0,0E0],"parents":[2147483647,0,0,1,1,2,2,3,3,4,4,5,5,6,6,8,8,9,9,10,10,11,11,12,12,13,13,14,14,15,15,16,16,17,17,18,18,19,19,20,20,21,21,22,22,23,23,24,24,25,25,26,26,29,29,30,30,31,31,32,32,33,33,34,34,35,35,36,36,37,37,38,38,39,39,40,40,41,41,42,42,43,43,44,44,45,45,46,46,47,47,49,49,51,51,53,53,54,54,59,59,60,60,61,61,62,62,63,63,64,64,65,65,66,66,67,67,69,69,70,70,71,71,72,72,73,73,74,74,75,75,77,77,78,78,79,79,80,80,81,81,82,82,84,84,85,85,87,87,88,88,89,89,90,90,91,91,92,92,93,93,95,95,97,97,98,98,99,99,100,100,103,103,104,104,105,105,106,106,107,107,108,108,113,113,117,117,118,118,120,120,122,122,125,125,126,126,128,128,131,131,132,132,134,134,135,135,136,136,137,137,138,138,139,139,140,140,141,141,144,144,145,145,146,146,147,147,148,148,149,149,152,152,157,157,158,158,161,161,162,162,165,165,166,166,167,167,168,168,170,170,171,171,172,172,173,173,174,174,175,175,176,176,177,177,178,178,181,181,182,182,183,183,184,184,185,185,186,186,187,187,188,188,191,191,192,192,193,193,194,194,195,195,196,196,198,198,199,199,200,200,201,201,202,202,205,205,206,206,207,207,209,209,211,211,212,212,213,213,216,216,221,221,222,222,224,224,225,225,226,226,227,227,228,228,229,229,232,232,236,236,238,238,239,239,243,243,245,245,246,246,247,247,248,248,252,252,253,253,254,254,256,256,258,258,259,259,260,260,261,261,262,262,263,263,264,264,265,265,266,266,267,267,268,268,269,269,270,270,272,272,273,273,274,274,275,275,276,276,277,277,278,278,280,280,281,281,283,283,284,284,285,285,286,286,289,289,291,291,297,297,298,298,299,299,300,300,301,301,305,305,306,306,307,307,308,308,310,310,314,314,316,316,317,317,321,321,323,323,324,324,325,325,328,328,330,330,331,331,333,333,339,339,340,340],"right_children":[2,4,6,8,10,12,14,-1,16,18,20,22,24,26,28,30,32,34,36,38,40,42,44,46,48,50,52,-1,-1,54,56,58,60,62,64,66,68,70,72,74,76,78,80,82,84,86,88,90,-1,92,-1,94,-1,96,98,-1,-1,-1,-1,100,102,104,106,108,110,112,114,116,-1,118,120,122,124,126,128,130,-1,132,134,136,138,140,142,-1,144,146,-1,148,150,152,154,156,158,160,-1,162,-1,164,166,168,170,-1,-1,172,174,176,178,180,182,-1,-1,-1,-1,184,-1,-1,-1,186,188,-1,190,-1,192,-1,-1,194,196,-1,198,-1,-1,200,202,-1,204,206,208,210,212,214,216,218,-1,-1,220,222,224,226,228,230,-1,-1,232,-1,-1,-1,-1,234,236,-1,-1,238,240,-1,-1,242,244,246,248,-1,250,252,254,256,258,260,262,264,266,-1,-1,268,270,272,274,276,278,280,282,-1,-1,284,286,288,290,292,294,-1,296,298,300,302,304,-1,-1,306,308,310,-1,312,-1,314,316,318,-1,-1,320,-1,-1,-1,-1,322,324,-1,326,328,330,332,334,336,-1,-1,338,-1,-1,-1,340,-1,342,344,-1,-1,-1,346,-1,348,350,352,354,-1,-1,-1,356,358,360,-1,362,-1,364,366,368,370,372,374,376,378,380,382,384,386,388,-1,390,392,394,396,398,400,402,-1,404,406,-1,408,410,412,414,-1,-1,416,-1,418,-1,-1,-1,-1,-1,420,422,424,426,428,-1,-1,-1,430,432,434,436,-1,438,-1,-1,-1,440,-1,442,444,-1,-1,-1,446,-1,448,450,452,-1,-1,454,-1,456,458,-1,460,-1,-1,-1,-1,-1,462,464,-1,-1,-1,-1,-1,-1,-1,-1,-1,-1,-1,-1,-1,-1,-1,-1,-1,-1,-1,-1,-1,-1,-1,-1,-1,-1,-1,-1,-1,-1,-1,-1,-1,-1,-1,-1,-1,-1,-1,-1,-1,-1,-1,-1,-1,-1,-1,-1,-1,-1,-1,-1,-1,-1,-1,-1,-1,-1,-1,-1,-1,-1,-1,-1,-1,-1,-1,-1,-1,-1,-1,-1,-1,-1,-1,-1,-1,-1,-1,-1,-1,-1,-1,-1,-1,-1,-1,-1,-1,-1,-1,-1,-1,-1,-1,-1,-1,-1,-1,-1,-1,-1,-1,-1,-1,-1,-1,-1,-1,-1,-1,-1,-1,-1,-1,-1,-1,-1,-1,-1,-1,-1,-1,-1],"split_conditions":[2.9166666E-1,1.3513513E-1,5.714286E-1,5.5555556E-2,1E0,1E0,8E-1,-4.0516526E-1,2.857143E-1,1.7E0,4E0,7.26E0,2.4E3,6.9744E2,7.5E2,1.5909E3,2.006E3,3.6719882E-1,3.380783E-1,1.26E4,1E3,6E2,5E-1,2E-1,1.08E4,1.1E3,2.579023E-1,1.0777426E0,3.348118E-1,1E0,5.2E4,2.864E2,7.5E2,4.1667E2,1E0,6.632E2,2.195122E-1,3.1578946E-1,1E0,3E3,4.1E3,1E0,3.6719882E-1,2.7141E4,2.19E4,4E0,1E0,4.375E-1,2.7370355E-1,2.5E2,-2.3530164E-1,4.0013E4,8.8488245E-1,8E4,4.712E3,4.0083757E-1,-1.0769845E-1,-8.080237E-2,-3.6207575E-1,2.3E4,5.2E3,2.5688073E-1,3.2E3,2.006E3,2.568058E-1,1.935E4,3.6E3,1.6E4,1.3878733E-1,2.013E3,1.7073171E-1,2.006E3,6.2E3,2.857143E-1,1.53E4,2.013E3,-2.2675307E-1,3.3333334E-1,1.6177E2,1E0,2.0373E4,1.033E3,4.5E3,2.4074318E-1,6.6667E2,3.75E-1,-2.173116E-1,2.76E3,2.568058E-1,1.4053E4,6E3,6.875E-1,2.579023E-1,3.06E4,1.4656955E-1,1.53533E3,1.9435551E-2,2.777778E-1,2.22E4,1.16883114E-1,9.8E3,-3.1901765E-1,5.7735678E-2,2.579023E-1,1.6666667E-1,2.579023E-1,2.5E-1,3.55E3,5.4978E2,-2.9193157E-1,9.313076E-3,-3.7172288E-1,-1.0769845E-1,2.345679E-1,-3.8594294E-1,-2.7761313E-1,-8.080237E-2,1E0,2.2222222E-1,-4.0922232E-2,2.5688073E-1,-2.173116E-1,1E4,-2.9193157E-1,5.7735678E-2,3.6667E2,1.384615E4,-3.66745E-1,1.71E4,6.930985E-1,6.8239935E-2,2.2058824E-1,3.5555556E-1,-1.050605E-1,4.7619048E-1,3.5E-1,3.1530344E-1,8.7E3,2.009E3,1.746E4,1.06667E3,2.6257426E-1,-3.128106E-1,-3.2065624E-1,3.03E3,1.34E4,1.6E3,2.05E3,1.496063E-1,3.773585E-1,5.048886E-1,-3.714581E-1,2.4010025E-1,3.348118E-1,-1.6708022E-1,-2.6903608E-1,1.9627373E-1,4.2059E2,2.568058E-1,5.5908763E-1,1.4656955E-1,3.380783E-1,2.013E3,-3.0948204E-1,5.7735678E-2,2.008E3,1.1844E3,6.3677E2,2.012E3,-3.42277E-1,1.08E4,4.878E3,9.9E3,2.596685E-1,1.15E4,2.7272728E-1,2.4489796E-1,2.7027026E-1,2.580645E-1,2.7370355E-1,-2.7761313E-1,1.9278E4,2.22E4,1.923077E-1,5.04E3,2.006E3,2.568058E-1,2.0373E4,5.63E3,6.9413745E-1,1.4656955E-1,1E0,2.195122E-1,1.6E3,2.65E4,1.4E3,2.580645E-1,1.9627373E-1,2.579023E-1,3.1E4,5.72E2,1E0,6.5E3,-3.6209232E-1,-8.080237E-2,2.0437956E-1,1.876E3,6.632E2,1.774021E-1,6.9744E2,-8.080237E-2,3.0985916E-1,3.24E4,1.69E4,-3.8126025E-1,1.4656955E-1,2.857143E-1,4.0083757E-1,-1.5008439E-1,1.9627373E-1,-2.3483245E-1,4E4,9.5E3,-8.080237E-2,1E0,2.3000762E-1,3.275862E-1,2.05E4,5.5E4,1.99E4,1.774021E-1,1.4656955E-1,6.4569E2,-1.5008439E-1,1.774021E-1,-8.080237E-2,2.013E3,-3.5599452E-1,1.233E4,2.5E-1,1.4656955E-1,-1.3050328E-1,4.3532747E-1,3.9E4,1.774021E-1,2.1226E2,7.0257E2,2.580645E-1,2.3199E4,1.9627373E-1,-1.5008439E-1,-3.4665948E-1,2.2535E2,2.003E3,2.62134E-1,2.2189064E-1,2.7E4,-3.128106E-1,4.878E3,3.3E4,2.777778E-1,1.62E4,5.4978E2,1.033E3,1.08E0,1.4444E4,6.5E3,4.8951E2,1.842E3,1.590909E-1,2.008E3,5.7735678E-2,1.5E4,2.4390244E-1,2.8333333E-1,2.1933E2,4.3677E2,1.58E4,2.4242425E-1,1.0442601E-1,1.764706E-1,2.0373E4,-2.173116E-1,3.6719882E-1,1.3621E4,2.5E4,6.1E4,-6.512437E-2,-3.5891473E-1,2.58E3,-3.0340734E-1,1.55E4,1.774021E-1,5.7735678E-2,6.1188793E-1,-8.080237E-2,-2.979691E-1,1.6E4,1.027969E4,1.58E4,2.009E3,2.05E3,4.7334984E-1,7.2737247E-1,1.9627373E-1,2E4,2.2058824E-1,5.2E4,2.6257426E-1,5.7735678E-2,2.568058E-1,1.9435551E-2,3.348118E-1,-2.1934044E-1,5.04E3,7.2154456E-1,3.55E4,2.58E3,-1.3038639E-2,-3.3025727E-1,5.7735678E-2,3.55E3,5.2797157E-1,9.2991E2,1.08E4,1.7E4,-8.080237E-2,5.7735678E-2,2.65E4,2.962393E-1,3.5555556E-1,4.053E3,6.38698E-1,1.2E4,2.2189064E-1,-8.080237E-2,-2.7761313E-1,5.7735678E-2,-3.241111E-1,5.04E3,1.233E4,-2.4796793E-1,5.7735678E-2,-3.286087E-1,-6.512437E-2,-3.128106E-1,-8.080237E-2,1.0442601E-1,-2.2351244E-1,4.5681995E-1,-5.0421324E-2,2.1685626E-1,-1.11285314E-1,1.4656955E-1,5.2797157E-1,2.0287631E-1,-3.4784734E-1,1.9627373E-1,-2.4285942E-1,2.4074318E-1,-1.1744741E-1,-2.7042416E-1,-3.792858E-3,1.5271753E-1,-2.173116E-1,-3.0764428E-1,-1.03613615E-1,1.4656955E-1,-2.3530164E-1,-2.1744467E-1,3.952866E-2,9.2781164E-2,-1.7519194E-1,-1.4281125E-1,8.6411744E-2,2.250218E-1,-1.9143054E-1,2.6663354E-1,-1.02879636E-1,-6.4109187E-3,2.5444746E-1,3.5841584E-1,-5.599656E-2,5.7735678E-2,-2.173116E-1,3.6831483E-2,6.3783944E-1,-1.3050328E-1,2.8658766E-1,-8.080237E-2,-3.254001E-1,1.774021E-1,-3.0677333E-1,-2.1934044E-1,4.875234E-1,2.2189064E-1,-1.9002722E-1,1.4977607E-1,3.680049E-1,2.4660962E-2,-3.008716E-1,-1.0769845E-1,2.7370355E-1,-4.0922232E-2,-2.6014668E-1,-1.5008439E-1,3.81479E-1,4.6186343E-1,-2.3483245E-1,3.348118E-1,-1.6227199E-1,5.8316547E-1,4.8476107E-2,8.4855664E-1,5.7735678E-2,-2.0682965E-1,2.3421971E-1,5.7735678E-2,-2.173116E-1,-2.261801E-1,-2.3897728E-3,-2.6129162E-1,5.7735678E-2,-1.10825025E-1,1.2289115E-1,-8.080237E-2,-3.128106E-1,3.348118E-1,-7.256333E-2,-2.9423562E-1,3.534153E-2,-4.001841E-2,2.4431726E-1,3.3248517E-1,-1.096294E-1,1.9627373E-1,6.3233376E-1,-3.3556E-1,-8.632899E-2,6.8239935E-2,6.1188793E-1,-1.3038639E-2,4.9499497E-1,-3.4018177E-1,-1.6839784E-1,1.15210705E-1,-1.3134924E-1,6.1855084E-1,5.7735678E-2,-2.1934044E-1,1.4656955E-1,6.9888455E-1,2.042838E-1,6.866208E-1,5.7735678E-2,-2.7761313E-1,1.4656955E-1,1.85976E-1,-1.8197106E-1,2.8656426E-1,7.49063E-1,8.0201364E-1,4.2277136E-1,3.4526283E-1,-1.3038639E-2],"split_indices":[13,13,13,13,15,15,13,0,17,3,3,3,3,11,3,11,14,17,16,2,11,11,13,17,0,3,16,0,0,15,1,11,3,11,4,11,18,17,8,3,3,4,17,2,1,3,4,13,0,11,0,1,0,1,0,0,0,0,0,2,0,13,0,14,19,2,3,2,0,14,13,14,0,17,2,14,0,17,11,4,1,11,3,0,11,13,0,0,19,2,3,13,16,2,0,11,0,12,1,13,0,0,0,16,17,16,17,0,11,0,0,0,0,13,0,0,0,10,17,0,13,0,0,0,0,11,2,0,2,0,0,17,13,0,13,13,16,0,14,1,11,18,0,0,3,2,0,0,16,13,0,0,12,0,0,0,0,11,19,0,0,16,14,0,0,14,11,11,14,0,0,0,2,13,1,13,13,13,16,0,0,1,1,12,0,14,19,1,0,0,0,10,13,0,1,3,16,0,16,1,11,10,0,0,0,16,11,11,0,11,0,13,2,1,0,0,17,0,0,0,0,1,0,0,4,12,13,2,2,1,0,0,11,0,0,0,14,0,2,12,0,0,0,1,0,11,11,16,1,0,0,0,11,14,16,0,1,0,0,1,13,2,11,11,3,1,0,11,0,13,14,0,1,13,19,11,11,1,12,0,13,1,0,18,2,2,1,0,0,0,0,1,0,0,0,0,0,1,2,1,14,0,0,0,0,2,17,1,17,0,19,0,0,0,0,0,2,0,0,0,0,0,0,11,0,2,0,0,1,0,13,0,0,1,0,0,0,0,0,0,2,0,0,0,0,0,0,0,0,0,0,0,0,0,0,0,0,0,0,0,0,0,0,0,0,0,0,0,0,0,0,0,0,0,0,0,0,0,0,0,0,0,0,0,0,0,0,0,0,0,0,0,0,0,0,0,0,0,0,0,0,0,0,0,0,0,0,0,0,0,0,0,0,0,0,0,0,0,0,0,0,0,0,0,0,0,0,0,0,0,0,0,0,0,0,0,0,0,0,0,0,0,0,0,0,0,0,0,0,0,0,0,0,0,0,0,0,0,0,0,0,0,0,0,0],"split_type":[0,0,0,0,0,0,0,0,0,0,0,0,0,0,0,0,0,0,0,0,0,0,0,0,0,0,0,0,0,0,0,0,0,0,0,0,0,0,0,0,0,0,0,0,0,0,0,0,0,0,0,0,0,0,0,0,0,0,0,0,0,0,0,0,0,0,0,0,0,0,0,0,0,0,0,0,0,0,0,0,0,0,0,0,0,0,0,0,0,0,0,0,0,0,0,0,0,0,0,0,0,0,0,0,0,0,0,0,0,0,0,0,0,0,0,0,0,0,0,0,0,0,0,0,0,0,0,0,0,0,0,0,0,0,0,0,0,0,0,0,0,0,0,0,0,0,0,0,0,0,0,0,0,0,0,0,0,0,0,0,0,0,0,0,0,0,0,0,0,0,0,0,0,0,0,0,0,0,0,0,0,0,0,0,0,0,0,0,0,0,0,0,0,0,0,0,0,0,0,0,0,0,0,0,0,0,0,0,0,0,0,0,0,0,0,0,0,0,0,0,0,0,0,0,0,0,0,0,0,0,0,0,0,0,0,0,0,0,0,0,0,0,0,0,0,0,0,0,0,0,0,0,0,0,0,0,0,0,0,0,0,0,0,0,0,0,0,0,0,0,0,0,0,0,0,0,0,0,0,0,0,0,0,0,0,0,0,0,0,0,0,0,0,0,0,0,0,0,0,0,0,0,0,0,0,0,0,0,0,0,0,0,0,0,0,0,0,0,0,0,0,0,0,0,0,0,0,0,0,0,0,0,0,0,0,0,0,0,0,0,0,0,0,0,0,0,0,0,0,0,0,0,0,0,0,0,0,0,0,0,0,0,0,0,0,0,0,0,0,0,0,0,0,0,0,0,0,0,0,0,0,0,0,0,0,0,0,0,0,0,0,0,0,0,0,0,0,0,0,0,0,0,0,0,0,0,0,0,0,0,0,0,0,0,0,0,0,0,0,0,0,0,0,0,0,0,0,0,0,0,0,0,0,0,0,0,0,0,0,0,0,0,0,0,0,0,0,0,0,0,0,0,0,0,0,0,0,0,0,0,0,0,0,0,0],"sum_hessian":[2.3227817E3,1.5865933E3,7.361886E2,4.9784998E2,1.0887433E3,6.518862E2,8.430234E1,2.970006E2,2.0084933E2,8.107787E2,2.779646E2,4.6677075E2,1.851155E2,5.4777092E1,2.9525242E1,1.419931E2,5.885624E1,6.423682E2,1.6841043E2,2.1366951E2,6.42951E1,3.8557635E2,8.119441E1,1.639428E2,2.1172707E1,2.8165527E1,2.6611567E1,2.8359772E1,1.1654701E0,1.3927367E2,2.7194302E0,9.129516E0,4.9726723E1,5.8545447E2,5.6913788E1,1.631658E2,5.244615E0,1.1674125E2,9.692826E1,5.6719543E1,7.5755553E0,2.0628821E2,1.7928815E2,7.3036125E1,8.158291E0,4.6230312E1,1.1771248E2,1.981299E1,1.3597151E0,2.5057606E1,3.1079202E0,5.244615E0,2.1366951E1,1.09554184E2,2.9719486E1,1.3597151E0,1.3597151E0,1.1654701E0,7.9640455E0,4.156843E1,8.158291E0,2.0337453E2,3.8207993E2,5.2251907E1,4.6618805E0,1.2062615E2,4.2539658E1,3.3021653E0,1.94245E0,1.0800023E2,8.741026E0,9.32376E1,3.6906552E0,2.7971281E1,2.8748262E1,4.6618805E0,2.913675E0,1.8822342E2,1.8064787E1,1.5500752E2,2.4280626E1,6.662604E1,6.410085E0,1.94245E0,6.2158403E0,4.3510883E1,2.7194302E0,1.109139E2,6.7985754E0,1.670507E1,3.1079202E0,3.1079202E0,2.1949686E1,3.8849E0,1.3597151E0,1.0819447E2,1.3597151E0,1.9618746E1,1.010074E1,3.341014E1,8.158291E0,6.9928203E0,1.1654701E0,1.6200034E2,4.1374187E1,1.342233E2,2.4785663E2,3.4964101E0,4.8755497E1,2.525185E0,2.1366951E0,1.1926643E2,1.3597151E0,2.4669117E1,1.787054E1,2.1366951E0,1.1654701E0,8.624478E1,2.1755442E1,1.7482051E0,6.9928203E0,2.7194302E0,9.051817E1,2.525185E0,1.1654701E0,2.0007236E1,7.9640455E0,2.3697891E1,5.05037E0,2.913675E0,1.7482051E0,1.7190683E2,1.6316582E1,2.3309402E0,1.5733846E1,1.4529527E2,9.712251E0,3.6906552E0,2.0589972E1,5.9827465E1,6.7985754E0,3.1079202E0,3.3021653E0,3.6906552E0,2.525185E0,2.7971281E1,1.55396E1,1.282017E1,9.809373E1,5.05037E0,1.7482051E0,1.0294986E1,6.410085E0,1.1654701E0,1.94245E0,1.94245E0,1.1654701E0,3.4964101E0,1.8453276E1,2.525185E0,1.3597151E0,9.692826E1,1.1266211E1,1.8453276E1,1.1654701E0,3.8849E0,6.2158403E0,2.1755442E1,1.16547E1,5.244615E0,2.913675E0,6.390661E1,9.809373E1,2.33094E1,1.8064787E1,3.7877777E1,9.634553E1,1.109139E2,1.3694273E2,1.3597151E0,2.1366951E0,1.5928091E1,3.2827408E1,1.3597151E1,1.1071965E1,7.517282E1,1.1071965E1,1.3208661E1,8.546781E0,5.6331053E0,1.3597151E0,7.3424614E1,1.7093561E1,9.323761E0,1.06834755E1,5.6331053E0,2.3309402E0,1.1654701E0,3.8849E0,7.012245E1,1.01784386E2,9.712251E0,6.6043305E0,1.4568376E1,1.1654701E0,6.953971E1,7.5755554E1,7.9640455E0,1.7482051E0,2.525185E0,1.1654701E0,4.0791454E0,1.6510826E1,1.1071965E1,4.8755497E1,1.3597151E0,5.4388604E0,1.3597151E0,1.7482051E0,1.1654701E0,1.3597151E0,1.903601E1,8.93527E0,1.1654701E0,1.4374131E1,7.1870656E0,5.6331053E0,8.546781E0,8.954695E1,3.3021653E0,1.7482051E0,1.3597151E0,5.05037E0,1.7482051E0,1.7482051E0,1.1654701E0,1.7287806E1,9.420883E1,2.7194302E0,9.906495E0,1.3597151E0,1.5539601E0,2.3309402E0,4.467635E0,1.7482051E0,1.4179886E1,7.5755553E0,8.93527E0,2.7194302E0,1.1654701E0,1.7482051E0,5.4971336E1,8.93527E0,8.643903E1,1.16547E1,1.5539601E0,2.1755442E1,3.3021653E0,1.4762621E1,3.341014E1,4.467635E0,6.118718E1,3.5158348E1,9.673402E1,1.4179886E1,4.9338234E1,8.76045E1,1.2043191E1,3.8849E0,1.2237435E1,2.0589972E1,1.1654701E0,1.2431681E1,7.7698E0,3.3021653E0,9.323761E0,6.584906E1,8.352535E0,2.7194302E0,1.5539601E0,1.16547E1,5.82735E0,2.7194302E0,6.915122E1,4.2733903E0,4.6618805E0,1.2431681E1,1.94245E0,7.3813105E0,7.7698E0,2.913675E0,3.8849E0,1.7482051E0,1.1654701E0,1.1654701E0,1.1654701E0,2.7194302E0,5.6913788E1,1.3208661E1,9.731675E1,4.467635E0,8.546781E0,1.1654701E0,5.4388604E0,1.1654701E0,9.906495E0,5.9633217E1,6.7985756E1,7.7698E0,1.1654701E0,6.7985754E0,1.3597151E0,1.1654701E0,1.1654701E0,2.913675E0,1.1848946E1,4.6618805E0,9.518005E0,1.5539601E0,4.2733903E0,1.1654701E0,1.7676296E1,1.3597151E0,6.410085E0,2.525185E0,1.3208661E1,1.1654701E0,1.1654701E0,6.0215955E0,2.1366951E0,3.4964101E0,4.8561254E0,3.6906552E0,8.799299E1,1.5539601E0,1.1654701E0,2.1366951E0,1.1654701E0,3.8849E0,1.3402905E1,3.8849E0,1.5539601E0,1.1654701E0,7.9640455E0,1.94245E0,3.3021653E0,1.1654701E0,1.5539601E0,1.2625926E1,1.5539601E0,6.0215955E0,3.4964101E0,5.4388604E0,1.3597151E0,1.3597151E0,3.1079202E0,5.82735E0,1.1654701E0,8.527356E1,1.94245E0,9.712251E0,1.7287806E1,4.467635E0,1.2043191E1,2.7194302E0,3.0107977E1,3.3021653E0,1.3597151E0,3.1079202E0,5.3223133E1,7.9640455E0,2.020148E1,1.4956866E1,8.7798744E1,8.93527E0,9.129516E0,5.05037E0,2.7194302E0,4.66188E1,5.535983E1,3.224467E1,9.323761E0,2.7194302E0,1.1654701E0,2.7194302E0,1.94245E0,1.0294986E1,1.5539601E0,1.903601E1,1.1654701E0,1.1266211E1,1.7482051E0,6.0215955E0,1.1654701E0,2.1366951E0,1.5539601E0,7.7698E0,4.1179943E1,2.4669117E1,2.7194302E0,5.6331053E0,1.3597151E0,1.3597151E0,1.7482051E0,9.906495E0,1.7482051E0,4.0791454E0,6.779151E1,1.3597151E0,1.1654701E0,3.1079202E0,2.1366951E0,2.525185E0,1.1266211E1,1.1654701E0,2.525185E0,5.244615E0,1.1654701E0,2.7194302E0,9.518005E0,4.7395782E1,1.2043191E1,1.1654701E0,1.55396E1,8.177715E1,1.1654701E0,3.3021653E0,1.1654701E0,7.3813105E0,5.244615E0,4.6618805E0,1.3985641E1,4.564758E1,6.157567E1,6.410085E0,1.1654701E0,6.6043305E0,4.6618805E0,2.1366951E0,1.7482051E0,1.1654701E0,1.5539601E0,3.1079202E0,5.05037E0,4.467635E0,1.06834755E1,6.9928203E0,5.244615E0,1.1654701E0,1.1654701E0,1.3597151E0,9.129516E0,4.0791454E0,4.8561254E0,1.1654701E0,2.1366951E0,1.3597151E0,2.7194302E0,2.1366951E0,1.7482051E0,8.624478E1,7.7698E0,5.6331053E0,2.3309402E0,1.5539601E0],"tree_param":{"num_deleted":"0","num_feature":"20","num_nodes":"465","size_leaf_vector":"1"}},{"base_weights":[-1.02586746E-1,-7.3393077E-1,2.2091341E-1,-1.2008746E0,-4.8611584E-1,3.925888E-1,-6.574485E-1,-3.6890492E-1,-8.821228E-1,-6.509472E-1,-1.8998295E-2,1.431173E-1,9.5938945E-1,-8.535147E-1,-1.8617342E-1,-9.758649E-1,6.720889E-2,-8.0742264E-1,-3.4745306E-1,1.2556386E-1,-9.4420123E-1,4.2730477E-3,9.434273E-1,8.0341834E-1,1.5778872E0,-9.3948257E-1,5.8631025E-2,-5.8698225E-1,4.129398E-1,9.670868E-2,-3.149573E-1,-7.0305556E-1,-1.1579566E0,-6.280919E-1,-8.468312E-2,-2.1901587E-1,5.0303537E-1,-1.0266662E0,-7.898884E-3,8.034754E-2,-9.6267885E-1,6.885189E-1,1.7145298E0,6.1112E-1,1.1646216E0,1.615985E0,1.6613452E-2,-1.0069842E0,-4.40699E-1,6.0627085E-1,-3.264119E-1,-7.141755E-1,7.54573E-1,1.0786866E0,-3.6075467E-1,-7.539462E-1,-3.0738411E-2,-1.173707E0,-1.0763114E-1,-8.691236E-1,2.3562038E-2,-2.406308E-1,3.1935602E-1,9.881937E-3,-6.6311544E-1,6.028443E-1,-6.8886936E-1,-3.0099645E-1,-1.1263136E0,-2.993485E-1,2.5858867E-1,-1.0897641E0,-2.5160024E-1,-2.104244E-1,8.7838763E-1,7.108978E-1,1.855193E0,8.8321894E-1,4.189319E-1,1.1897469E0,-2.4897516E-2,8.46269E-2,1.6396649E0,-1.0459056E0,-5.0121677E-1,2.2842985E-1,-3.42525E-1,-4.196642E-1,1.1248369E0,-3.0098906E-1,-3.4191832E-1,-2.3421854E-2,3.8682985E-1,-2.6059744E-1,1.3465071E0,-6.382149E-1,8.211437E-1,-8.0458623E-1,-3.479764E-1,-5.901262E-1,6.180354E-1,-3.5680825E-1,-1.3330816E-1,-7.4304634E-1,-1.1215826E0,-4.3715551E-1,6.1627215E-1,-8.113318E-1,-8.285484E-2,5.8256483E-1,-7.5033414E-1,-5.4027754E-1,2.751643E-1,-3.604581E-1,-2.617141E-1,6.98373E-1,-5.720828E-1,-3.0090693E-1,5.869425E-2,-2.1960206E-1,1.0476488E-1,-3.536769E-1,-8.608987E-2,-3.4397754E-1,9.382616E-1,-5.4264337E-1,3.5728642E-1,-1.1065354E0,-8.0191195E-2,2.702792E-1,-3.036806E-1,-4.8783863E-1,8.9869606E-1,7.077519E-1,1.587559E0,1.2500334E-1,3.7208667E-1,2.25191E-1,5.7406855E-1,-1.4786462E-1,1.0073465E0,1.1283636E-1,6.078088E-1,1.0182022E0,1.3608158E0,-2.2043273E-1,2.1632688E-1,1.1060372E-1,1.6560583E0,-1.0578736E0,-2.4763727E-1,-8.9029604E-1,3.9387795E-1,-4.4643107E-1,7.942988E-1,-2.7655596E-1,1.8165755E-1,1.5322262E0,-5.2348062E-2,-9.1921306E-1,-5.1731616E-2,-1.3374108E-2,1.5031377E0,3.1683654E-1,-8.801308E-1,3.4240285E-1,3.592836E-2,-8.7254006E-1,-5.128589E-1,-6.4776087E-1,2.2399576E-1,-8.0847865E-1,2.2947745E-2,8.239159E-1,-7.5013295E-2,-8.99842E-1,-4.316867E-1,-3.56874E-1,-7.412163E-2,1.3570823E-1,-6.926516E-1,1.0950439E0,-1.0368723E-1,5.645032E-2,-9.626097E-1,-8.471491E-1,2.8403632E-2,-1.03623725E-1,9.069647E-1,-2.6745063E-1,-4.7358457E-2,-7.668385E-1,2.690092E-1,1.3852604E-1,5.1017594E-1,3.359082E-1,-7.6304185E-1,-1.5518038E-1,8.2105213E-1,5.9489544E-2,-2.7034068E-1,-1.0162867E0,-2.9660678E-1,-6.774982E-2,1.376409E0,-3.162475E-1,-8.9240474E-1,-8.154871E-1,3.979318E-1,-1.1397045E0,-4.9526262E-1,-2.9438484E-1,4.2012015E-1,1.947818E-1,-6.2886524E-1,-6.2701968E-3,4.0803614E-1,4.343395E-1,1.1111224E0,1.9515694E0,3.8887048E-1,-1.17183596E-1,1.4831536E-1,-7.234613E-1,4.0527952E-1,1.7128536E-1,1.0879014E0,-1.9539468E-1,5.5208945E-1,-2.2769783E-1,6.631199E-1,1.2311159E0,3.1920967E-1,1.4336572E0,1.11508556E-1,5.0671864E-1,7.5306785E-1,-1.1898955E0,-9.503492E-1,9.462604E-2,-2.0079836E-1,2.0529583E-2,-3.2635918E-1,-9.9015035E-2,2.4764638E-1,2.564477E-1,-2.831537E-1,2.1592323E-2,1.3871317E0,5.458045E-1,3.627699E-2,-5.7926163E-2,-3.095621E-1,1.6436729E-1,-2.791377E-1,1.7094783E0,7.0341074E-1,3.412515E-1,-2.0441703E-1,-1.0500442E0,8.804568E-2,-9.693619E-1,-7.1908224E-1,-7.990495E-1,-1.8129104E-1,1.8685019E-1,-8.7628084E-1,-3.2449394E-1,7.0480967E-1,-9.238318E-2,-3.0512738E-1,-6.5228894E-2,7.277159E-2,-5.4075923E-3,1.1093407E0,-3.5028327E-1,-1.0342295E0,-8.186708E-1,1.1203073E-2,-8.3804667E-1,-1.4711946E-3,-2.1995341E-2,4.968916E-1,-1.5416278E-1,1.1051301E-1,-3.4605503E-1,-3.960145E-2,-6.386375E-2,-2.9424244E-1,2.1068883E-1,-4.0126398E-1,-2.2188249E-1,2.2617467E-1,5.640505E-1,3.9811164E-1,-9.663966E-1,4.9684457E-2,3.1006637E-1,-1.5385365E-1,6.200908E-1,-2.9301384E-1,1.2817314E0,-5.492601E-1,9.453976E-2,-2.9675362E-1,3.3928034E-1,-2.1008149E-1,2.161883E-1,1.0766715E0,-2.7359504E-1,-3.4008068E-1,-3.387565E-1,2.4846978E-1,5.9862745E-1,5.0378263E-1,-8.3814734E-1,1.4334016E-1,2.669468E-2,-9.6749634E-1,4.5246493E-2,-9.7468185E-1,-5.491258E-1,4.4860914E-1,-6.36417E-1,-3.5305274E-1,7.494962E-2,-2.5828633E-1,1.6496219E-1,-7.2681415E-1,-7.6084614E-1,6.767387E-2,7.4248606E-1,-1.1746093E-1,3.0030496E-2,1.226148E0,1.4220172E-1,6.237723E-1,-2.1327047E-1,4.039143E-1,8.730395E-3,-3.031246E-1,-8.645585E-2,3.0848914E-1,-3.0066028E-1,3.0425727E-1,1.1202406E0,-1.0557181E-1,-4.1523594E-1,3.1576297E-1,7.063444E-1,-2.938043E-1,3.5274872E-1,9.182364E-1,1.3992684E0,5.8658504E-1,-2.2096247E-3,1.0711949E0,1.4912782E0,3.9144632E-1,-2.517991E-1,2.4695657E-1,3.308765E-1,3.085861E-2,-1.2077668E0,-8.430616E-2,-6.27579E-1,-1.0339811E0,-8.1098035E-2,2.0156424E-1,-1.3380663E-1,1.7072836E-1,7.104515E-2,5.2327603E-1,-3.9521688E-1,4.625095E-1,3.3419758E-2,5.7657564E-1,3.1868872E-1,-6.307656E-2,-6.6105895E-2,-3.4099418E-1,-2.9891995E-1,-7.1736865E-2,-1.3286093E-1,-2.6465765E-1,5.159254E-2,-2.6621717E-1,2.73478E-1,-1.276776E-1,-1.3031442E-1,-3.1157878E-1,-2.3187922E-1,5.2353483E-2,5.0202185E-1,-1.497611E-1,4.758694E-1,-7.221677E-2,-2.6128584E-1,6.896359E-2,-1.9009979E-1,-3.5266948E-1,-7.139122E-2,-2.6920667E-1,-1.9208616E-1,1.499981E-1,-6.506993E-2,-3.1214616E-1,-1.4256508E-2,2.3093565E-1,-2.3980974E-1,3.8531817E-2,-9.647221E-2,1.587988E-1,2.2902282E-1,-7.332979E-2,-3.4009033E-1,-1.0151474E-1,-2.0627962E-1,2.3703761E-1,3.0040842E-1,-1.5298107E-1,-1.564441E-1,2.7964523E-1,4.287524E-2,5.554216E-1,4.1099012E-2,-2.697727E-1,-9.500556E-2,3.6307085E-1,-2.643845E-1,1.262072E-1,5.976534E-1,2.6731664E-1,-2.0610844E-1,8.1642866E-2,-2.837087E-1,-9.107843E-2,2.669356E-1,-6.166397E-2,4.8377316E-2,2.328717E-1,-3.1314796E-1,2.7334174E-2,1.5100183E-1,-1.4425237E-1,-3.3132344E-1,-1.0987046E-1,-3.2960567E-1,-2.3862366E-2,-2.7119794E-1,3.0059692E-2,5.259621E-2,1.7872474E-1,-2.9014525E-1,9.434847E-2,-5.6835756E-2,-2.602362E-1,-1.4102104E-1,-3.2934397E-1,2.9416507E-1,-2.7780727E-2,2.7597454E-1,-8.163302E-2,2.4244945E-1,-2.4210553E-1,1.3686752E-1,4.5233047E-1,6.8448335E-2,-1.1981771E-1,1.3217202E-1,-2.3432705E-1,3.5219997E-1,8.13618E-2,6.0302E-2,-1.9928955E-1,2.7052537E-1,-2.0312808E-1,3.0788788E-1,4.5214098E-2,9.4480395E-2,-2.3550078E-1,1.6876414E-1,-1.15782626E-1,9.21631E-2,3.5024527E-1,3.4450024E-1,5.9006125E-1,-1.121205E-1,2.569921E-1,-2.1757627E-1,1.0854211E-1,4.0993822E-1,3.6509935E-2,5.736267E-1,3.9790455E-1,3.110348E-1,-1.365596E-1,-3.6800545E-1,-1.5419658E-1,-2.7596658E-2,-2.8834054E-1,-2.0850337E-1,-3.457848E-1,-2.369427E-1,1.4176564E-1,2.2515728E-1,-2.2502719E-1],"categories":[],"categories_nodes":[],"categories_segments":[],"categories_sizes":[],"default_left":[0,0,1,0,0,0,0,0,1,0,1,0,0,0,0,0,0,1,0,0,0,0,0,0,0,0,0,0,0,0,0,1,0,1,0,0,0,0,0,0,0,0,0,0,0,0,0,1,0,0,0,0,0,0,0,0,0,0,0,0,0,1,1,0,0,0,0,0,0,0,0,0,0,0,0,0,0,0,0,0,0,0,0,0,1,0,0,0,0,0,0,0,0,0,0,0,0,0,0,1,0,0,0,0,1,0,0,0,0,0,0,0,1,0,0,0,0,0,0,0,0,0,0,0,0,0,0,1,0,0,0,0,0,0,0,0,0,0,0,0,0,0,0,0,1,0,0,0,1,0,0,0,0,0,0,0,0,0,0,0,0,0,0,0,0,0,0,0,0,0,0,0,0,0,0,0,0,0,0,0,0,0,0,0,0,0,0,0,0,0,0,1,0,0,0,0,0,0,0,0,0,0,0,0,0,0,0,0,0,0,0,0,0,0,1,0,0,0,0,0,0,0,0,0,0,0,0,0,0,0,0,0,1,1,0,0,0,0,0,0,0,0,0,0,0,0,0,0,0,0,0,0,0,0,0,0,0,0,0,0,0,0,0,0,1,0,0,0,0,0,0,0,0,0,0,0,0,0,0,0,0,0,0,0,0,0,0,0,0,0,0,0,0,0,0,0,0,0,0,0,0,0,0,0,0,0,0,0,0,0,0,0,0,1,0,0,0,0,0,0,0,0,0,0,0,0,0,0,0,0,0,0,0,0,0,0,0,0,0,0,0,0,0,0,0,0,0,0,0,0,0,0,0,0,0,0,0,0,0,0,0,0,0,1,0,0,0,0,0,0,0,0,0,0,0,0,0,0,0,0,0,0,0,0,0,0,0,0,0,0,0,0,0,0,0,0,0,0,0,0,0,0,0,0,0,0,0,0,0,0,0,0,0,0,0,0,0,0,0,0,0,0,0,0,0,0,0,0,0,0,0,0,0,0,0,0,0,0,0,0,0,0,0,0,0,0,0,0,0,0,0,0,0,0,0,0,0,0,0,0,0,0,0,0,0,0,0,0,0,0,0,0,0,0,0,0,0,0,0,0,0,0,0,0,0,0,0,0,0,0,0,0,0,0,0,0,0,0,0,0,0,0,0,0,0,0,0],"id":1,"left_children":[1,3,5,7,9,11,13,-1,15,17,19,21,23,25,27,29,-1,31,33,35,37,39,41,43,45,47,49,51,53,-1,-1,55,57,59,61,63,65,67,-1,69,71,73,75,77,79,81,-1,83,85,87,-1,89,91,93,95,97,99,101,-1,103,105,107,109,111,113,115,117,119,121,123,125,127,129,131,133,135,137,139,141,143,145,-1,147,149,151,153,-1,155,157,159,-1,-1,-1,-1,161,163,165,167,169,171,173,-1,-1,175,177,179,181,183,185,187,189,191,193,-1,195,197,199,-1,-1,-1,-1,-1,-1,201,203,205,207,209,-1,211,-1,213,215,217,219,221,-1,-1,-1,223,225,227,229,231,233,-1,-1,-1,235,237,239,241,243,245,247,-1,-1,249,-1,251,253,-1,255,257,259,-1,-1,261,263,265,267,269,271,273,-1,275,277,-1,-1,-1,279,281,283,-1,285,287,289,291,293,-1,-1,295,297,299,-1,301,303,305,307,-1,-1,309,311,-1,313,315,317,319,321,323,325,327,-1,-1,329,-1,-1,331,333,335,337,-1,-1,339,341,343,345,347,349,-1,351,353,355,357,359,-1,361,363,365,-1,-1,-1,-1,-1,-1,367,-1,369,371,-1,-1,-1,-1,373,-1,375,377,-1,-1,379,-1,381,383,385,387,-1,389,391,393,-1,-1,-1,-1,-1,395,397,399,401,403,405,-1,-1,-1,-1,-1,-1,-1,-1,-1,407,409,-1,411,-1,413,415,417,-1,-1,419,421,423,425,-1,-1,427,-1,429,431,433,-1,435,437,439,-1,441,443,-1,445,-1,447,449,451,453,-1,-1,-1,-1,455,457,-1,459,461,463,465,-1,-1,-1,-1,-1,-1,467,-1,469,-1,471,-1,473,475,477,479,481,483,485,487,489,491,493,495,-1,-1,-1,-1,497,-1,499,501,-1,-1,-1,-1,-1,-1,503,505,-1,-1,-1,-1,-1,-1,-1,-1,-1,-1,-1,-1,-1,-1,-1,-1,-1,-1,-1,-1,-1,-1,-1,-1,-1,-1,-1,-1,-1,-1,-1,-1,-1,-1,-1,-1,-1,-1,-1,-1,-1,-1,-1,-1,-1,-1,-1,-1,-1,-1,-1,-1,-1,-1,-1,-1,-1,-1,-1,-1,-1,-1,-1,-1,-1,-1,-1,-1,-1,-1,-1,-1,-1,-1,-1,-1,-1,-1,-1,-1,-1,-1,-1,-1,-1,-1,-1,-1,-1,-1,-1,-1,-1,-1,-1,-1,-1,-1,-1,-1,-1,-1,-1,-1,-1,-1,-1,-1,-1,-1,-1,-1,-1,-1,-1,-1,-1,-1,-1,-1,-1,-1,-1,-1,-1,-1,-1,-1,-1,-1,-1,-1],"loss_changes":[4.5927463E2,8.75708E1,2.2450075E2,1.3344421E0,3.843683E1,1.7584753E2,2.2341202E1,0E0,2.849825E0,1.7247238E1,1.7677233E1,9.615625E1,3.540915E1,1.3517693E1,1.7728918E1,2.6034412E0,0E0,8.067581E0,9.335401E0,1.4993009E1,1.3246689E0,5.4398125E1,2.396624E1,2.0519516E1,4.291641E0,4.8406982E0,1.0536514E1,8.054507E0,1.5726637E1,0E0,0E0,6.4646225E0,2.6055908E-1,9.665794E0,4.2925367E0,6.15802E0,6.947341E0,8.439522E-1,0E0,4.64713E1,4.5999756E0,1.6880894E1,3.0735703E0,1.01712265E1,3.1704712E0,1.8638611E0,0E0,2.181839E0,9.871315E0,6.47681E0,0E0,6.821066E0,2.0158868E0,9.647511E0,5.2859974E0,3.3431168E0,5.5855184E0,7.279205E-2,0E0,5.942764E-1,5.062974E0,4.330845E0,5.8040743E0,6.120486E0,4.136855E0,6.1460705E0,1.5048606E0,1.1916342E0,2.80756E-1,1.2444317E1,3.712838E1,3.3125687E-1,4.0362606E0,5.935155E0,8.672817E0,1.5341032E0,2.8292084E-1,1.0712723E1,6.871296E0,1.6352081E0,2.1997216E0,0E0,8.929291E-1,9.487152E-1,4.4403543E0,4.6758485E0,0E0,2.8841605E0,4.3797464E0,3.3473883E0,0E0,0E0,0E0,0E0,3.2660847E0,3.1259956E0,5.8156157E-1,2.643608E0,3.7986212E0,1.1211495E0,1.4837129E0,0E0,0E0,1.2166252E0,4.7771645E-1,2.6909802E0,2.9029422E0,1.7634764E0,3.372628E0,3.6245847E0,2.1065235E-1,2.7088475E0,5.270236E0,0E0,4.1745677E0,5.132658E0,1.2939463E0,0E0,0E0,0E0,0E0,0E0,0E0,6.467951E0,4.343625E0,3.8052883E0,2.0175003E1,3.3236694E-1,0E0,4.5032105E0,0E0,2.803902E0,1.6943998E0,6.9130745E0,5.7409973E0,8.97254E-1,0E0,0E0,0E0,3.394548E0,4.7838287E0,6.4757504E0,6.097967E0,7.847355E0,4.2599335E0,0E0,0E0,0E0,8.4259033E-1,6.3720703E-1,9.6556896E-1,1.6829262E0,1.6007627E0,2.2702036E0,2.9543142E0,0E0,0E0,2.2180986E0,0E0,3.137374E-1,3.3356237E0,0E0,9.799118E-1,3.4177628E0,2.3216767E0,0E0,0E0,1.1608505E0,2.8807497E0,4.6795692E0,2.3570232E0,3.2385087E-1,2.1827473E-1,1.4646139E0,0E0,1.1845226E0,2.225864E0,0E0,0E0,0E0,8.4809923E-1,3.3653102E0,9.920292E-1,0E0,1.3149462E0,2.1817422E-1,2.8526483E0,1.4234092E0,4.6354866E0,0E0,0E0,1.827898E0,2.7570746E0,5.768704E0,0E0,6.280178E0,2.120265E0,2.0832536E0,6.253599E0,0E0,0E0,8.729477E-1,4.6785793E0,0E0,3.811512E-1,8.007966E0,1.5404205E0,2.3432608E0,1.959557E1,2.0858765E-2,1.317281E0,2.261991E0,0E0,0E0,1.7276697E0,0E0,0E0,7.162317E0,3.252224E0,1.1230316E0,5.926257E0,0E0,0E0,1.137785E0,1.807032E0,3.357054E0,3.5197144E0,3.3199635E0,2.7722902E0,0E0,5.3501587E0,3.741066E0,3.4533427E0,2.167183E0,3.235384E0,0E0,8.661697E-1,5.0419617E-1,1.3380966E0,0E0,0E0,0E0,0E0,0E0,0E0,8.798E-1,0E0,1.2379867E0,1.0948114E0,0E0,0E0,0E0,0E0,2.5689015E0,0E0,3.1175861E0,1.6699238E0,0E0,0E0,3.9899826E-1,0E0,1.2187653E0,1.9631577E0,1.5954533E0,4.677169E0,0E0,4.4416237E-1,1.131701E0,6.2182407E0,0E0,0E0,0E0,0E0,0E0,3.282608E0,1.9000975E0,1.788292E-1,1.0245848E-1,2.5548453E0,6.582236E-1,0E0,0E0,0E0,0E0,0E0,0E0,0E0,0E0,0E0,3.713644E0,2.395304E0,0E0,9.522482E-1,0E0,2.1600795E0,5.4346275E-1,2.2336783E0,0E0,0E0,6.123163E0,4.644945E0,2.0189214E0,1.1176589E0,0E0,0E0,2.8195271E0,0E0,3.4485693E0,3.1933708E0,9.022998E-1,0E0,3.6832848E0,4.53022E0,1.2367535E-1,0E0,3.0661783E0,4.3632274E0,0E0,1.1115875E0,0E0,1.2880926E0,4.9126425E0,1.530584E1,1.8791604E0,0E0,0E0,0E0,0E0,1.2314582E-1,6.774497E-1,0E0,5.425947E0,2.780843E0,2.976574E0,4.4900436E0,0E0,0E0,0E0,0E0,0E0,0E0,4.905369E-1,0E0,2.370345E0,0E0,2.6890488E0,0E0,3.2453926E0,5.906266E0,2.8529015E0,1.364871E0,5.4789557E0,5.536289E0,2.3932495E0,3.025313E0,3.1577086E0,1.0328808E0,4.5192719E-1,2.5240269E0,0E0,0E0,0E0,0E0,3.4049988E-2,0E0,3.0722528E0,1.4877777E0,0E0,0E0,0E0,0E0,0E0,0E0,2.2601364E0,3.9826298E0,0E0,0E0,0E0,0E0,0E0,0E0,0E0,0E0,0E0,0E0,0E0,0E0,0E0,0E0,0E0,0E0,0E0,0E0,0E0,0E0,0E0,0E0,0E0,0E0,0E0,0E0,0E0,0E0,0E0,0E0,0E0,0E0,0E0,0E0,0E0,0E0,0E0,0E0,0E0,0E0,0E0,0E0,0E0,0E0,0E0,0E0,0E0,0E0,0E0,0E0,0E0,0E0,0E0,0E0,0E0,0E0,0E0,0E0,0E0,0E0,0E0,0E0,0E0,0E0,0E0,0E0,0E0,0E0,0E0,0E0,0E0,0E0,0E0,0E0,0E0,0E0,0E0,0E0,0E0,0E0,0E0,0E0,0E0,0E0,0E0,0E0,0E0,0E0,0E0,0E0,0E0,0E0,0E0,0E0,0E0,0E0,0E0,0E0,0E0,0E0,0E0,0E0,0E0,0E0,0E0,0E0,0E0,0E0,0E0,0E0,0E0,0E0,0E0,0E0,0E0,0E0,0E0,0E0,0E0,0E0,0E0,0E0,0E0,0E0,0E0,0E0,0E0,0E0,0E0,0E0,0E0,0E0],"parents":[2147483647,0,0,1,1,2,2,3,3,4,4,5,5,6,6,8,8,9,9,10,10,11,11,12,12,13,13,14,14,15,15,17,17,18,18,19,19,20,20,21,21,22,22,23,23,24,24,25,25,26,26,27,27,28,28,31,31,32,32,33,33,34,34,35,35,36,36,37,37,39,39,40,40,41,41,42,42,43,43,44,44,45,45,47,47,48,48,49,49,51,51,52,52,53,53,54,54,55,55,56,56,57,57,59,59,60,60,61,61,62,62,63,63,64,64,65,65,66,66,67,67,68,68,69,69,70,70,71,71,72,72,73,73,74,74,75,75,76,76,77,77,78,78,79,79,80,80,82,82,83,83,84,84,85,85,87,87,88,88,89,89,94,94,95,95,96,96,97,97,98,98,99,99,100,100,103,103,104,104,105,105,106,106,107,107,108,108,109,109,110,110,111,111,112,112,114,114,115,115,116,116,123,123,124,124,125,125,126,126,127,127,129,129,131,131,132,132,133,133,134,134,135,135,139,139,140,140,141,141,142,142,143,143,144,144,148,148,149,149,150,150,151,151,152,152,153,153,154,154,157,157,159,159,160,160,162,162,163,163,164,164,167,167,168,168,169,169,170,170,171,171,172,172,173,173,175,175,176,176,180,180,181,181,182,182,184,184,185,185,186,186,187,187,188,188,191,191,192,192,193,193,195,195,196,196,197,197,198,198,201,201,202,202,204,204,205,205,206,206,207,207,208,208,209,209,210,210,211,211,214,214,217,217,218,218,219,219,220,220,223,223,224,224,225,225,226,226,227,227,228,228,230,230,231,231,232,232,233,233,234,234,236,236,237,237,238,238,245,245,247,247,248,248,253,253,255,255,256,256,259,259,261,261,262,262,263,263,264,264,266,266,267,267,268,268,274,274,275,275,276,276,277,277,278,278,279,279,289,289,290,290,292,292,294,294,295,295,296,296,299,299,300,300,301,301,302,302,305,305,307,307,308,308,309,309,311,311,312,312,313,313,315,315,316,316,318,318,320,320,321,321,322,322,323,323,328,328,329,329,331,331,332,332,333,333,334,334,341,341,343,343,345,345,347,347,348,348,349,349,350,350,351,351,352,352,353,353,354,354,355,355,356,356,357,357,358,358,363,363,365,365,366,366,373,373,374,374],"right_children":[2,4,6,8,10,12,14,-1,16,18,20,22,24,26,28,30,-1,32,34,36,38,40,42,44,46,48,50,52,54,-1,-1,56,58,60,62,64,66,68,-1,70,72,74,76,78,80,82,-1,84,86,88,-1,90,92,94,96,98,100,102,-1,104,106,108,110,112,114,116,118,120,122,124,126,128,130,132,134,136,138,140,142,144,146,-1,148,150,152,154,-1,156,158,160,-1,-1,-1,-1,162,164,166,168,170,172,174,-1,-1,176,178,180,182,184,186,188,190,192,194,-1,196,198,200,-1,-1,-1,-1,-1,-1,202,204,206,208,210,-1,212,-1,214,216,218,220,222,-1,-1,-1,224,226,228,230,232,234,-1,-1,-1,236,238,240,242,244,246,248,-1,-1,250,-1,252,254,-1,256,258,260,-1,-1,262,264,266,268,270,272,274,-1,276,278,-1,-1,-1,280,282,284,-1,286,288,290,292,294,-1,-1,296,298,300,-1,302,304,306,308,-1,-1,310,312,-1,314,316,318,320,322,324,326,328,-1,-1,330,-1,-1,332,334,336,338,-1,-1,340,342,344,346,348,350,-1,352,354,356,358,360,-1,362,364,366,-1,-1,-1,-1,-1,-1,368,-1,370,372,-1,-1,-1,-1,374,-1,376,378,-1,-1,380,-1,382,384,386,388,-1,390,392,394,-1,-1,-1,-1,-1,396,398,400,402,404,406,-1,-1,-1,-1,-1,-1,-1,-1,-1,408,410,-1,412,-1,414,416,418,-1,-1,420,422,424,426,-1,-1,428,-1,430,432,434,-1,436,438,440,-1,442,444,-1,446,-1,448,450,452,454,-1,-1,-1,-1,456,458,-1,460,462,464,466,-1,-1,-1,-1,-1,-1,468,-1,470,-1,472,-1,474,476,478,480,482,484,486,488,490,492,494,496,-1,-1,-1,-1,498,-1,500,502,-1,-1,-1,-1,-1,-1,504,506,-1,-1,-1,-1,-1,-1,-1,-1,-1,-1,-1,-1,-1,-1,-1,-1,-1,-1,-1,-1,-1,-1,-1,-1,-1,-1,-1,-1,-1,-1,-1,-1,-1,-1,-1,-1,-1,-1,-1,-1,-1,-1,-1,-1,-1,-1,-1,-1,-1,-1,-1,-1,-1,-1,-1,-1,-1,-1,-1,-1,-1,-1,-1,-1,-1,-1,-1,-1,-1,-1,-1,-1,-1,-1,-1,-1,-1,-1,-1,-1,-1,-1,-1,-1,-1,-1,-1,-1,-1,-1,-1,-1,-1,-1,-1,-1,-1,-1,-1,-1,-1,-1,-1,-1,-1,-1,-1,-1,-1,-1,-1,-1,-1,-1,-1,-1,-1,-1,-1,-1,-1,-1,-1,-1,-1,-1,-1,-1,-1,-1,-1,-1],"split_conditions":[2.0833333E-1,7.692308E-2,2E0,5.5555556E-2,1E0,1E0,1E0,-3.6890492E-1,3.6719882E-1,3.1391585E-1,2.4E3,4.4444445E-1,4.375E-1,5E-1,1.4E4,1.6997E2,6.720889E-2,2E0,3.6E3,5.507E2,1.09956E3,1E0,6.875E-1,1.8E4,1E0,2.1E4,4.608E3,4.2857143E-1,3.48E3,9.670868E-2,-3.149573E-1,1.08333E3,3E-1,3.2876712E-1,1.875E-1,2.25E4,2.015E3,1.746E4,-7.898884E-3,2.2058824E-1,5.5E3,6E3,2.195122E-1,1.9E4,1E0,1.6E3,1.6613452E-2,3.2642487E-1,4.5E3,7.2E3,-3.264119E-1,3E3,2.75E4,8.5E1,1.2E4,2E-1,2.013E3,2.91667E3,-1.0763114E-1,2.4242425E-1,1.590909E-1,2.0437956E-1,1.08E0,1.4E4,2.858E3,1E0,2.05E4,1.7073171E-1,9.5E3,1.3E4,1.496063E-1,3E-1,3.2E-1,3.1530344E-1,3.3333334E-1,8.5714287E-1,2.369E3,1.2E4,2.5E-1,7.712E3,3E-1,8.46269E-2,1.02E4,1.4439E4,2.195122E-1,5.74E2,-3.42525E-1,6.666667E-1,2.014E3,2.579023E-1,-3.4191832E-1,-2.3421854E-2,3.8682985E-1,-2.6059744E-1,2.2222222E-1,2.01E3,2.012E3,8.3333E2,2.4242425E-1,2.568058E-1,4.86E4,-3.5680825E-1,-1.3330816E-1,2.01E3,3.1530344E-1,1.4E4,2.3000762E-1,5.4E3,4.7376E2,2.62134E-1,3.3114E4,1.724138E-1,3.2876712E-1,-3.604581E-1,7.2E3,1.0714286E-1,2.3000762E-1,-3.0090693E-1,5.869425E-2,-2.1960206E-1,1.0476488E-1,-3.536769E-1,-8.608987E-2,1.5719315E-1,2.6666668E-1,2.3199E4,1.1E4,3.6719882E-1,-8.0191195E-2,3E-1,-3.036806E-1,1.4444E4,2.01E3,1.16239E3,3.060686E-1,2.99E4,3.7208667E-1,2.25191E-1,5.7406855E-1,2.596685E-1,1.496063E-1,3.0985916E-1,1.8003E2,2.7494907E-1,1E0,-2.2043273E-1,2.1632688E-1,1.1060372E-1,3.2876712E-1,2.858E3,7.5E2,1.5E3,8.1E3,1.5E1,3.6719882E-1,-2.7655596E-1,1.8165755E-1,1.082E3,-5.2348062E-2,6.9E2,1E0,-1.3374108E-2,2.3E3,1.075E4,5.4E4,3.4240285E-1,3.592836E-2,1.5789473E-1,2.4752E4,1.65E4,7.5E3,1.29902E3,1.39861E3,2.580645E-1,-7.5013295E-2,1.726E3,1.4E3,-3.56874E-1,-7.412163E-2,1.3570823E-1,3.086E3,2.498E3,2.009E3,5.645032E-2,2.7E4,1.15E4,2.5E4,4.55E3,2E-1,-2.6745063E-1,-4.7358457E-2,2.6257426E-1,6.3E3,2.7E3,5.1017594E-1,2.012E3,3.2987E2,2.580645E-1,2.6257426E-1,5.9489544E-2,-2.7034068E-1,2.5471E2,3.888889E-1,-6.774982E-2,2.4242425E-1,2.858E3,2.1226E2,2.006E3,2.006E3,2.1259843E-1,2.4010025E-1,2.8333333E-1,4.2012015E-1,1.947818E-1,2.568058E-1,-6.2701968E-3,4.0803614E-1,1.7775E4,1.6666667E-1,1.9278E4,2.061069E4,-1.17183596E-1,1.4831536E-1,2.195122E-1,3.1391585E-1,2.009E3,1E0,5E2,1E0,-2.2769783E-1,3.806E3,3.4285715E-1,3.1530344E-1,2.52672E3,2.857143E-1,5.0671864E-1,1.08E0,3E-1,3.37E3,9.462604E-2,-2.0079836E-1,2.0529583E-2,-3.2635918E-1,-9.9015035E-2,2.4764638E-1,1.16239E3,-2.831537E-1,2.777778E-1,2.6666668E-1,5.458045E-1,3.627699E-2,-5.7926163E-2,-3.095621E-1,2.58E3,-2.791377E-1,2.2222222E-1,2.857143E-1,3.412515E-1,-2.0441703E-1,5.8492E2,8.804568E-2,3.380783E-1,2.009E3,1.9E3,2.6E4,1.8685019E-1,4.2059E2,2.7E3,1.08E0,-9.238318E-2,-3.0512738E-1,-6.5228894E-2,7.277159E-2,-5.4075923E-3,4.7387E4,1.746E4,1.55E4,2.8333333E-1,4.8033E2,2.05E3,-1.4711946E-3,-2.1995341E-2,4.968916E-1,-1.5416278E-1,1.1051301E-1,-3.4605503E-1,-3.960145E-2,-6.386375E-2,-2.9424244E-1,2.011E3,9.8E3,-2.2188249E-1,1.3621E4,5.640505E-1,2.061069E4,3.3E3,1.15E4,3.1006637E-1,-1.5385365E-1,1E0,6.2E3,1.6071428E-1,4.053E3,9.453976E-2,-2.9675362E-1,1.08E0,-2.1008149E-1,2.858E3,1.7E4,2.76E3,-3.4008068E-1,1.4E3,2.15E4,2.568058E-1,5.0378263E-1,2.0373E4,6.4569E2,2.669468E-2,3.5555556E-1,4.5246493E-2,4.55E3,4.412E3,2.596685E-1,2.857143E-1,-3.5305274E-1,7.494962E-2,-2.5828633E-1,1.6496219E-1,1.027969E4,2.777778E-1,6.767387E-2,3.5221E4,6.4569E2,5.6E4,3.4E4,1.4220172E-1,6.237723E-1,-2.1327047E-1,4.039143E-1,8.730395E-3,-3.031246E-1,3.2608697E-1,3.0848914E-1,2.007E3,3.0425727E-1,2.012E3,-1.0557181E-1,2.2535E2,1.233E4,5.52E2,2.01E3,1.5E4,2.01E3,2.4242425E-1,2.0437956E-1,7.5753E2,5.04E3,2.4752E4,4.05E4,-2.517991E-1,2.4695657E-1,3.308765E-1,3.085861E-2,3.1530344E-1,-8.430616E-2,2.8333333E-1,1.03E3,-8.1098035E-2,2.0156424E-1,-1.3380663E-1,1.7072836E-1,7.104515E-2,5.2327603E-1,2.35E4,2.013E3,3.3419758E-2,5.7657564E-1,3.1868872E-1,-6.307656E-2,-6.6105895E-2,-3.4099418E-1,-2.9891995E-1,-7.1736865E-2,-1.3286093E-1,-2.6465765E-1,5.159254E-2,-2.6621717E-1,2.73478E-1,-1.276776E-1,-1.3031442E-1,-3.1157878E-1,-2.3187922E-1,5.2353483E-2,5.0202185E-1,-1.497611E-1,4.758694E-1,-7.221677E-2,-2.6128584E-1,6.896359E-2,-1.9009979E-1,-3.5266948E-1,-7.139122E-2,-2.6920667E-1,-1.9208616E-1,1.499981E-1,-6.506993E-2,-3.1214616E-1,-1.4256508E-2,2.3093565E-1,-2.3980974E-1,3.8531817E-2,-9.647221E-2,1.587988E-1,2.2902282E-1,-7.332979E-2,-3.4009033E-1,-1.0151474E-1,-2.0627962E-1,2.3703761E-1,3.0040842E-1,-1.5298107E-1,-1.564441E-1,2.7964523E-1,4.287524E-2,5.554216E-1,4.1099012E-2,-2.697727E-1,-9.500556E-2,3.6307085E-1,-2.643845E-1,1.262072E-1,5.976534E-1,2.6731664E-1,-2.0610844E-1,8.1642866E-2,-2.837087E-1,-9.107843E-2,2.669356E-1,-6.166397E-2,4.8377316E-2,2.328717E-1,-3.1314796E-1,2.7334174E-2,1.5100183E-1,-1.4425237E-1,-3.3132344E-1,-1.0987046E-1,-3.2960567E-1,-2.3862366E-2,-2.7119794E-1,3.0059692E-2,5.259621E-2,1.7872474E-1,-2.9014525E-1,9.434847E-2,-5.6835756E-2,-2.602362E-1,-1.4102104E-1,-3.2934397E-1,2.9416507E-1,-2.7780727E-2,2.7597454E-1,-8.163302E-2,2.4244945E-1,-2.4210553E-1,1.3686752E-1,4.5233047E-1,6.8448335E-2,-1.1981771E-1,1.3217202E-1,-2.3432705E-1,3.5219997E-1,8.13618E-2,6.0302E-2,-1.9928955E-1,2.7052537E-1,-2.0312808E-1,3.0788788E-1,4.5214098E-2,9.4480395E-2,-2.3550078E-1,1.6876414E-1,-1.15782626E-1,9.21631E-2,3.5024527E-1,3.4450024E-1,5.9006125E-1,-1.121205E-1,2.569921E-1,-2.1757627E-1,1.0854211E-1,4.0993822E-1,3.6509935E-2,5.736267E-1,3.9790455E-1,3.110348E-1,-1.365596E-1,-3.6800545E-1,-1.5419658E-1,-2.7596658E-2,-2.8834054E-1,-2.0850337E-1,-3.457848E-1,-2.369427E-1,1.4176564E-1,2.2515728E-1,-2.2502719E-1],"split_indices":[13,13,3,13,15,15,15,0,17,17,3,13,13,13,2,11,0,3,0,11,11,4,13,2,4,2,3,13,3,0,0,11,12,17,13,1,14,1,0,17,0,2,18,1,8,0,0,16,3,2,0,3,1,3,0,13,14,11,0,12,13,16,3,1,0,4,2,13,0,0,16,12,13,16,17,13,0,1,17,0,13,0,1,0,18,3,0,13,14,16,0,0,0,0,13,14,14,11,12,19,2,0,0,14,16,1,12,2,11,16,1,13,17,0,2,13,12,0,0,0,0,0,0,17,13,1,1,18,0,13,0,1,14,11,12,1,0,0,0,13,16,13,11,12,10,0,0,0,17,0,3,3,2,3,18,0,0,11,0,3,4,0,3,3,1,0,0,13,1,1,2,11,11,16,0,0,3,0,0,0,0,0,14,0,2,1,2,0,13,0,0,18,2,0,0,14,11,16,17,0,0,11,13,0,12,0,11,14,14,13,12,19,0,0,19,0,0,2,17,1,2,0,0,18,17,14,7,11,10,0,0,13,16,11,17,0,3,12,0,0,0,0,0,0,0,11,0,12,13,0,0,0,0,0,0,17,17,0,0,11,0,16,14,0,1,0,11,0,3,0,0,0,0,0,1,1,1,19,11,0,0,0,0,0,0,0,0,0,0,14,0,0,2,0,2,0,1,0,0,10,0,13,0,0,0,3,0,0,1,0,0,0,1,19,0,1,11,0,13,0,0,0,13,17,0,0,0,0,2,12,0,1,11,1,1,0,0,0,0,0,0,13,0,14,0,14,0,11,2,11,14,2,14,12,16,11,0,1,2,0,0,0,0,16,0,19,3,0,0,0,0,0,0,1,14,0,0,0,0,0,0,0,0,0,0,0,0,0,0,0,0,0,0,0,0,0,0,0,0,0,0,0,0,0,0,0,0,0,0,0,0,0,0,0,0,0,0,0,0,0,0,0,0,0,0,0,0,0,0,0,0,0,0,0,0,0,0,0,0,0,0,0,0,0,0,0,0,0,0,0,0,0,0,0,0,0,0,0,0,0,0,0,0,0,0,0,0,0,0,0,0,0,0,0,0,0,0,0,0,0,0,0,0,0,0,0,0,0,0,0,0,0,0,0,0,0,0,0,0,0,0,0,0,0,0,0,0],"split_type":[0,0,0,0,0,0,0,0,0,0,0,0,0,0,0,0,0,0,0,0,0,0,0,0,0,0,0,0,0,0,0,0,0,0,0,0,0,0,0,0,0,0,0,0,0,0,0,0,0,0,0,0,0,0,0,0,0,0,0,0,0,0,0,0,0,0,0,0,0,0,0,0,0,0,0,0,0,0,0,0,0,0,0,0,0,0,0,0,0,0,0,0,0,0,0,0,0,0,0,0,0,0,0,0,0,0,0,0,0,0,0,0,0,0,0,0,0,0,0,0,0,0,0,0,0,0,0,0,0,0,0,0,0,0,0,0,0,0,0,0,0,0,0,0,0,0,0,0,0,0,0,0,0,0,0,0,0,0,0,0,0,0,0,0,0,0,0,0,0,0,0,0,0,0,0,0,0,0,0,0,0,0,0,0,0,0,0,0,0,0,0,0,0,0,0,0,0,0,0,0,0,0,0,0,0,0,0,0,0,0,0,0,0,0,0,0,0,0,0,0,0,0,0,0,0,0,0,0,0,0,0,0,0,0,0,0,0,0,0,0,0,0,0,0,0,0,0,0,0,0,0,0,0,0,0,0,0,0,0,0,0,0,0,0,0,0,0,0,0,0,0,0,0,0,0,0,0,0,0,0,0,0,0,0,0,0,0,0,0,0,0,0,0,0,0,0,0,0,0,0,0,0,0,0,0,0,0,0,0,0,0,0,0,0,0,0,0,0,0,0,0,0,0,0,0,0,0,0,0,0,0,0,0,0,0,0,0,0,0,0,0,0,0,0,0,0,0,0,0,0,0,0,0,0,0,0,0,0,0,0,0,0,0,0,0,0,0,0,0,0,0,0,0,0,0,0,0,0,0,0,0,0,0,0,0,0,0,0,0,0,0,0,0,0,0,0,0,0,0,0,0,0,0,0,0,0,0,0,0,0,0,0,0,0,0,0,0,0,0,0,0,0,0,0,0,0,0,0,0,0,0,0,0,0,0,0,0,0,0,0,0,0,0,0,0,0,0,0,0,0,0,0,0,0,0,0,0,0,0,0,0,0,0,0,0,0,0,0,0,0,0,0,0,0,0,0,0,0,0,0,0,0,0,0,0,0,0,0,0,0,0,0,0,0,0,0,0,0,0,0,0,0,0,0,0,0,0],"sum_hessian":[2.2469082E3,7.608202E2,1.486088E3,2.624515E2,4.9836868E2,1.2435833E3,2.4250468E2,2.380766E2,2.4374914E1,3.680882E2,1.3028049E2,8.6438544E2,3.7919788E2,1.7068355E2,7.182113E1,2.2579199E1,1.7957147E0,2.4177396E2,1.26314224E2,1.13422585E2,1.6857895E1,7.3745166E2,1.2693373E2,3.0466678E2,7.453109E1,1.5595511E2,1.4728434E1,4.3044476E1,2.8776655E1,1.0365161E0,2.1542683E1,1.886203E2,5.3153667E1,6.0408043E1,6.590618E1,5.951413E1,5.3908455E1,1.5359421E1,1.4984751E0,6.845147E2,5.293697E1,9.682015E1,3.011358E1,2.0057568E2,1.040911E2,7.265172E1,1.8793705E0,1.3646771E2,1.9487398E1,1.0286818E1,4.441616E0,3.9743988E1,3.300489E0,1.52554655E1,1.3521191E1,1.752346E2,1.338569E1,5.166679E1,1.4868747E0,4.3853813E1,1.655423E1,4.7844135E1,1.8062048E1,3.9917564E1,1.9596565E1,5.0199055E1,3.709402E0,2.3399131E0,1.3019507E1,2.184611E2,4.6605362E2,4.445868E1,8.47829E0,1.686477E1,7.995538E1,4.4459105E0,2.5667671E1,8.153843E1,1.19037254E2,1.0193777E2,2.1533399E0,1.4924728E0,7.115924E1,1.2572462E2,1.0743104E1,1.0315639E1,9.171759E0,3.5178323E0,6.7689853E0,2.1031202E1,1.8712786E1,1.6249188E0,1.6755702E0,1.5731957E0,1.368227E1,1.1323027E1,2.198164E0,1.5492732E2,2.0307283E1,7.236559E0,6.149131E0,4.9963715E1,1.7030783E0,3.1877518E1,1.1976295E1,9.461887E0,7.0923424E0,9.465089E0,3.8379047E1,1.4860781E1,3.2012665E0,1.2648886E1,2.7268679E1,7.5184765E0,1.2078088E1,4.679957E1,3.3994863E0,2.6383584E0,1.0710437E0,1.3314986E0,1.0084145E0,1.1870883E1,1.1486245E0,2.1155437E2,6.906728E0,5.0620052E1,4.1543356E2,4.323172E1,1.2269615E0,5.4107585E0,3.0675316E0,1.3938595E1,2.926177E0,6.605879E1,1.3896589E1,2.6970844E0,1.7488258E0,1.9839593E0,2.3683712E1,8.74077E0,7.279765E1,4.6033073E1,7.300418E1,5.4369286E1,4.756848E1,1.1110747E0,1.0422653E0,1.2052519E0,6.9953995E1,1.2354713E2,2.1774855E0,7.4918933E0,3.2512112E0,4.800995E0,5.514644E0,2.428855E0,1.0889773E0,5.016789E0,1.7521964E0,5.2706933E0,1.57605095E1,1.457057E0,1.2225213E1,2.2258747E0,9.097152E0,1.0785174E0,1.1196465E0,1.2404242E2,3.0884905E1,1.3236964E1,7.070319E0,5.101042E0,2.135517E0,5.0114517E0,1.1376792E0,1.9944E1,1.19335165E1,1.0777975E1,1.1983204E0,1.9393775E0,7.52251E0,3.946768E0,3.145574E0,1.2121966E0,8.252892E0,4.0364256E0,3.434262E1,4.988788E0,9.871993E0,2.1776786E0,1.023588E0,9.923297E0,2.7255893E0,2.5884611E1,1.3840675E0,5.660403E0,6.417685E0,5.8478146E0,4.095175E1,1.1363705E0,2.263116E0,1.2578618E1,1.9897575E2,2.0212178E0,4.88551E0,3.1885303E1,1.8734749E1,1.327705E1,4.021565E2,4.0186623E1,3.0450947E0,4.1011386E0,1.3096199E0,1.1403047E0,1.2798289E1,1.2966733E0,1.6295037E0,4.0609585E1,2.5449205E1,1.0177777E1,3.718812E0,1.1017234E0,1.595361E0,4.13256E0,4.6082106E0,6.6724086E0,6.6125244E1,2.7377209E1,1.8655867E1,2.3445814E0,7.06596E1,4.1091507E1,1.3277779E1,4.4808346E1,2.7601347E0,6.6647545E1,3.3064506E0,5.0937767E1,7.260936E1,1.0403632E0,1.1371223E0,1.3917661E0,6.100127E0,1.3022635E0,1.9489477E0,2.190341E0,2.6106536E0,2.8440685E0,2.6705756E0,3.9284418E0,1.088347E0,1.0724384E0,4.198255E0,1.3302157E1,2.4583523E0,8.813604E0,3.4116082E0,1.145008E0,1.0808668E0,8.0386305E0,1.0585215E0,7.279607E1,5.124635E1,1.5820035E1,1.5064869E1,1.7547666E0,1.1482198E1,3.4545956E0,3.6157234E0,2.2290125E0,2.8720295E0,1.0243568E0,1.11116E0,1.5059812E0,3.5054705E0,4.6274033E0,1.5316598E1,5.9159007E0,6.0176163E0,6.0293274E0,1.4931828E0,1.5628327E0,2.3839352E0,1.6356994E0,1.5098748E0,6.3944235E0,1.8584685E0,1.1538084E0,2.8826172E0,2.4470663E1,9.871959E0,1.2792568E0,3.7095315E0,2.4641964E0,7.4077964E0,7.826862E0,2.0964348E0,1.215284E0,1.5103053E0,1.2026761E1,1.385785E1,2.5198622E0,3.1405408E0,1.0444436E0,5.3732414E0,3.2642941E0,2.5835204E0,1.27136345E1,2.8238117E1,2.1704223E0,1.0408196E1,1.8504509E2,1.3930666E1,2.2034466E0,2.6820633E0,1.4544793E1,1.7340511E1,1.318466E0,1.7416283E1,1.8853874E0,1.1391663E1,1.9926899E1,3.822296E2,4.0079594E0,3.6178665E1,1.1068066E0,1.9382881E0,1.2971125E0,2.8040261E0,1.1180802E1,1.6174877E0,2.5836128E1,1.4773458E1,2.5686166E0,2.2880589E1,1.1843071E0,8.993471E0,1.850699E0,1.868113E0,1.3888257E0,2.7437341E0,3.056783E0,1.5514277E0,4.689851E0,1.9825581E0,6.4889725E1,1.2355237E0,1.9274982E1,8.102226E0,1.5918062E1,2.737804E0,3.295261E1,3.770699E1,3.1660557E1,9.430949E0,1.0000395E1,3.2773838E0,4.2052498E1,2.7558472E0,1.1047587E0,1.655376E0,1.6970565E0,1.6093941E0,4.9632977E1,1.3047911E0,1.6692013E1,5.591735E1,1.11976E0,1.070581E0,1.6339147E0,1.2101539E0,1.026683E0,1.6438926E0,4.5105996E0,8.791557E0,1.2130251E0,7.6005793E0,2.3326695E0,1.0789388E0,1.0947647E0,6.9438653E0,6.984548E1,2.9505868E0,2.040589E1,3.0840458E1,1.2402923E0,1.4579742E1,2.253292E0,1.2811577E1,4.0721135E0,7.4100847E0,1.5303699E0,1.9242257E0,1.7877055E0,1.8280178E0,2.4611673E0,1.0443032E0,2.1745856E0,2.4528174E0,5.424957E0,9.891641E0,1.1861757E0,4.729725E0,2.446641E0,3.5709755E0,1.9911919E0,4.0381355E0,1.7365612E1,7.1050496E0,5.345462E0,4.526497E0,1.2999623E0,2.4095693E0,4.6028767E0,2.80492E0,5.5451097E0,2.2817523E0,1.0862166E0,1.0102183E0,9.077784E0,2.9489772E0,1.2163906E1,1.6939445E0,1.2573054E0,1.2625568E0,1.266232E0,1.8743087E0,2.224952E0,1.0393423E0,1.4771351E0,1.12365E1,3.1194413E0,2.5118677E1,1.0875971E0,1.0828252E0,8.715098E0,1.7632999E2,5.3764358E0,8.554231E0,1.1873965E0,1.01605E0,1.1807975E1,2.7368186E0,1.1120383E1,6.2201276E0,1.3504342E1,3.91194E0,9.805869E0,1.5857934E0,1.2631408E1,7.2954903E0,1.3453825E2,2.4769136E2,2.961019E0,1.0469403E0,1.0685079E0,1.7355182E0,7.287375E0,3.893427E0,1.9969193E1,5.8669367E0,1.274668E0,1.349879E1,1.349037E0,1.2195797E0,6.829468E0,1.605112E1,1.6593876E0,1.3973954E0,1.8769495E0,2.812901E0,6.0665726E1,4.223998E0,5.603493E0,1.3671489E1,5.1527886E0,2.9494379E0,9.563845E0,6.354218E0,1.3828683E0,1.3549356E0,2.584946E1,7.1031513E0,1.1571712E1,2.6135279E1,2.4050903E1,7.6096544E0,1.9857335E0,7.4452157E0,3.0164561E0,6.983938E0,2.1649895E0,1.1123945E0,8.858103E0,3.3194397E1,1.436403E0,1.3194441E0,4.756777E1,2.0652084E0,6.8955803E0,9.7964325E0,1.6274733E1,3.9642616E1,3.1624222E0,1.3481776E0,7.4121084E0,1.3794491E0],"tree_param":{"num_deleted":"0","num_feature":"20","num_nodes":"507","size_leaf_vector":"1"}},{"base_weights":[-9.235097E-2,-7.35146E-1,1.12205006E-1,-1.1450535E0,-4.8801896E-1,2.3750305E-1,-5.9057826E-1,-1.1498209E0,-6.202383E-2,-6.2861407E-1,-1.0401268E-1,6.738672E-2,6.1373913E-1,-7.769927E-1,-1.7685151E-1,-3.464873E-1,-1.19723715E-1,-7.783063E-1,-3.1455126E-1,4.568302E-2,-8.4959745E-1,-5.5603936E-2,5.5040646E-1,4.1299668E-1,9.1696674E-1,-8.5084385E-1,2.845625E-2,1.2031688E-1,-7.5882185E-1,-9.548316E-1,-6.0720557E-1,-3.57747E-1,3.1328124E-1,1.4406735E-1,-6.2880063E-1,-1.0453676E0,4.878337E-2,-2.0777085E-3,-8.0453265E-1,3.7902874E-1,1.190653E0,3.4569052E-1,1.161248E0,8.226962E-1,1.392441E0,-1.054098E0,-6.8520254E-1,7.2232044E-1,-6.297594E-1,-3.724137E-1,6.250167E-1,-8.911269E-1,4.5756772E-1,-9.912897E-1,-4.197108E-1,-6.9810814E-1,-1.9494623E-1,-4.4144696E-1,5.2280236E-2,-1.4285709E-1,3.821806E-1,-1.947097E-1,-3.012709E-1,-1.22747734E-1,-3.3311442E-1,2.3445266E-1,-2.1874964E-1,-8.7749824E-2,4.7207296E-1,-1.020395E0,-2.6009738E-1,2.605076E-1,9.9146914E-1,4.5417956E-1,1.3477328E0,2.7346832E-1,9.841848E-1,1.2778274E0,-1.3299203E-1,3.0451632E-1,8.89937E-1,6.904619E-1,4.4858527E-1,-1.0789316E0,6.818798E-2,-7.739602E-1,-1.5504254E-1,-8.914136E-2,1.1282161E0,-7.913724E-1,7.615058E-2,-5.462485E-1,2.4474663E-1,-2.6469383E-1,7.8441536E-1,-3.3147717E-1,-6.1876017E-1,-8.211973E-2,2.816658E-1,-5.7612056E-1,-1.0307721E0,-2.728029E-1,2.623335E-1,-6.0989016E-1,-1.0192897E0,-5.204999E-1,4.250029E-1,-1.4032516E-1,-6.570009E-1,1.0508838E0,-3.584342E-1,-1.3982636E-2,-2.86386E-1,-1.10919856E-1,5.6850964E-1,-6.1072546E-1,3.0345812E-1,-3.181983E-1,5.3451765E-2,-6.392763E-1,5.308648E-1,-3.3188167E-1,-4.8456773E-1,-4.4265917E-1,5.353188E-1,-2.2316504E-1,3.8801163E-1,1.3530376E0,4.6673632E-1,1.0653214E0,-2.2501914E-1,1.386789E0,1.2901148E-1,-3.798696E-1,3.3971277E-1,1.3648305E0,4.277604E-1,1.3893117E0,-6.454997E-2,4.291276E-2,3.770543E-1,1.27407E0,8.234653E-1,3.8254303E-1,-3.770046E-2,-6.105839E-1,-3.3096468E-1,-6.556193E-1,-1.0426291E0,8.184491E-1,-4.227176E-1,-9.191422E-2,4.5679086E-1,-1.3859092E-1,-3.124473E-1,-6.534797E-1,9.8262735E-2,-3.9886644E-1,7.2472143E-1,2.2796735E-1,1.1860169E0,1.7758574E-1,-7.965203E-1,4.8121143E-2,-2.9024556E-1,-3.2962E-1,-7.654878E-1,3.0659497E-1,-1.9606245E-1,-3.5588348E-1,-7.8207535E-1,-6.9584E-2,-3.2576767E-1,-6.3264155E-1,7.280469E-2,9.560244E-1,-1.5269633E-1,3.1188884E-1,-6.073849E-1,-7.261646E-1,3.315799E-1,-1.0908329E-1,5.4417586E-1,-7.2466576E-1,7.662166E-2,-5.376233E-1,2.7103144E-1,-6.881844E-1,3.890388E-1,9.084405E-1,2.1657854E-1,-4.4667955E-2,-2.2189981E-1,-6.252267E-2,2.0116681E-1,-6.426629E-1,-2.077402E-1,-1.6953965E-1,1.9266923E-1,-8.585765E-1,5.6942876E-2,4.4785407E-1,1.4532315E0,7.648429E-2,-6.8244463E-1,-5.846031E-1,1.4032628E-1,3.923047E-1,-1.9302368E-1,7.139547E-2,-6.344635E-1,4.466214E-1,-6.5888155E-1,1.4904903E0,8.1906594E-2,4.2427048E-1,1.24306925E-1,3.532248E-2,3.9268252E-1,-5.9672225E-1,1.4740385E-1,9.480005E-2,1.4173439E0,-8.262457E-1,-9.129749E-2,4.033263E-1,-3.2839867E-1,5.0347334E-1,8.026065E-1,-2.2468942E-1,7.1447545E-1,1.4720696E0,1.0298058E-1,4.7793028E-1,-4.21782E-1,1.5078473E0,6.7070943E-1,-1.6123978E-2,8.536567E-1,-2.7563944E-1,1.14294656E-1,-6.8757963E-1,1.1064523E-1,-3.2472736E-1,-5.3286027E-2,3.2447335E-1,6.0114346E-2,-6.575446E-1,4.5708668E-1,-1.1825612E-1,5.9066806E-2,-7.0941496E-1,1.9212753E-2,-2.2634014E-1,7.1319915E-2,3.6365765E-1,-2.647691E-2,5.7605374E-1,-3.525071E-1,4.9325866E-1,1.4217092E0,9.428632E-2,-9.343133E-1,-1.37676E-1,2.1537413E-1,-9.5039773E-1,-1.0754714E-1,-6.2356484E-1,1.1202995E-1,9.744566E-3,-8.6510754E-1,-5.0823424E-2,-7.267281E-1,1.3006049E0,1.4521503E-2,-4.449518E-1,7.455412E-1,2.8588956E-2,-7.318874E-1,-8.029475E-1,1.03832014E-1,-4.679513E-2,1.9433166E-1,-2.9104865E-1,-2.4741977E-2,-1.6399136E-1,5.5842775E-1,-4.0481284E-2,-9.674224E-1,-3.152722E-1,4.772441E-1,-2.7540815E-1,-4.1920587E-2,7.335527E-1,-1.979459E-1,1.1482238E0,2.3148856E-1,-4.302576E-1,9.7865915E-1,-7.845511E-1,-5.7937164E-2,-3.5644275E-1,-4.1997924E-2,-5.89075E-1,-8.707286E-2,-2.2971284E-1,2.8157267E-1,-7.4181825E-2,-2.9289407E-1,8.9748E-2,5.4634553E-1,1.1500985E-1,1.7288789E0,-2.811806E-1,-1.1888606E-2,1.02334395E-1,-8.814428E-1,-1.8029062E-1,3.610112E-1,-8.854656E-1,1.6651449E-1,8.7809E-1,3.550665E-1,-8.4541285E-1,-1.5727622E-2,4.8705655E-1,7.2972625E-1,-6.6571903E-1,7.595745E-1,2.2868121E-2,-2.7824518E-1,4.83922E-2,1.4666866E0,-3.2107985E-1,-3.4969863E-1,4.5241234E-1,-7.127212E-1,2.8087562E-1,8.8142794E-1,-6.750986E-1,3.4643236E-1,-8.4374316E-2,1.3729726E0,9.006373E-1,-1.0562475E-1,4.7991043E-1,7.244661E-1,1.0287077E0,-2.4563932E-1,-3.3316588E-1,1.603903E-1,1.664971E0,1.09801084E-1,-7.923833E-2,9.4007653E-1,-7.707522E-1,3.6601377E-1,4.290786E-1,9.152812E-1,-7.349566E-1,2.0981482E-1,-7.712441E-1,1.1348105E-2,2.4103522E-1,-3.6015697E-2,-4.5693374E-1,-3.273348E-1,-1.6205698E-1,1.1960435E0,6.395866E-2,-2.1809076E-1,3.513495E-1,-1.2695725E-1,-4.9930494E-2,4.904404E-1,-2.9904178E-1,-3.2166514E-1,-9.270078E-2,-3.01623E-1,1.649985E-1,-2.3204367E-1,-2.4216019E-1,6.491715E-2,1.6491249E-1,-2.568913E-1,1.8615253E-1,-2.208436E-1,-2.7301392E-1,-4.4048164E-2,-2.8528318E-1,-1.0693702E-1,4.777383E-1,1.06078535E-1,3.703015E-2,-2.6700938E-1,3.3709052E-1,-8.5902385E-2,-2.8186155E-2,-3.103349E-1,4.821279E-2,-2.5470567E-1,1.867264E-1,-1.909119E-1,3.1237906E-1,-9.1851525E-2,8.33873E-2,-2.1208973E-1,-8.9155816E-2,-3.2011098E-1,-2.110705E-1,1.4901398E-1,2.367287E-1,-1.2330027E-1,4.2947106E-2,3.589802E-1,3.740662E-1,5.6157425E-2,-1.9972968E-1,3.072778E-1,9.002175E-2,-3.046488E-1,3.7187925E-1,7.165781E-2,-2.5425202E-1,9.3082175E-2,2.950429E-1,-1.5610535E-1,-1.2197959E-1,9.0294525E-2,2.2149269E-2,-1.2810975E-1,-6.0527686E-2,-2.633272E-1,-5.8471024E-2,4.8622154E-2,1.038699E-1,-1.565727E-1,9.006164E-2,-2.8704417E-1,-3.2836672E-2,2.3814452E-1,2.8147912E-1,1.2942125E-1,5.9662104E-1,2.1674603E-1,2.1076606E-1,-2.2216403E-1,-3.1398737E-1,-1.0678458E-1,1.1192587E-3,-2.6009607E-1,-3.4950244E-1,-1.3848054E-1,3.521314E-1,3.376608E-2,-9.392742E-2,1.3377418E-1,-5.7221223E-2,-2.9679525E-1,1.0407277E-2,3.1260794E-1,-3.4920454E-1,1.4241615E-1,3.6191097E-1,-7.040407E-2,1.9743626E-1,4.536831E-1,9.2638895E-2,-2.201131E-1,-5.1070508E-2,4.2276242E-1,4.266077E-2,-3.5391974E-1,3.851367E-3,1.5473807E-1,2.9688767E-1,1.3325562E-3,-6.617363E-2,-3.6072618E-1,-1.5366822E-1,2.2670914E-1,8.895478E-2,5.0037307E-1,5.8473706E-2,3.085679E-1,3.7059075E-1,3.635628E-2,7.185257E-3,3.9635053E-1,-2.173481E-1,3.2765802E-2,2.251807E-1,-1.0330477E-1,2.1978004E-1,5.8393174E-1,3.3711952E-1,3.3152528E-2,-2.9471928E-1,-6.136353E-2,-2.6047472E-2,3.2511315E-1,1.597467E-1,2.9161054E-1,-2.5588506E-1,-1.6079557E-1,2.9751554E-1,-2.0341425E-1,-2.868511E-1,-1.3160098E-1,-2.1491434E-1,7.74742E-3,-2.0234905E-1,6.81375E-2,1.0405752E-1,4.3257663E-1,8.393569E-2,-2.0680092E-1],"categories":[],"categories_nodes":[],"categories_segments":[],"categories_sizes":[],"default_left":[0,0,1,1,0,0,0,0,0,1,1,0,0,0,0,0,0,0,0,1,0,0,0,0,0,1,0,0,0,0,0,1,0,0,0,0,0,0,0,0,0,0,0,0,0,1,1,0,0,1,0,0,0,0,0,1,0,0,0,0,0,0,0,0,0,0,0,0,0,1,1,0,0,0,0,0,0,0,0,1,0,0,0,0,0,0,0,0,0,0,0,1,0,0,0,0,0,0,0,0,1,0,0,0,0,0,0,0,0,0,0,1,0,0,0,0,0,0,0,0,1,0,0,0,0,0,0,0,0,0,0,0,0,0,0,0,0,1,0,0,0,0,0,0,0,0,0,0,0,0,0,0,0,0,0,0,0,0,0,0,0,0,0,0,0,0,0,0,0,0,0,0,0,1,0,0,0,0,0,0,0,0,0,0,0,0,0,0,0,0,0,0,0,0,0,0,0,0,0,0,0,0,0,0,0,0,0,0,0,0,0,1,0,1,0,0,0,0,0,0,0,0,0,0,0,1,0,0,0,0,0,1,0,0,0,0,0,0,0,0,0,0,0,0,0,0,0,0,0,0,0,0,0,0,0,0,0,0,0,0,0,0,0,0,0,0,0,0,0,0,0,0,0,0,0,0,1,0,0,0,0,0,0,0,0,0,0,0,0,1,1,0,0,0,0,0,0,0,0,0,0,0,0,0,0,0,0,0,0,0,0,0,0,0,0,0,0,0,0,0,0,0,0,0,0,0,0,0,0,0,0,0,0,0,0,0,0,0,1,0,0,0,0,0,0,0,1,0,0,0,0,0,0,0,0,0,0,0,0,0,0,0,0,0,0,0,0,0,0,0,0,0,0,0,0,0,0,0,0,0,0,0,0,0,0,0,0,0,0,0,0,0,0,0,0,0,0,0,0,0,0,0,0,0,0,0,0,0,0,0,0,0,0,0,0,0,0,0,0,0,0,0,0,0,0,0,0,0,0,0,0,0,0,0,0,0,0,0,0,0,0,0,0,0,0,0,0,0,0,0,0,0,0,0,0,0,0,0,0,0,0,0,0,0,0,0,0,0,0,0,0,0,0,0,0,0,0,0,0,0,0,0,0,0,0,0,0,0,0,0,0,0,0,0,0,0,0,0,0,0,0,0,0,0,0,0,0,0,0,0,0,0,0,0,0,0,0],"id":2,"left_children":[1,3,5,7,9,11,13,15,-1,17,19,21,23,25,27,-1,-1,29,31,33,35,37,39,41,43,45,47,49,51,53,55,57,-1,59,61,63,65,67,69,71,73,75,77,79,81,83,85,87,89,91,93,95,97,99,101,103,105,107,109,111,113,115,-1,-1,-1,-1,-1,117,119,121,123,125,127,129,131,133,135,137,-1,139,141,143,-1,145,-1,147,149,-1,151,153,-1,155,157,-1,159,-1,161,-1,-1,163,165,-1,167,169,171,173,175,177,179,181,183,185,-1,187,189,191,193,195,197,199,201,-1,203,205,207,209,211,213,215,217,219,221,-1,223,225,227,229,231,-1,233,-1,235,237,-1,-1,239,-1,241,243,245,247,-1,-1,249,-1,251,-1,253,255,257,259,-1,261,263,-1,-1,265,-1,-1,267,269,-1,-1,271,-1,273,-1,275,277,279,281,-1,-1,283,285,287,289,291,293,295,297,-1,-1,-1,-1,299,301,303,305,307,-1,309,311,-1,313,315,-1,-1,-1,317,319,321,323,325,-1,-1,327,-1,-1,329,-1,-1,331,333,335,337,339,-1,341,-1,343,345,-1,347,349,351,353,355,357,-1,-1,359,-1,-1,-1,-1,-1,361,363,-1,-1,365,-1,-1,-1,-1,-1,367,369,371,373,-1,375,-1,-1,377,379,381,383,385,387,-1,389,391,-1,393,395,-1,397,399,401,-1,-1,-1,-1,-1,403,405,407,409,411,-1,-1,413,-1,415,417,419,421,423,425,427,429,431,433,435,437,-1,-1,439,441,-1,443,-1,-1,445,447,449,-1,451,-1,453,455,457,-1,-1,459,461,463,-1,-1,-1,465,467,-1,469,471,473,475,477,479,-1,481,483,-1,-1,485,487,489,-1,491,493,-1,-1,495,497,-1,499,501,503,505,507,-1,-1,-1,509,-1,511,513,-1,-1,-1,-1,-1,-1,515,-1,-1,-1,-1,-1,-1,-1,-1,-1,-1,-1,-1,-1,-1,-1,-1,-1,-1,-1,-1,-1,-1,-1,-1,-1,-1,-1,-1,-1,-1,-1,-1,-1,-1,-1,-1,-1,-1,-1,-1,-1,-1,-1,-1,-1,-1,-1,-1,-1,-1,-1,-1,-1,-1,-1,-1,-1,-1,-1,-1,-1,-1,-1,-1,-1,-1,-1,-1,-1,-1,-1,-1,-1,-1,-1,-1,-1,-1,-1,-1,-1,-1,-1,-1,-1,-1,-1,-1,-1,-1,-1,-1,-1,-1,-1,-1,-1,-1,-1,-1,-1,-1,-1,-1,-1,-1,-1,-1,-1,-1,-1,-1,-1,-1,-1,-1,-1,-1,-1,-1,-1,-1,-1,-1,-1,-1,-1,-1,-1,-1,-1,-1,-1,-1,-1,-1,-1,-1,-1,-1,-1],"loss_changes":[2.7939844E2,5.1402283E1,1.4211783E2,6.2197876E-1,1.7306107E1,8.758508E1,1.8700333E1,2.7563477E-1,0E0,1.081855E1,9.796996E0,5.610575E1,2.556215E1,1.0022598E1,1.3436155E1,0E0,0E0,4.213211E0,4.9305587E0,4.98524E0,2.6310759E0,3.0194323E1,2.0578499E1,1.2603657E1,6.426468E0,4.4625626E0,7.344414E0,1.3150126E1,4.62741E0,1.0736771E0,2.9867096E0,2.6310205E0,0E0,4.5080433E0,1.3650904E0,4.573536E-2,2.6106508E0,2.8639503E1,5.639179E0,1.0822714E1,4.0156364E0,1.0721775E1,4.4736423E0,4.7262726E0,8.812332E-1,2.3865814E0,4.0072517E0,3.566729E0,1.3826404E0,3.0207074E0,6.9470615E0,7.1310234E-1,1.3949293E0,5.6596375E-1,2.4442601E0,1.3018684E0,3.5396395E0,4.0109043E0,6.0270004E0,3.1554773E0,3.3609982E0,1.3628132E0,0E0,0E0,0E0,0E0,0E0,1.9447056E1,7.389036E0,1.1037025E0,2.5032506E0,8.058187E0,3.9971027E0,3.7847672E0,5.6713104E-1,9.456303E0,4.4645653E0,3.582943E0,0E0,4.428873E0,2.1791E0,2.6630962E0,0E0,7.917023E-2,0E0,1.6972351E0,3.9494643E0,0E0,3.7449574E0,1.0375695E0,0E0,2.210318E0,2.3293254E0,0E0,5.109252E0,0E0,3.2308555E0,0E0,0E0,2.1015594E0,3.009491E-1,0E0,3.1282156E0,2.1599083E0,4.3711567E-1,1.1146622E0,3.5674465E0,6.028177E0,2.7412128E0,5.2673545E0,1.729674E0,4.1984725E0,0E0,3.3502262E0,2.9392729E0,9.400368E-2,7.5111157E-1,8.002401E0,1.1553528E1,1.2310925E0,7.237047E0,0E0,1.1546783E0,1.9845169E0,3.905786E0,3.3892837E0,6.5933123E0,1.659071E0,3.5486078E0,9.239192E-1,1.5901269E0,5.5616E-1,0E0,2.5409658E0,8.471033E0,1.0665417E0,4.293144E0,1.0956383E0,0E0,3.26443E0,0E0,1.3615894E0,2.817459E0,0E0,0E0,2.0315685E0,0E0,2.04381E0,5.376282E-1,3.2368827E-1,2.677677E0,0E0,0E0,3.4846917E-1,0E0,8.204584E-1,0E0,9.640533E-1,1.7469628E0,2.4921613E0,1.5428219E0,0E0,2.0701017E0,1.7538098E0,0E0,0E0,1.8705177E0,0E0,0E0,3.1207366E0,2.1380062E0,0E0,0E0,3.1571436E-1,0E0,1.2842433E0,0E0,5.1583233E0,1.2891312E0,2.2815437E0,5.755203E-1,0E0,0E0,8.344779E-1,2.0189548E0,2.0774853E0,2.3568234E0,5.421138E-1,2.783029E0,1.8478279E0,7.417208E0,0E0,0E0,0E0,0E0,4.6981907E0,4.1954074E0,4.9020925E0,8.661647E0,1.0598898E-1,0E0,3.3355045E0,1.7143173E0,0E0,8.734577E-1,2.5165844E0,0E0,0E0,0E0,5.05518E0,3.960703E0,3.5521526E0,6.170721E-1,4.20475E-2,0E0,0E0,5.287642E0,0E0,0E0,8.8498914E-1,0E0,0E0,1.59478E0,9.718847E-1,4.8704844E0,1.0266306E1,4.3534923E0,0E0,4.6016536E0,0E0,2.197033E0,4.472885E-1,0E0,3.5582027E0,3.3286424E0,1.4222431E0,1.8848805E0,5.4374185E0,2.401268E0,0E0,0E0,2.4233856E0,0E0,0E0,0E0,0E0,0E0,7.7963495E-1,6.989413E-1,0E0,0E0,1.2358332E0,0E0,0E0,0E0,0E0,0E0,3.6085083E0,1.1860389E0,3.614552E0,3.5628147E0,0E0,6.059799E-1,0E0,0E0,1.3144779E-1,2.4768593E0,2.5880723E0,4.5866446E0,2.3077633E0,8.130379E-1,0E0,3.3058453E-1,2.8918886E-1,0E0,1.6234436E0,4.115118E0,0E0,2.2103848E0,1.5432091E0,1.8571398E0,0E0,0E0,0E0,0E0,0E0,1.8689642E0,1.3928472E0,3.4690857E-2,2.036458E0,4.1741886E0,0E0,0E0,1.2674496E0,0E0,6.543684E-1,3.9954972E0,3.882797E0,1.0206976E0,3.4287872E0,6.4083476E0,3.08708E0,3.6850438E0,2.4332552E0,3.2776206E0,6.972727E0,4.6617365E0,0E0,0E0,3.1578283E0,2.9766827E0,0E0,1.6479683E-1,0E0,0E0,2.790003E0,3.5770988E-1,1.8687544E0,0E0,6.447582E-1,0E0,3.5899134E0,5.139518E0,2.2632432E-1,0E0,0E0,7.497374E-1,3.2687883E0,2.8367338E0,0E0,0E0,0E0,4.8290253E-2,1.4053215E0,0E0,4.881354E0,2.83072E0,9.088292E0,3.425806E0,2.603972E0,2.7194097E0,0E0,9.779167E-1,5.5264044E-1,0E0,0E0,1.1700613E0,1.408895E0,8.2545733E-1,0E0,1.7872471E0,1.1123791E0,0E0,0E0,6.779189E-1,2.3121357E-1,0E0,5.3009143E0,1.4891129E0,7.3825645E-1,3.0705347E0,8.516264E-2,0E0,0E0,0E0,1.5906987E0,0E0,1.0081779E0,3.715248E-1,0E0,0E0,0E0,0E0,0E0,0E0,9.323474E-1,0E0,0E0,0E0,0E0,0E0,0E0,0E0,0E0,0E0,0E0,0E0,0E0,0E0,0E0,0E0,0E0,0E0,0E0,0E0,0E0,0E0,0E0,0E0,0E0,0E0,0E0,0E0,0E0,0E0,0E0,0E0,0E0,0E0,0E0,0E0,0E0,0E0,0E0,0E0,0E0,0E0,0E0,0E0,0E0,0E0,0E0,0E0,0E0,0E0,0E0,0E0,0E0,0E0,0E0,0E0,0E0,0E0,0E0,0E0,0E0,0E0,0E0,0E0,0E0,0E0,0E0,0E0,0E0,0E0,0E0,0E0,0E0,0E0,0E0,0E0,0E0,0E0,0E0,0E0,0E0,0E0,0E0,0E0,0E0,0E0,0E0,0E0,0E0,0E0,0E0,0E0,0E0,0E0,0E0,0E0,0E0,0E0,0E0,0E0,0E0,0E0,0E0,0E0,0E0,0E0,0E0,0E0,0E0,0E0,0E0,0E0,0E0,0E0,0E0,0E0,0E0,0E0,0E0,0E0,0E0,0E0,0E0,0E0,0E0,0E0,0E0,0E0,0E0,0E0,0E0,0E0,0E0,0E0,0E0,0E0,0E0,0E0,0E0,0E0,0E0,0E0],"parents":[2147483647,0,0,1,1,2,2,3,3,4,4,5,5,6,6,7,7,9,9,10,10,11,11,12,12,13,13,14,14,17,17,18,18,19,19,20,20,21,21,22,22,23,23,24,24,25,25,26,26,27,27,28,28,29,29,30,30,31,31,33,33,34,34,35,35,36,36,37,37,38,38,39,39,40,40,41,41,42,42,43,43,44,44,45,45,46,46,47,47,48,48,49,49,50,50,51,51,52,52,53,53,54,54,55,55,56,56,57,57,58,58,59,59,60,60,61,61,67,67,68,68,69,69,70,70,71,71,72,72,73,73,74,74,75,75,76,76,77,77,79,79,80,80,81,81,83,83,85,85,86,86,88,88,89,89,91,91,92,92,94,94,96,96,99,99,100,100,102,102,103,103,104,104,105,105,106,106,107,107,108,108,109,109,110,110,111,111,113,113,114,114,115,115,116,116,117,117,118,118,119,119,120,120,122,122,123,123,124,124,125,125,126,126,127,127,128,128,129,129,130,130,131,131,133,133,134,134,135,135,136,136,137,137,139,139,141,141,142,142,145,145,147,147,148,148,149,149,150,150,153,153,155,155,157,157,158,158,159,159,160,160,162,162,163,163,166,166,169,169,170,170,173,173,175,175,177,177,178,178,179,179,180,180,183,183,184,184,185,185,186,186,187,187,188,188,189,189,190,190,195,195,196,196,197,197,198,198,199,199,201,201,202,202,204,204,205,205,209,209,210,210,211,211,212,212,213,213,216,216,219,219,222,222,223,223,224,224,225,225,226,226,228,228,230,230,231,231,233,233,234,234,235,235,236,236,237,237,238,238,241,241,247,247,248,248,251,251,257,257,258,258,259,259,260,260,262,262,265,265,266,266,267,267,268,268,269,269,270,270,272,272,273,273,275,275,276,276,278,278,279,279,280,280,286,286,287,287,288,288,289,289,290,290,293,293,295,295,296,296,297,297,298,298,299,299,300,300,301,301,302,302,303,303,304,304,305,305,306,306,309,309,310,310,312,312,315,315,316,316,317,317,319,319,321,321,322,322,323,323,326,326,327,327,328,328,332,332,333,333,335,335,336,336,337,337,338,338,339,339,340,340,342,342,343,343,346,346,347,347,348,348,350,350,351,351,354,354,355,355,357,357,358,358,359,359,360,360,361,361,365,365,367,367,368,368,375,375],"right_children":[2,4,6,8,10,12,14,16,-1,18,20,22,24,26,28,-1,-1,30,32,34,36,38,40,42,44,46,48,50,52,54,56,58,-1,60,62,64,66,68,70,72,74,76,78,80,82,84,86,88,90,92,94,96,98,100,102,104,106,108,110,112,114,116,-1,-1,-1,-1,-1,118,120,122,124,126,128,130,132,134,136,138,-1,140,142,144,-1,146,-1,148,150,-1,152,154,-1,156,158,-1,160,-1,162,-1,-1,164,166,-1,168,170,172,174,176,178,180,182,184,186,-1,188,190,192,194,196,198,200,202,-1,204,206,208,210,212,214,216,218,220,222,-1,224,226,228,230,232,-1,234,-1,236,238,-1,-1,240,-1,242,244,246,248,-1,-1,250,-1,252,-1,254,256,258,260,-1,262,264,-1,-1,266,-1,-1,268,270,-1,-1,272,-1,274,-1,276,278,280,282,-1,-1,284,286,288,290,292,294,296,298,-1,-1,-1,-1,300,302,304,306,308,-1,310,312,-1,314,316,-1,-1,-1,318,320,322,324,326,-1,-1,328,-1,-1,330,-1,-1,332,334,336,338,340,-1,342,-1,344,346,-1,348,350,352,354,356,358,-1,-1,360,-1,-1,-1,-1,-1,362,364,-1,-1,366,-1,-1,-1,-1,-1,368,370,372,374,-1,376,-1,-1,378,380,382,384,386,388,-1,390,392,-1,394,396,-1,398,400,402,-1,-1,-1,-1,-1,404,406,408,410,412,-1,-1,414,-1,416,418,420,422,424,426,428,430,432,434,436,438,-1,-1,440,442,-1,444,-1,-1,446,448,450,-1,452,-1,454,456,458,-1,-1,460,462,464,-1,-1,-1,466,468,-1,470,472,474,476,478,480,-1,482,484,-1,-1,486,488,490,-1,492,494,-1,-1,496,498,-1,500,502,504,506,508,-1,-1,-1,510,-1,512,514,-1,-1,-1,-1,-1,-1,516,-1,-1,-1,-1,-1,-1,-1,-1,-1,-1,-1,-1,-1,-1,-1,-1,-1,-1,-1,-1,-1,-1,-1,-1,-1,-1,-1,-1,-1,-1,-1,-1,-1,-1,-1,-1,-1,-1,-1,-1,-1,-1,-1,-1,-1,-1,-1,-1,-1,-1,-1,-1,-1,-1,-1,-1,-1,-1,-1,-1,-1,-1,-1,-1,-1,-1,-1,-1,-1,-1,-1,-1,-1,-1,-1,-1,-1,-1,-1,-1,-1,-1,-1,-1,-1,-1,-1,-1,-1,-1,-1,-1,-1,-1,-1,-1,-1,-1,-1,-1,-1,-1,-1,-1,-1,-1,-1,-1,-1,-1,-1,-1,-1,-1,-1,-1,-1,-1,-1,-1,-1,-1,-1,-1,-1,-1,-1,-1,-1,-1,-1,-1,-1,-1,-1,-1,-1,-1,-1,-1,-1],"split_conditions":[1.764706E-1,5.882353E-2,1.7E0,4.5E-1,1E0,1E0,1E0,8.1E4,-6.202383E-2,2.857143E-1,7.5E2,3.888889E-1,3.3333334E-1,5E-1,4.3E3,-3.464873E-1,-1.19723715E-1,3.2E3,5E-1,1E0,9.1667E2,1E0,6.666667E-1,1.316E3,6.1538464E-1,1.904762E-1,1.7E3,1.027969E4,1.2E4,2.7494907E-1,1.5909E3,1.06667E3,3.1328124E-1,5.183E2,1.8437E4,1.842E3,3.5221E4,3.1578946E-1,4.2E3,3.3333334E-1,1.6666667E-1,3.1578946E-1,1E0,2.58E3,3.3E3,2.05296E3,1.01981E3,7.2E3,3.7967914E-1,2.857143E-1,8.5E1,5.183E2,3.4285715E-1,2.568058E-1,2.498E3,2.6E0,2.013E3,2.8333333E-1,3.2E4,3.4101E4,1.1764706E-1,1.6666667E-1,-3.012709E-1,-1.22747734E-1,-3.3311442E-1,2.3445266E-1,-2.1874964E-1,3.2E3,2.006E3,6E2,2.568058E-1,4.2452E2,2.6884422E-1,5.04E3,2.015E3,2.007E3,6.1504E2,3.0985916E-1,-1.3299203E-1,2.568058E-1,3.5E3,2.65E4,4.4858527E-1,2.568058E-1,6.818798E-2,4.5E3,2.01E3,-8.914136E-2,2.4010025E-1,3.65E3,7.615058E-2,3.2642487E-1,3.086E3,-2.6469383E-1,2.62134E-1,-3.3147717E-1,5.5913E2,-8.211973E-2,2.816658E-1,1.98E3,4.473E2,-2.728029E-1,1.08E0,5E3,1.55E4,1.6E-1,4.7387E4,1.384615E4,4E4,2.8333333E-1,1.3513513E-1,2.62134E-1,-2.86386E-1,4.878E3,2.3000762E-1,1.68E3,1.35E4,1.6E4,2.521739E-1,2.0373E4,4.390244E-1,-3.3188167E-1,6.1148E2,3.2642487E-1,2.5E-1,3.2987E2,1E0,2.014E3,4.8951E2,2.8333333E-1,8E-1,1.15E4,1.2901148E-1,3.48E2,2.014E3,6.761666E-1,6.6801E2,2.568058E-1,-6.454997E-2,9.9E3,3.770543E-1,4.375E-1,1.47E4,3.8254303E-1,-3.770046E-2,2.6884422E-1,-3.3096468E-1,2.7141E4,4E-1,1.5E3,2.015E3,-9.191422E-2,4.5679086E-1,2.5E-1,-3.124473E-1,4.0625E-1,9.8262735E-2,2.3199E4,5.4E2,2.579023E-1,2.01E3,1.7758574E-1,1.496063E-1,1.416E3,-2.9024556E-1,-3.2962E-1,1.6E-1,3.0659497E-1,-1.9606245E-1,2.5E4,2.568058E-1,-6.9584E-2,-3.2576767E-1,1.746E4,7.280469E-2,6E2,-1.5269633E-1,3.75E2,1.0204082E-1,2.1E4,1.233E4,-1.0908329E-1,5.4417586E-1,1.75467E3,2.580645E-1,9.27663E3,1.4E4,6.7987E2,3.2642487E-1,9.375E2,2.011E3,-4.4667955E-2,-2.2189981E-1,-6.252267E-2,2.0116681E-1,2.76E3,2.6666668E-1,2.0437956E-1,6E3,2.498E3,5.6942876E-2,1.08E0,2.3000762E-1,7.648429E-2,2.4242425E-1,2.2222222E-1,1.4032628E-1,3.923047E-1,-1.9302368E-1,8E3,3.1530344E-1,2.1E4,3.1530344E-1,2.568058E-1,8.1906594E-2,4.2427048E-1,1.935E4,3.532248E-2,3.9268252E-1,2.01E3,1.4740385E-1,9.480005E-2,2.369E3,5.4E3,5.9274E2,2.568058E-1,3.1391585E-1,5.0347334E-1,3.2E3,-2.2468942E-1,3.3114E4,2.16667E3,1.0298058E-1,2.01E3,3.75E-1,3.1530344E-1,4.7368422E-1,2.777778E-1,2.0437956E-1,-2.7563944E-1,1.14294656E-1,3.380783E-1,1.1064523E-1,-3.2472736E-1,-5.3286027E-2,3.2447335E-1,6.0114346E-2,3.8E4,2.88E4,-1.1825612E-1,5.9066806E-2,2.195122E-1,1.9212753E-2,-2.2634014E-1,7.1319915E-2,3.6365765E-1,-2.647691E-2,2.5E-1,2.231405E-1,6.08E2,1.34E4,9.428632E-2,2.01E3,-1.37676E-1,2.1537413E-1,4.8744E2,2.0373E4,3.1530344E-1,4.0013E4,3.1E4,6.1E4,-5.0823424E-2,2.4242425E-1,1.3043478E-1,1.4521503E-2,2.4010025E-1,1.08E0,2.8588956E-2,6.1148E2,1.8003E2,8.9527E2,-4.679513E-2,1.9433166E-1,-2.9104865E-1,-2.4741977E-2,-1.6399136E-1,1.3E4,3.806E3,3.44E2,2.6257426E-1,2.6257426E-1,-2.7540815E-1,-4.1920587E-2,1.6E4,-1.979459E-1,2.012E3,2.3E4,6.632E2,1.5384616E-1,2.00001E0,2.1259843E-1,3.2642487E-1,2.9E4,2.22E4,3.1391585E-1,2.4010025E-1,2.016E3,-7.4181825E-2,-2.9289407E-1,2.6884422E-1,2.76E3,1.1500985E-1,2.3199E4,-2.811806E-1,-1.1888606E-2,1.1E4,2.013E3,3.1E4,3.610112E-1,9.27663E3,1.6651449E-1,2.777778E-1,6.534E3,2.009E3,-1.5727622E-2,4.8705655E-1,4.375E-1,6.2E3,1.5E3,2.2868121E-2,-2.7824518E-1,4.83922E-2,2.006E3,2.4242425E-1,-3.4969863E-1,5.2778E2,1.746E4,3.806E3,1E0,2.521739E-1,9.27663E3,-8.4374316E-2,3.375E2,7.894837E-1,-1.0562475E-1,4.7991043E-1,2.62134E-1,1.726E3,2.62134E-1,-3.3316588E-1,4.0625E-1,2E4,1.09801084E-1,-7.923833E-2,1E0,1E4,3.6601377E-1,3.888889E-1,4.3E3,2.4242425E-1,2.857143E-1,2.8333333E-1,1.1348105E-2,2.4103522E-1,-3.6015697E-2,3.9139E2,-3.273348E-1,5.9274E2,2.3000762E-1,6.395866E-2,-2.1809076E-1,3.513495E-1,-1.2695725E-1,-4.9930494E-2,4.904404E-1,8.9E3,-3.2166514E-1,-9.270078E-2,-3.01623E-1,1.649985E-1,-2.3204367E-1,-2.4216019E-1,6.491715E-2,1.6491249E-1,-2.568913E-1,1.8615253E-1,-2.208436E-1,-2.7301392E-1,-4.4048164E-2,-2.8528318E-1,-1.0693702E-1,4.777383E-1,1.06078535E-1,3.703015E-2,-2.6700938E-1,3.3709052E-1,-8.5902385E-2,-2.8186155E-2,-3.103349E-1,4.821279E-2,-2.5470567E-1,1.867264E-1,-1.909119E-1,3.1237906E-1,-9.1851525E-2,8.33873E-2,-2.1208973E-1,-8.9155816E-2,-3.2011098E-1,-2.110705E-1,1.4901398E-1,2.367287E-1,-1.2330027E-1,4.2947106E-2,3.589802E-1,3.740662E-1,5.6157425E-2,-1.9972968E-1,3.072778E-1,9.002175E-2,-3.046488E-1,3.7187925E-1,7.165781E-2,-2.5425202E-1,9.3082175E-2,2.950429E-1,-1.5610535E-1,-1.2197959E-1,9.0294525E-2,2.2149269E-2,-1.2810975E-1,-6.0527686E-2,-2.633272E-1,-5.8471024E-2,4.8622154E-2,1.038699E-1,-1.565727E-1,9.006164E-2,-2.8704417E-1,-3.2836672E-2,2.3814452E-1,2.8147912E-1,1.2942125E-1,5.9662104E-1,2.1674603E-1,2.1076606E-1,-2.2216403E-1,-3.1398737E-1,-1.0678458E-1,1.1192587E-3,-2.6009607E-1,-3.4950244E-1,-1.3848054E-1,3.521314E-1,3.376608E-2,-9.392742E-2,1.3377418E-1,-5.7221223E-2,-2.9679525E-1,1.0407277E-2,3.1260794E-1,-3.4920454E-1,1.4241615E-1,3.6191097E-1,-7.040407E-2,1.9743626E-1,4.536831E-1,9.2638895E-2,-2.201131E-1,-5.1070508E-2,4.2276242E-1,4.266077E-2,-3.5391974E-1,3.851367E-3,1.5473807E-1,2.9688767E-1,1.3325562E-3,-6.617363E-2,-3.6072618E-1,-1.5366822E-1,2.2670914E-1,8.895478E-2,5.0037307E-1,5.8473706E-2,3.085679E-1,3.7059075E-1,3.635628E-2,7.185257E-3,3.9635053E-1,-2.173481E-1,3.2765802E-2,2.251807E-1,-1.0330477E-1,2.1978004E-1,5.8393174E-1,3.3711952E-1,3.3152528E-2,-2.9471928E-1,-6.136353E-2,-2.6047472E-2,3.2511315E-1,1.597467E-1,2.9161054E-1,-2.5588506E-1,-1.6079557E-1,2.9751554E-1,-2.0341425E-1,-2.868511E-1,-1.3160098E-1,-2.1491434E-1,7.74742E-3,-2.0234905E-1,6.81375E-2,1.0405752E-1,4.3257663E-1,8.393569E-2,-2.0680092E-1],"split_indices":[13,13,3,17,15,15,15,2,0,17,3,13,13,13,3,0,0,0,17,10,11,4,13,11,13,17,3,2,0,12,11,11,0,11,1,0,1,17,0,17,17,17,4,0,0,11,11,2,12,17,3,11,13,19,0,3,14,19,1,1,13,17,0,0,0,0,0,0,14,11,19,11,12,0,14,14,11,13,0,19,0,1,0,19,0,3,14,0,12,3,0,16,0,0,16,0,11,0,0,0,11,0,3,0,1,13,1,2,1,19,13,16,0,0,12,0,1,1,13,1,17,0,11,16,12,11,4,14,11,19,13,1,0,11,14,16,11,19,0,2,0,13,1,0,0,12,0,2,13,3,14,0,0,12,0,13,0,1,11,16,14,0,16,0,0,0,13,0,0,1,19,0,0,1,0,3,0,11,13,2,2,0,0,11,16,2,1,11,16,11,14,0,0,0,0,0,13,16,2,0,0,3,12,0,12,13,0,0,0,2,16,1,16,19,0,0,2,0,0,14,0,0,0,2,11,19,17,0,0,0,1,11,0,14,13,16,13,12,16,0,0,16,0,0,0,0,0,2,2,0,0,18,0,0,0,0,0,17,13,11,2,0,14,0,0,11,1,16,1,1,1,0,12,13,0,12,3,0,11,11,11,0,0,0,0,0,0,0,11,18,18,0,0,2,0,14,2,11,13,10,13,16,1,1,17,12,14,0,0,12,0,0,1,0,0,2,14,1,0,2,0,12,2,14,0,0,13,0,11,0,0,0,14,12,0,11,1,0,10,13,2,0,11,18,0,0,16,0,16,0,13,1,0,0,10,2,0,13,0,12,17,19,0,0,0,11,0,11,12,0,0,0,0,0,0,3,0,0,0,0,0,0,0,0,0,0,0,0,0,0,0,0,0,0,0,0,0,0,0,0,0,0,0,0,0,0,0,0,0,0,0,0,0,0,0,0,0,0,0,0,0,0,0,0,0,0,0,0,0,0,0,0,0,0,0,0,0,0,0,0,0,0,0,0,0,0,0,0,0,0,0,0,0,0,0,0,0,0,0,0,0,0,0,0,0,0,0,0,0,0,0,0,0,0,0,0,0,0,0,0,0,0,0,0,0,0,0,0,0,0,0,0,0,0,0,0,0,0,0,0,0,0,0,0,0,0,0,0,0,0,0,0,0,0,0,0,0],"split_type":[0,0,0,0,0,0,0,0,0,0,0,0,0,0,0,0,0,0,0,0,0,0,0,0,0,0,0,0,0,0,0,0,0,0,0,0,0,0,0,0,0,0,0,0,0,0,0,0,0,0,0,0,0,0,0,0,0,0,0,0,0,0,0,0,0,0,0,0,0,0,0,0,0,0,0,0,0,0,0,0,0,0,0,0,0,0,0,0,0,0,0,0,0,0,0,0,0,0,0,0,0,0,0,0,0,0,0,0,0,0,0,0,0,0,0,0,0,0,0,0,0,0,0,0,0,0,0,0,0,0,0,0,0,0,0,0,0,0,0,0,0,0,0,0,0,0,0,0,0,0,0,0,0,0,0,0,0,0,0,0,0,0,0,0,0,0,0,0,0,0,0,0,0,0,0,0,0,0,0,0,0,0,0,0,0,0,0,0,0,0,0,0,0,0,0,0,0,0,0,0,0,0,0,0,0,0,0,0,0,0,0,0,0,0,0,0,0,0,0,0,0,0,0,0,0,0,0,0,0,0,0,0,0,0,0,0,0,0,0,0,0,0,0,0,0,0,0,0,0,0,0,0,0,0,0,0,0,0,0,0,0,0,0,0,0,0,0,0,0,0,0,0,0,0,0,0,0,0,0,0,0,0,0,0,0,0,0,0,0,0,0,0,0,0,0,0,0,0,0,0,0,0,0,0,0,0,0,0,0,0,0,0,0,0,0,0,0,0,0,0,0,0,0,0,0,0,0,0,0,0,0,0,0,0,0,0,0,0,0,0,0,0,0,0,0,0,0,0,0,0,0,0,0,0,0,0,0,0,0,0,0,0,0,0,0,0,0,0,0,0,0,0,0,0,0,0,0,0,0,0,0,0,0,0,0,0,0,0,0,0,0,0,0,0,0,0,0,0,0,0,0,0,0,0,0,0,0,0,0,0,0,0,0,0,0,0,0,0,0,0,0,0,0,0,0,0,0,0,0,0,0,0,0,0,0,0,0,0,0,0,0,0,0,0,0,0,0,0,0,0,0,0,0,0,0,0,0,0,0,0,0,0,0,0,0,0,0,0,0,0,0,0,0,0,0,0,0,0,0,0,0,0,0,0,0,0,0,0,0,0,0,0,0,0,0,0,0,0,0,0,0,0,0,0,0,0,0,0,0,0,0,0,0,0,0,0,0],"sum_hessian":[2.1232766E3,5.1194647E2,1.6113302E3,1.9118912E2,3.2075735E2,1.3680797E3,2.4325058E2,1.8999837E2,1.190757E0,2.3432692E2,8.6430435E1,9.429162E2,4.2516345E2,1.6708734E2,7.616323E1,1.8817242E2,1.8259474E0,1.5768913E2,7.663779E1,7.2760574E1,1.3669866E1,7.522554E2,1.9066087E2,2.5723254E2,1.6793088E2,1.530023E2,1.4085048E1,5.0943493E1,2.5219742E1,7.535971E1,8.2329414E1,7.499062E1,1.647162E0,6.4184616E1,8.575959E0,1.1089657E1,2.580209E0,7.030135E2,4.9241875E1,1.5165791E2,3.900296E1,2.3734506E2,1.9887497E1,1.424234E2,2.5507488E1,6.629261E1,8.670969E1,6.80943E0,7.275617E0,2.5910036E1,2.5033455E1,2.298689E1,2.2328527E0,6.975482E1,5.6048923E0,6.688747E1,1.5441955E1,6.2214073E1,1.2776553E1,2.9290207E1,3.4894405E1,4.6815844E0,3.8943748E0,1.7043868E0,9.385269E0,1.3263683E0,1.2538408E0,5.9611847E2,1.0689499E2,3.463519E1,1.4606683E1,1.2826172E2,2.3396196E1,7.5405016E0,3.146246E1,2.1450948E2,2.2835579E1,1.8730268E1,1.1572287E0,1.6993616E1,1.2542978E2,4.24513E0,2.1262358E1,6.518727E1,1.1053427E0,7.388092E1,1.2828765E1,2.0154126E0,4.794018E0,6.2388735E0,1.0367435E0,2.0305508E1,5.604528E0,1.9603593E0,2.3073097E1,1.1165594E1,1.1821296E1,1.0574626E0,1.1753901E0,7.4115887E0,6.234323E1,3.068668E0,2.5362244E0,5.47487E1,1.2138764E1,1.0230192E1,5.211762E0,2.6644115E1,3.5569958E1,3.2692025E0,9.507351E0,2.6155085E1,3.1351233E0,9.680547E0,2.5213858E1,2.428021E0,2.2535632E0,2.26008E2,3.7011047E2,4.8746815E0,1.0202031E2,2.8933416E1,5.701774E0,1.2240714E1,2.3659685E0,2.6601513E1,1.0166021E2,1.2917106E1,1.0479091E1,3.6698651E0,3.8706362E0,2.968781E1,1.7746483E0,1.9311817E1,1.9519766E2,1.2696882E1,1.0138697E1,1.749345E1,1.2368186E0,1.4151334E1,2.8422832E0,1.5823023E1,1.0960675E2,2.1455882E0,2.099542E0,4.5021005E0,6.068517E1,5.3677696E1,2.0203226E1,2.3229487E0,1.0505816E1,1.0819448E0,3.7120728E0,2.1587858E0,4.0800877E0,1.8310575E1,1.9949325E0,2.466332E0,3.1381962E0,1.032907E1,1.2744027E1,1.2151212E0,1.0606174E1,3.1940303E0,4.2175584E0,4.7128098E1,1.5215133E1,1.3230221E0,1.2132021E0,2.3357986E1,3.1390713E1,1.2963606E0,1.0842403E1,9.06869E0,1.161502E0,3.3076196E0,1.9041423E0,1.3705998E1,1.2938118E1,3.3492203E1,2.0777528E0,1.3290024E0,1.9402001E0,4.800548E0,4.706803E0,8.906097E0,1.7248987E1,4.3181834E0,5.3623633E0,1.2021229E1,1.3192629E1,1.000222E0,1.427799E0,1.1217368E0,1.1318264E0,5.6175976E1,1.6983202E2,1.4217078E2,2.279397E2,3.826872E0,1.0478095E0,9.4959724E1,7.0605865E0,1.142722E0,4.5590525E0,1.0899264E1,1.3414497E0,1.3632805E0,1.0026879E0,1.5982038E1,1.0619475E1,9.681354E1,4.8466706E0,1.1121605E1,1.7955012E0,1.9509178E0,8.528173E0,1.0539081E0,2.6159573E0,2.6583185E0,1.2123176E0,1.1383033E0,2.8549507E1,6.851065E0,1.2460751E1,1.7858975E2,1.6607914E1,6.87781E0,5.8190727E0,1.6704936E0,8.468204E0,1.5833504E1,1.6599467E0,7.2943487E0,6.856985E0,1.032387E1,5.499154E0,3.8207881E0,1.05785965E2,3.4905112E0,1.011589E0,5.2372604E1,1.3050948E0,1.907435E1,1.1288756E0,1.1033068E0,1.2196418E0,8.491886E0,2.0139298E0,1.1259513E0,1.0328346E0,1.6996864E1,1.313711E0,1.463614E0,1.002718E0,1.6548669E0,1.4833292E0,6.461808E0,3.8672614E0,4.0202665E0,8.723761E0,1.0291216E0,9.577053E0,1.9970626E0,1.1969677E0,1.1530154E1,3.6849787E0,1.4646466E1,8.71152E0,3.0630617E0,2.832765E1,2.003779E0,7.0649114E0,2.0835924E0,1.2240273E0,4.9830947E0,8.722904E0,1.9826717E0,1.0955446E1,3.068603E1,2.8061752E0,1.0166992E0,1.0610535E0,3.1034598E0,1.6970882E0,1.9934876E0,2.7133155E0,4.6368785E0,4.269219E0,4.3505726E0,1.2898414E1,2.568093E0,1.7500905E0,4.262799E0,1.0995647E0,8.362854E0,3.658375E0,7.3713865E0,5.8212423E0,4.4931305E1,1.1244671E1,8.8911125E1,8.092089E1,2.2346035E1,1.19824745E2,3.9359257E1,1.8858044E2,1.1186948E0,2.7081773E0,2.0895777E1,7.406395E1,1.9362471E0,5.1243396E0,2.9367888E0,1.6222634E0,3.486399E0,7.4128656E0,1.3762729E1,2.219309E0,8.980154E0,1.6393213E0,1.5443315E1,8.1370224E1,3.4052706E0,1.4414003E0,8.501003E0,2.620601E0,3.7797267E0,4.7484465E0,1.1296124E0,1.5287061E0,1.2405293E0,2.7308979E1,3.5353093E0,3.3157558E0,6.7909966E0,5.6697545E0,1.4343967E2,3.5150078E1,1.097105E1,5.6368628E0,2.1811604E0,3.637912E0,7.3422246E0,1.1259787E0,1.2551008E1,3.282495E0,3.9022577E0,3.3920908E0,2.7251935E0,4.1317916E0,8.672363E0,1.6515057E0,1.2344505E0,4.2647033E0,2.6062717E0,1.2145164E0,1.4417255E1,9.136871E1,4.9918232E1,2.4543705E0,7.2047358E0,1.2871503E0,1.0135385E0,1.0003915E0,1.15524435E1,5.44442E0,3.2870822E0,3.174726E0,1.7118375E0,2.155424E0,2.151123E0,1.8691435E0,1.0579522E0,7.665808E0,2.2732973E0,7.3037553E0,1.433521E0,1.0096633E1,1.9417692E0,1.7432094E0,1.2050839E1,2.5956273E0,6.2974467E0,2.4140737E0,1.7764946E0,1.286567E0,2.640844E1,1.9192111E0,3.423559E0,3.6413524E0,1.0717316E0,1.0118607E0,2.505778E0,2.4773166E0,6.31873E0,2.404174E0,3.9460251E0,7.009421E0,1.286593E0,2.9399437E1,1.7436752E0,1.0624999E0,1.609923E0,1.1033924E0,3.5321877E0,1.1046909E0,1.0678369E0,3.2013822E0,3.0334706E0,1.317102E0,9.629309E0,3.2691047E0,2.4491916E0,1.8136071E0,7.314474E0,1.0483799E0,1.7912505E0,1.8671246E0,3.4959671E0,3.8754196E0,3.8039486E0,2.0172937E0,4.2701733E1,2.229572E0,3.111149E0,8.133522E0,8.296327E1,5.947858E0,6.2828594E1,1.8092295E1,1.0268288E1,1.2077747E1,8.378176E1,3.604298E1,1.3185156E1,2.61741E1,1.8653148E2,2.048976E0,1.6945795E1,3.949981E0,1.5171245E1,5.8892704E1,3.2969396E0,1.8274E0,2.1335645E0,1.3528343E0,4.8854856E0,2.5273798E0,1.163842E1,2.1243076E0,4.3576784E0,4.622476E0,1.0755743E1,4.6875715E0,9.446611E0,7.192361E1,1.0326781E0,2.3725924E0,1.1569185E0,1.4636825E0,2.6160257E0,1.1637009E0,3.1290028E0,1.6194435E0,2.2814784E0,2.50275E1,1.4988973E0,2.036412E0,4.6118517E0,2.1791449E0,2.2487094E0,3.4210453E0,6.748966E1,7.5950005E1,3.1175394E1,3.9746823E0,6.654001E0,4.3170495E0,1.7382792E0,3.8985837E0,1.2136631E0,2.4242492E0,1.513913E0,5.828312E0,1.2101398E0,2.0723553E0,1.1236885E0,2.7785692E0,1.0004376E0,2.3916533E0,1.6800889E0,2.4517026E0,2.8463922E0,5.8259716E0,3.201366E0,1.0633376E0,1.3620822E0,1.2441895E0,8.548056E0,5.8691998E0,1.3138048E1,7.823066E1,2.927239E1,2.0645842E1,1.242861E0,1.2115095E0,3.425144E0,3.779592E0,7.199374E0,4.3530693E0,1.1024113E0,2.1846707E0,1.2541132E0,1.9206128E0,1.0295551E0,1.2437421E0],"tree_param":{"num_deleted":"0","num_feature":"20","num_nodes":"517","size_leaf_vector":"1"}},{"base_weights":[-7.901629E-2,-7.287059E-1,5.9535187E-2,-1.1028593E0,-4.6397856E-1,1.5177487E-1,-5.2294433E-1,-3.3280128E-1,-1.030729E-1,-6.728969E-1,-2.965431E-1,7.266281E-2,6.4808446E-1,-7.556855E-1,-2.5675786E-1,-9.442778E-1,-5.1854587E-1,-7.283676E-1,-2.0765108E-1,-4.7988676E-2,3.471412E-1,5.009645E-1,1.2715827E0,-7.864355E-1,5.137515E-1,-3.7420984E-2,-7.8420323E-1,-9.658001E-1,-1.04021356E-1,4.330847E-1,-5.98832E-1,3.6619318E-1,-9.768998E-1,-1.0799768E-1,-7.2003514E-1,-1.4821404E-3,-7.8202814E-1,2.2653063E-1,5.702889E-1,1.941754E-1,6.6641957E-1,1.3147337E0,6.1740154E-1,-6.1232346E-1,-9.7083E-1,-4.042868E-2,2.975811E-1,-1.7839994E-1,7.548181E-1,1.4897738E-1,-8.8374734E-1,-2.9391566E-1,-8.39705E-2,-3.192367E-1,3.7245938E-1,-8.642632E-1,-3.5073584E-1,-1.372645E-1,3.4731925E-1,2.9174853E-2,-3.4411934E-1,-3.257564E-2,-7.233874E-1,-9.915221E-1,2.7750826E-2,-5.752235E-2,4.419554E-1,-9.6884423E-1,-3.5307282E-1,1.9556165E-2,3.5214996E-1,-2.736569E-1,5.925851E-1,-5.832953E-1,3.1468597E-1,4.9274635E-1,9.1974974E-1,5.4278964E-1,1.3513271E0,-5.348873E-2,2.8719884E-1,-7.938001E-1,-2.1166702E-1,-9.974816E-1,-3.9557885E-2,-4.0857166E-1,2.4226137E-1,-1.3939956E-1,9.195188E-1,-9.273213E-1,1.1613305E-2,-2.0633033E-1,7.753844E-2,-9.68115E-1,-1.5197378E-1,1.1554835E-1,-6.2932456E-1,2.0975725E-1,-1.9401796E-1,-8.2924694E-1,3.5724986E-2,-3.1208384E-1,-1.6191499E-1,-7.462847E-2,-3.1605065E-1,4.6892288E-1,-2.097699E-1,-2.5153497E-1,4.625777E-2,2.276E-1,7.220146E-1,-3.1506488E-1,-5.0628E-1,-1.2790911E-1,-2.863048E-1,2.944057E-1,-1.1379942E-1,-7.065226E-2,4.4325396E-1,8.811358E-1,5.1810163E-1,-8.475436E-1,1.663775E-1,-2.9334423E-1,3.8160366E-1,2.4290866E-1,8.039979E-1,1.1064408E0,3.5279888E-1,1.57186E-2,2.2339363E-1,4.1219825E-1,1.2532203E-1,-8.789763E-1,-2.7264577E-1,-7.47827E-1,-6.390115E-2,-1.0354478E0,-4.0106428E-1,-6.3283485E-1,2.2453074E-1,-6.344112E-1,4.0823123E-1,1.4036237E-1,1.1285214E0,-3.637711E-2,-9.54781E-1,-1.071676E0,-4.2316192E-1,1.2665488E-1,-5.565878E-1,6.627263E-1,-4.5024934E-1,-3.0685392E-1,-3.5374922E-1,-6.7728296E-2,-2.8341293E-1,-1.029871E-1,3.4928927E-1,1.0355251E-1,-1.6667084E-1,-8.686796E-2,3.0280888E-1,-3.8470775E-1,-8.944576E-2,-6.8962175E-1,8.2808495E-2,3.5125878E-1,-4.062467E-1,5.138527E-1,1.2001907E0,1.0110421E-1,-7.015949E-1,-3.3355623E-1,2.271458E-1,-1.3501929E-1,9.0687585E-1,-1.699398E-1,3.01362E-1,-5.739381E-1,7.269865E-2,4.856871E-1,-2.5664836E-1,4.4306242E-1,5.3235805E-1,4.215329E-1,9.0640837E-1,-3.2641345E-1,-4.392126E-2,4.632493E-1,-7.1420586E-1,1.0416557E-1,1.196764E0,1.0497137E0,3.7780592E-1,2.8002822E-1,1.3038418E0,-1.4586289E-1,7.1413946E-1,-9.2145103E-1,4.373335E-2,-7.4318856E-1,4.5985392E-1,-5.3404987E-2,-2.6362133E-1,-3.6404446E-1,2.78808E-1,-3.1599385E-1,-7.756971E-2,-2.4709205E-1,9.0730876E-2,-8.620493E-1,-3.759887E-1,-6.9168985E-1,6.1628073E-1,3.3517383E-2,-2.7295718E-1,1.0135146E0,6.1022513E-2,1.8244152E-1,-9.25952E-2,1.0053104E-1,3.5851836E-1,-9.825085E-1,-4.606531E-2,-4.8585057E-2,-3.3448857E-1,-2.5634396E-1,1.1026045E-1,-2.0413004E-1,-4.4619113E-2,-2.0631303E-1,1.1409118E0,9.953509E-2,-7.791108E-1,1.7590198E-1,-5.000054E-1,-2.6419166E-1,2.7812907E-1,1.692372E-1,3.629511E-1,-2.1067265E-1,-6.488383E-1,-7.9048264E-1,-2.0055853E-2,-1.8370757E-1,-8.810167E-1,-9.5304227E-1,1.00405216E-1,-1.792541E-1,4.7989E-1,-3.020818E-1,2.3890218E-1,7.7116185E-1,1.5738255E-1,7.2469085E-4,1.3640622E0,-2.6340473E-1,-2.876817E-1,-5.511348E-1,1.8764329E-1,8.964317E-2,-3.233622E-1,3.6427584E-1,4.1918752E-1,-6.62522E-3,-4.4334137E-1,5.228369E-2,-8.456939E-1,4.1289738E-1,-3.63734E-1,4.2020428E-1,1.1109465E0,-7.662188E-1,3.4852266E-1,7.5219905E-1,-3.8447922E-1,5.5282456E-1,-4.243717E-2,1.0393904E0,1.7083143E-1,2.1241586E-1,7.252669E-1,-5.314563E-2,-2.54865E-1,3.9146626E-1,-6.789866E-1,4.2602727E-1,1.1966996E-1,4.1503772E-1,3.50097E-1,-1.0078898E-1,8.7712455E-1,-1.6891931E-1,3.088162E-1,1.3597374E0,2.7353683E-2,1.4115937E-1,-2.062706E-1,3.478356E-1,-1.2617484E-2,-4.435887E-1,-3.2182834E-1,-2.6764512E-1,-2.4770338E-2,-9.219457E-2,3.4229773E-1,1.1345022E-1,-5.5278635E-1,4.983836E-1,-1.8958662E-1,-9.3546367E-1,-7.011186E-2,-6.403744E-1,3.484273E-1,-2.517919E-1,-3.747654E-2,-2.1218166E-1,9.3040586E-1,3.6317262E-1,4.014865E-1,-3.49484E-1,5.2021486E-1,-3.105706E-1,-3.2889944E-1,4.9275392E-1,-2.9327499E-2,-2.6504007E-1,-5.7099797E-2,1.7705457E-1,-9.434484E-2,2.1989206E-2,-1.9747025E-1,2.1628315E-2,-1.416959E-1,-4.1927986E-2,2.5937945E-1,2.2797783E-1,-6.4046465E-2,-4.3192096E-2,-3.12885E-1,-1.3632701E-1,-2.4125423E-1,-3.0245888E-1,-8.9499826E-4,1.3468274E-1,-3.674225E-2,-1.5536001E-1,1.4970027E-1,-2.8477913E-1,-8.156677E-2,-3.1428665E-1,-9.323008E-2,1.2327865E-2,1.0463169E-1,3.721248E-2,-2.3420909E-1,4.1666856E-1,1.0338569E-1,-1.7297481E-1,2.3949414E-1,3.0845286E-2,3.6598963E-1,-1.0460652E-1,2.4462153E-1,1.1110661E-1,4.9821177E-1,-1.941667E-1,5.3302653E-2,9.653572E-2,-2.2949483E-1,2.4643324E-1,-1.014544E-1,3.1939018E-1,-1.032877E-1,-1.437796E-1,6.234787E-2,8.371605E-2,-2.0040944E-1,-2.8799325E-1,-7.42205E-2,-8.611701E-2,2.0617875E-1,-2.320039E-1,1.1599096E-1,-1.2866634E-1,1.400794E-1,3.8245657E-1,-3.7603308E-2,-4.1900694E-2,-3.3070886E-1,-1.1023319E-1,2.8300175E-1,-2.3671423E-1,9.8715805E-2,2.3690818E-2,2.0266207E-1,-3.016814E-1,1.3765676E-1,2.267688E-1,4.408662E-1,2.3260526E-1,-1.8597716E-1,2.0838827E-1,-2.2934603E-2,2.721263E-1,-4.592906E-2,-5.3599153E-2,1.8849428E-1,-2.8574756E-1,7.00253E-2,2.1250379E-1,-3.3338174E-2,1.709075E-1,-1.7364053E-1,3.498669E-2,3.151683E-1,1.250234E-1,-2.3052381E-1,4.3803892E-1,2.013804E-1,-1.5033069E-1,2.8142416E-1,2.3491274E-1,-2.1900259E-1,-2.7801678E-1,3.09758E-2,-2.902103E-1,-2.9780451E-2,-1.5901947E-2,2.6104444E-1,-4.0887922E-2,-2.967901E-1,-2.2303289E-1,2.5039274E-2,3.5121465E-1,-5.360226E-2,6.603943E-2,3.5201746E-1,2.6214904E-1,-1.2683702E-1,-1.6589296E-1,1.557687E-1,-2.629785E-2,2.3946856E-1,-2.0060664E-1,4.4780485E-2],"categories":[],"categories_nodes":[],"categories_segments":[],"categories_sizes":[],"default_left":[0,0,1,0,0,0,0,0,0,1,0,0,0,0,0,0,0,1,1,0,0,0,0,0,0,0,0,0,0,0,1,0,0,0,1,1,0,0,0,0,1,0,0,0,1,0,0,0,0,0,0,0,0,0,0,0,0,0,0,0,0,0,0,0,0,0,0,1,0,0,0,0,1,0,0,0,0,0,1,0,0,0,0,0,0,0,0,0,0,0,0,0,0,0,0,0,0,0,0,0,0,0,0,0,0,0,0,0,0,0,0,0,0,1,0,0,0,0,0,0,0,0,0,0,0,0,0,0,0,0,0,0,0,0,0,0,1,0,1,1,0,0,0,0,1,0,0,0,0,0,0,0,0,0,0,0,0,0,0,0,0,0,0,0,0,0,0,0,0,0,0,0,0,0,0,0,0,0,0,0,0,0,0,0,0,0,1,0,0,0,0,0,0,0,0,0,0,0,0,0,0,1,0,0,0,0,0,0,0,0,0,0,0,0,1,0,0,0,0,0,0,0,0,0,0,0,0,0,0,0,0,0,0,0,0,0,0,0,0,0,0,0,0,0,0,0,1,0,0,0,1,0,0,0,0,0,0,0,1,0,0,0,0,0,0,0,0,0,0,0,0,0,1,1,0,0,0,0,0,1,0,0,0,0,0,0,0,0,0,0,0,0,0,0,0,0,0,0,0,0,0,0,0,0,0,0,0,0,0,0,0,0,0,0,0,0,0,0,0,0,0,0,0,0,0,0,0,0,0,0,0,0,0,0,0,0,0,0,0,0,0,0,0,0,0,0,0,0,0,0,0,0,0,0,0,0,0,0,0,0,0,0,0,0,0,0,0,0,0,0,0,0,0,0,0,0,0,0,0,0,0,0,0,0,0,0,0,0,0,0,0,0,0,0,0,0,0,0,0,0,0,0,0,0,0,0,0,0,0,0,0,0,0,0,0,0,0,0,0,0,0,0,0,0,0,0,0,0,0,0,0,0,0,0,0,0,0,0,0,0,0,0,0,0,0,0,0],"id":3,"left_children":[1,3,5,7,9,11,13,-1,-1,15,17,19,21,23,25,27,29,31,33,35,37,39,41,43,45,47,49,51,-1,53,55,57,59,61,63,65,67,69,71,73,75,77,79,81,83,-1,-1,85,87,-1,89,-1,-1,91,-1,93,95,-1,-1,97,-1,99,101,103,105,107,109,111,113,115,117,-1,119,121,123,125,127,129,131,-1,-1,133,135,137,-1,139,141,-1,143,145,-1,-1,-1,147,149,151,153,-1,-1,155,157,-1,159,-1,-1,161,-1,163,165,167,169,-1,171,173,-1,175,177,179,181,183,185,187,-1,-1,189,191,193,195,197,-1,-1,-1,-1,199,201,203,205,207,209,211,213,215,217,219,221,-1,223,225,227,-1,229,231,233,-1,235,-1,-1,237,239,-1,-1,-1,-1,241,243,245,247,249,251,253,255,-1,257,259,-1,261,263,265,-1,267,269,271,273,-1,275,277,279,-1,-1,281,283,285,287,289,291,293,295,297,299,301,-1,303,305,-1,-1,307,309,-1,-1,-1,-1,311,313,315,317,-1,-1,319,321,-1,-1,-1,-1,323,-1,-1,-1,-1,-1,-1,-1,-1,325,-1,327,329,331,333,335,337,-1,339,341,343,345,347,349,351,353,355,357,-1,359,361,363,-1,365,-1,367,369,-1,371,-1,373,-1,375,377,-1,379,381,383,385,387,389,-1,391,393,395,397,399,401,403,405,-1,-1,407,409,-1,-1,411,-1,413,415,417,-1,419,-1,421,-1,-1,423,425,-1,-1,-1,-1,-1,-1,427,429,-1,431,-1,433,435,-1,-1,-1,