{"learner":{"attributes":{"scikit_learn":"{\"_estimator_type\": \"classifier\"}"},"feature_names":["monthly_income","collateral_value","loan_amount","collateral_debt","verified_restriction","dishonored_checks","expired_debts","banking_debts","commercial_debts","protests","informed_restriction","monthly_payment","auto_brand","auto_model","auto_year","form_completed","channel","landing_page","landing_page_product","utm_term"],"feature_types":["float","float","float","float","float","int","int","int","int","int","float","float","float","float","float","float","float","float","float","float"],"gradient_booster":{"model":{"gbtree_model_param":{"num_parallel_tree":"1","num_trees":"102"},"iteration_indptr":[0,1,2,3,4,5,6,7,8,9,10,11,12,13,14,15,16,17,18,19,20,21,22,23,24,25,26,27,28,29,30,31,32,33,34,35,36,37,38,39,40,41,42,43,44,45,46,47,48,49,50,51,52,53,54,55,56,57,58,59,60,61,62,63,64,65,66,67,68,69,70,71,72,73,74,75,76,77,78,79,80,81,82,83,84,85,86,87,88,89,90,91,92,93,94,95,96,97,98,99,100,101,102],"tree_info":[0,0,0,0,0,0,0,0,0,0,0,0,0,0,0,0,0,0,0,0,0,0,0,0,0,0,0,0,0,0,0,0,0,0,0,0,0,0,0,0,0,0,0,0,0,0,0,0,0,0,0,0,0,0,0,0,0,0,0,0,0,0,0,0,0,0,0,0,0,0,0,0,0,0,0,0,0,0,0,0,0,0,0,0,0,0,0,0,0,0,0,0,0,0,0,0,0,0,0,0,0,0],"trees":[{"base_weights":[-1.3759798E-1,-4.884421E-1,9.849231E-1,-1.1041574E0,-1.8706952E-1,1.3228636E0,-7.303339E-1,-1.2991211E0,-7.563774E-1,9.7844675E-2,-1.0238516E0,7.624103E-1,2.4105465E0,-1.9258523E-1,-1.1057084E0,-3.971021E-1,-1.0488062E0,-9.509965E-1,-1.3597369E-1,-2.2679834E-1,9.6281534E-1,-8.455193E-1,-1.2129111E0,4.825532E-1,2.7901804E0,2.6905925E0,-2.788153E-1,-7.830554E-1,1.2269831E0,-1.1838014E0,1.4974259E-1,-1.1602191E0,1.9916013E-1,-1.0989577E0,-6.7547566E-1,2.0105147E-1,-1.0546818E0,-8.994794E-2,-1.120987E0,1.17839E0,-6.454115E-1,-9.4372106E-1,1.9093758E-1,-6.845547E-2,-1.2199903E0,6.4811677E-1,-9.495722E-1,1.8183498E0,3.6126347E0,2.3315184E0,9.554351E-1,5.52267E-1,-8.2668924E-1,-9.7781867E-1,2.8752938E-1,-3.7394446E-1,2.1184723E0,-3.6682224E-1,-4.5036027E-1,-2.254201E-1,2.9575512E-1,-3.5577402E-1,-9.512629E-2,-3.4185445E-1,-1.736238E-1,-2.6600668E-1,-8.745223E-2,1.3404323E-1,-2.8600994E-1,-3.583645E-1,-8.9630514E-2,-6.2268984E-2,2.1616007E-1,-3.788593E-1,-2.3238797E-1,2.0808162E-1,4.7584474E-1,1.8698797E-2,-3.176951E-1,-3.1564108E-1,-1.751046E-1,-1.5423949E-1,4.4839808E-1,-3.6811343E-1,-9.512629E-2,6.432186E-2,3.3511564E-1,-3.0928087E-1,-9.993463E-2,1.17834486E-1,7.509276E-1,2.150423E-1,1.1336437E0,4.3376142E-1,7.753475E-1,-3.0957326E-2,4.2349035E-1,-3.202546E-1,-1.1218334E-1,-3.169623E-1,3.5167515E-2,-2.254201E-1,2.815604E-1,1.23294696E-1,-2.6769817E-1,8.699501E-2,7.988108E-1,7.329341E-2,-2.4950035E-1],"categories":[],"categories_nodes":[],"categories_segments":[],"categories_sizes":[],"default_left":[0,0,1,0,1,0,0,0,0,0,0,0,0,0,0,0,1,0,1,0,0,1,0,0,0,0,0,1,0,0,0,0,0,0,0,0,0,0,0,0,0,0,0,0,0,1,0,0,0,0,0,0,1,0,0,0,0,0,0,0,0,0,0,0,0,0,0,0,0,0,0,0,0,0,0,0,0,0,0,0,0,0,0,0,0,0,0,0,0,0,0,0,0,0,0,0,0,0,0,0,0,0,0,0,0,0,0,0,0],"id":0,"left_children":[1,3,5,7,9,11,13,15,17,19,21,23,25,27,29,-1,31,33,35,37,39,41,43,45,47,49,51,53,55,57,59,61,-1,63,65,67,69,71,73,75,77,79,81,-1,83,85,87,89,91,93,-1,95,97,99,101,103,105,-1,107,-1,-1,-1,-1,-1,-1,-1,-1,-1,-1,-1,-1,-1,-1,-1,-1,-1,-1,-1,-1,-1,-1,-1,-1,-1,-1,-1,-1,-1,-1,-1,-1,-1,-1,-1,-1,-1,-1,-1,-1,-1,-1,-1,-1,-1,-1,-1,-1,-1,-1],"loss_changes":[7.8878E2,2.8289383E2,2.774421E2,3.2997986E1,2.4459088E2,2.4127948E2,1.5763916E1,5.767212E-1,2.1896294E1,2.152975E2,7.759613E0,1.4884492E2,1.0254248E2,2.9249043E1,4.726513E0,0E0,7.1388626E0,4.911644E0,1.4060582E1,6.814753E1,7.329292E1,1.4163933E1,5.872803E-1,5.6044918E1,1.8918274E1,1.4312988E1,6.673037E0,5.378152E0,1.5497437E1,7.0012665E-1,3.4569478E0,3.107376E-1,0E0,1.21064E0,3.8818626E0,9.947875E0,9.2919064E-1,4.636138E1,2.655182E0,3.543756E1,7.4933596E0,4.2911453E0,1.2463069E1,0E0,3.9474487E-1,4.249974E1,8.919983E-1,1.5250019E1,5.1148987E0,1.29956665E1,0E0,3.5387988E0,5.4163647E-1,1.926342E0,3.7726772E0,2.2121208E0,5.96299E0,0E0,1.2073717E0,0E0,0E0,0E0,0E0,0E0,0E0,0E0,0E0,0E0,0E0,0E0,0E0,0E0,0E0,0E0,0E0,0E0,0E0,0E0,0E0,0E0,0E0,0E0,0E0,0E0,0E0,0E0,0E0,0E0,0E0,0E0,0E0,0E0,0E0,0E0,0E0,0E0,0E0,0E0,0E0,0E0,0E0,0E0,0E0,0E0,0E0,0E0,0E0,0E0,0E0],"parents":[2147483647,0,0,1,1,2,2,3,3,4,4,5,5,6,6,7,7,8,8,9,9,10,10,11,11,12,12,13,13,14,14,16,16,17,17,18,18,19,19,20,20,21,21,22,22,23,23,24,24,25,25,26,26,27,27,28,28,29,29,30,30,31,31,33,33,34,34,35,35,36,36,37,37,38,38,39,39,40,40,41,41,42,42,44,44,45,45,46,46,47,47,48,48,49,49,51,51,52,52,53,53,54,54,55,55,56,56,58,58],"right_children":[2,4,6,8,10,12,14,16,18,20,22,24,26,28,30,-1,32,34,36,38,40,42,44,46,48,50,52,54,56,58,60,62,-1,64,66,68,70,72,74,76,78,80,82,-1,84,86,88,90,92,94,-1,96,98,100,102,104,106,-1,108,-1,-1,-1,-1,-1,-1,-1,-1,-1,-1,-1,-1,-1,-1,-1,-1,-1,-1,-1,-1,-1,-1,-1,-1,-1,-1,-1,-1,-1,-1,-1,-1,-1,-1,-1,-1,-1,-1,-1,-1,-1,-1,-1,-1,-1,-1,-1,-1,-1,-1],"split_conditions":[2.9545453E-1,1.2820514E-1,9.2115E2,5.882353E-2,2E0,1E0,4.63E3,3.0303031E-2,1E0,1E0,4.1E3,5.882353E-1,1E0,1E0,5.882353E-1,-3.971021E-1,3.1684983E-1,5.8333E2,7.54E2,1E0,1E0,1E3,7.115E3,1E0,7.5E-1,4.6153846E-1,1E0,1.0402E3,1.5384616E-1,1.2E4,4.1E4,2.016E3,1.9916013E-1,3E-1,2.012E3,1E0,2.43E4,3E-1,4.5E3,1.2E4,1E0,1E0,1E0,-6.845547E-2,4.32E4,6E2,5E-1,5.5913E2,2.1226E2,1.5384616E-1,9.554351E-1,7.2E2,2.3863636E-1,5.882353E-1,3.4042552E-1,3.243243E-1,4.391E2,-3.6682224E-1,4.2119977E-1,-2.254201E-1,2.9575512E-1,-3.5577402E-1,-9.512629E-2,-3.4185445E-1,-1.736238E-1,-2.6600668E-1,-8.745223E-2,1.3404323E-1,-2.8600994E-1,-3.583645E-1,-8.9630514E-2,-6.2268984E-2,2.1616007E-1,-3.788593E-1,-2.3238797E-1,2.0808162E-1,4.7584474E-1,1.8698797E-2,-3.176951E-1,-3.1564108E-1,-1.751046E-1,-1.5423949E-1,4.4839808E-1,-3.6811343E-1,-9.512629E-2,6.432186E-2,3.3511564E-1,-3.0928087E-1,-9.993463E-2,1.17834486E-1,7.509276E-1,2.150423E-1,1.1336437E0,4.3376142E-1,7.753475E-1,-3.0957326E-2,4.2349035E-1,-3.202546E-1,-1.1218334E-1,-3.169623E-1,3.5167515E-2,-2.254201E-1,2.815604E-1,1.23294696E-1,-2.6769817E-1,8.699501E-2,7.988108E-1,7.329341E-2,-2.4950035E-1],"split_indices":[13,13,3,13,3,15,3,13,15,15,3,13,4,15,13,0,17,11,3,4,4,11,1,4,13,13,10,11,17,0,1,14,0,17,14,4,2,17,0,2,10,15,15,0,2,11,13,11,11,17,0,11,17,13,13,13,11,0,19,0,0,0,0,0,0,0,0,0,0,0,0,0,0,0,0,0,0,0,0,0,0,0,0,0,0,0,0,0,0,0,0,0,0,0,0,0,0,0,0,0,0,0,0,0,0,0,0,0,0],"split_type":[0,0,0,0,0,0,0,0,0,0,0,0,0,0,0,0,0,0,0,0,0,0,0,0,0,0,0,0,0,0,0,0,0,0,0,0,0,0,0,0,0,0,0,0,0,0,0,0,0,0,0,0,0,0,0,0,0,0,0,0,0,0,0,0,0,0,0,0,0,0,0,0,0,0,0,0,0,0,0,0,0,0,0,0,0,0,0,0,0,0,0,0,0,0,0,0,0,0,0,0,0,0,0,0,0,0,0,0,0],"sum_hessian":[2.0006228E3,1.5246562E3,4.759666E2,5.001557E2,1.0245005E3,3.978173E2,7.814933E1,3.187376E2,1.8141809E2,7.649331E2,2.595674E2,2.6366095E2,1.3415634E2,3.274829E1,4.540104E1,2.8636148E2,3.2376152E1,1.3769168E2,4.372641E1,5.5672095E2,2.0821214E2,1.3638919E2,1.2317823E2,2.3277336E2,3.0887592E1,1.215036E2,1.2652748E1,2.34448E1,9.303492E0,4.2796062E1,2.6049776E0,3.0701523E1,1.6746285E0,8.763889E1,5.0052784E1,3.256222E1,1.116419E1,4.8378156E2,7.293938E1,1.8383699E2,2.4375149E1,1.2466679E2,1.17224E1,1.116419E0,1.22061806E2,2.0914249E2,2.3630869E1,1.5629866E1,1.5257726E1,7.3683655E1,4.7819946E1,5.0238853E0,7.628863E0,1.9909472E1,3.5353267E0,3.5353267E0,5.7681646E0,4.0005013E1,2.7910476E0,1.3024888E0,1.3024888E0,2.9399033E1,1.3024888E0,8.01961E1,7.4427934E0,3.14458E1,1.8606983E1,2.7352264E1,5.209955E0,8.931352E0,2.232838E0,4.231228E2,6.0658764E1,4.9866714E1,2.3072659E1,8.5219986E1,9.861701E1,9.303492E0,1.5071656E1,9.43374E1,3.0329382E1,8.001002E0,3.7213967E0,1.2075932E2,1.3024888E0,1.0940906E2,9.973343E1,2.0281612E1,3.349257E0,5.582095E0,1.00477705E1,1.116419E0,1.4141307E1,1.7862703E1,5.582095E1,3.349257E0,1.6746285E0,4.0935364E0,3.5353267E0,1.8606983E1,1.3024888E0,1.3024888E0,2.232838E0,1.4885587E0,2.0467682E0,1.6746285E0,4.0935364E0,1.116419E0,1.6746285E0],"tree_param":{"num_deleted":"0","num_feature":"20","num_nodes":"109","size_leaf_vector":"1"}},{"base_weights":[-1.3062987E-1,-7.4682385E-1,2.3362392E-1,-1.1812295E0,-4.9812645E-1,4.54311E-1,-7.360699E-1,-3.6461106E-1,-9.1031146E-1,-6.9300884E-1,-5.447019E-3,5.664047E-1,-7.116986E-1,-8.673144E-1,5.9141297E-2,-1.0078347E0,1.2251395E-1,-8.6074305E-1,-3.6748636E-1,1.8844068E-1,-1.013593E0,3.0452913E-1,1.0665234E0,-2.4615343E-1,-1.0741001E0,-1.0328902E0,-4.930608E-1,7.044504E-1,-8.249456E-1,-1.1293292E0,-6.9538474E-1,-3.4270054E-1,-7.4745774E-1,-4.9234128E-1,4.4793496E-1,3.5620493E-1,-1.0090429E0,-1.0913033E0,-2.0189987E-2,1.5218905E-1,1.1531109E0,7.5358707E-1,1.3689046E0,-3.6754453E-1,4.242964E-1,-1.0914179E0,-4.7182936E-2,-1.0958631E0,-8.0915505E-1,1.22140944E-1,-8.0880314E-1,-4.256316E-1,1.3747092E0,-1.0449411E0,1.1086059E-1,-3.5087615E-1,-8.1614695E-2,1.00423776E-1,-2.503892E-1,-1.9178014E-1,-3.4235972E-1,-1.0501516E-1,-2.8934756E-1,-7.6799825E-2,3.6473763E-1,-3.0326724E-1,1.3338086E-1,-3.3730555E-1,-1.3272019E-1,-3.3872044E-1,-1.1649086E-1,-7.269076E-2,9.896075E-2,8.7197855E-2,4.1430256E-1,9.162694E-2,2.8797135E-1,2.6994047E-1,4.5699129E-1,-2.5408682E-1,1.4784767E-2,-3.3270395E-1,-5.5956956E-2,-5.3927075E-2,-3.3125183E-1,-2.6348063E-1,6.385009E-2,-1.9705316E-1,2.1296565E-1,-2.706582E-1,1.2656051E-1,-2.9198682E-1,3.870932E-2,9.5885314E-2,4.6680743E-1,-3.3468968E-1,-4.47487E-2,-2.0264807E-1,2.2398052E-1],"categories":[],"categories_nodes":[],"categories_segments":[],"categories_sizes":[],"default_left":[0,0,1,0,0,0,0,0,1,0,0,0,1,0,0,1,0,0,1,1,0,0,0,0,1,1,0,1,0,0,0,0,1,1,0,0,0,0,0,0,0,0,0,0,0,0,0,0,1,0,0,0,0,0,0,0,0,0,0,0,0,0,0,0,0,0,0,0,0,0,0,0,0,0,0,0,0,0,0,0,0,0,0,0,0,0,0,0,0,0,0,0,0,0,0,0,0,0,0],"id":1,"left_children":[1,3,5,7,9,11,13,-1,15,17,19,21,23,25,27,29,-1,31,33,35,37,39,41,43,45,47,49,51,53,55,57,-1,59,61,63,65,67,69,-1,71,73,75,77,79,-1,81,-1,83,85,87,89,91,93,95,97,-1,-1,-1,-1,-1,-1,-1,-1,-1,-1,-1,-1,-1,-1,-1,-1,-1,-1,-1,-1,-1,-1,-1,-1,-1,-1,-1,-1,-1,-1,-1,-1,-1,-1,-1,-1,-1,-1,-1,-1,-1,-1,-1,-1],"loss_changes":[4.346051E2,7.712384E1,2.60815E2,1.309082E0,4.4082893E1,1.3008112E2,2.3642601E1,0E0,4.6826324E0,1.7648178E1,2.5827293E1,1.1829431E2,1.4491184E1,1.1517578E1,1.9383926E1,3.9953613E-1,0E0,6.0489044E0,1.1788857E1,2.262705E1,1.4937611E0,7.685047E1,2.8384308E1,8.497659E0,6.0442734E-1,9.961853E-1,1.2033707E1,1.5424369E1,3.073576E0,4.0213203E-1,1.9061961E0,0E0,5.9670563E0,6.314514E0,8.74967E0,1.2287842E1,4.0958118E-1,8.270073E-2,0E0,3.556851E1,1.7393219E1,1.403791E1,9.991638E0,7.570692E0,0E0,5.5428696E-1,0E0,5.7392883E-1,2.5302124E0,1.0405101E1,5.062378E0,2.5731041E0,1.9004498E0,5.7625484E-1,2.3233535E0,0E0,0E0,0E0,0E0,0E0,0E0,0E0,0E0,0E0,0E0,0E0,0E0,0E0,0E0,0E0,0E0,0E0,0E0,0E0,0E0,0E0,0E0,0E0,0E0,0E0,0E0,0E0,0E0,0E0,0E0,0E0,0E0,0E0,0E0,0E0,0E0,0E0,0E0,0E0,0E0,0E0,0E0,0E0,0E0],"parents":[2147483647,0,0,1,1,2,2,3,3,4,4,5,5,6,6,8,8,9,9,10,10,11,11,12,12,13,13,14,14,15,15,17,17,18,18,19,19,20,20,21,21,22,22,23,23,24,24,25,25,26,26,27,27,28,28,29,29,30,30,32,32,33,33,34,34,35,35,36,36,37,37,39,39,40,40,41,41,42,42,43,43,45,45,47,47,48,48,49,49,50,50,51,51,52,52,53,53,54,54],"right_children":[2,4,6,8,10,12,14,-1,16,18,20,22,24,26,28,30,-1,32,34,36,38,40,42,44,46,48,50,52,54,56,58,-1,60,62,64,66,68,70,-1,72,74,76,78,80,-1,82,-1,84,86,88,90,92,94,96,98,-1,-1,-1,-1,-1,-1,-1,-1,-1,-1,-1,-1,-1,-1,-1,-1,-1,-1,-1,-1,-1,-1,-1,-1,-1,-1,-1,-1,-1,-1,-1,-1,-1,-1,-1,-1,-1,-1,-1,-1,-1,-1,-1,-1],"split_conditions":[1.875E-1,7.692308E-2,5.7E0,3.0303031E-2,1E0,1E0,4E-1,-3.6461106E-1,3.1684983E-1,2.5E-1,1E0,1E0,1E0,1E0,4.63E3,5.3333E2,1.2251395E-1,1.7151767E-1,1.0708E3,3.5E3,6.98E3,4.4444445E-1,2.8947368E-1,5.555556E-1,2.888889E-1,2.4936171E-1,2.6E3,2.2382672E-1,5.882353E-1,2.016E3,5.5267E2,-3.4270054E-1,9E2,2E0,1.4583333E-1,1.05E4,2.014E3,3.5399E4,-2.0189987E-2,1.5384616E-1,6.75E3,2.333604E-1,4.9395E2,3.772E3,4.242964E-1,2.015E3,-4.7182936E-2,8E0,1.22827E3,4.6589E2,1.1E4,2.011E3,2.465039E-1,1.83076E3,4.1E4,-3.5087615E-1,-8.1614695E-2,1.00423776E-1,-2.503892E-1,-1.9178014E-1,-3.4235972E-1,-1.0501516E-1,-2.8934756E-1,-7.6799825E-2,3.6473763E-1,-3.0326724E-1,1.3338086E-1,-3.3730555E-1,-1.3272019E-1,-3.3872044E-1,-1.1649086E-1,-7.269076E-2,9.896075E-2,8.7197855E-2,4.1430256E-1,9.162694E-2,2.8797135E-1,2.6994047E-1,4.5699129E-1,-2.5408682E-1,1.4784767E-2,-3.3270395E-1,-5.5956956E-2,-5.3927075E-2,-3.3125183E-1,-2.6348063E-1,6.385009E-2,-1.9705316E-1,2.1296565E-1,-2.706582E-1,1.2656051E-1,-2.9198682E-1,3.870932E-2,9.5885314E-2,4.6680743E-1,-3.3468968E-1,-4.47487E-2,-2.0264807E-1,2.2398052E-1],"split_indices":[13,13,3,13,15,4,13,0,18,17,4,15,10,15,3,11,0,16,11,3,0,13,13,13,16,16,3,17,13,14,11,0,3,3,13,1,14,1,0,17,2,17,11,0,0,14,0,3,11,11,0,14,16,11,1,0,0,0,0,0,0,0,0,0,0,0,0,0,0,0,0,0,0,0,0,0,0,0,0,0,0,0,0,0,0,0,0,0,0,0,0,0,0,0,0,0,0,0,0],"split_type":[0,0,0,0,0,0,0,0,0,0,0,0,0,0,0,0,0,0,0,0,0,0,0,0,0,0,0,0,0,0,0,0,0,0,0,0,0,0,0,0,0,0,0,0,0,0,0,0,0,0,0,0,0,0,0,0,0,0,0,0,0,0,0,0,0,0,0,0,0,0,0,0,0,0,0,0,0,0,0,0,0,0,0,0,0,0,0,0,0,0,0,0,0,0,0,0,0,0,0],"sum_hessian":[1.9345256E3,7.183205E2,1.2162051E3,2.6015384E2,4.5816663E2,9.911634E2,2.2504173E2,2.2794272E2,3.221114E1,3.2801263E2,1.30154E2,9.047044E2,8.6458984E1,1.9308383E2,3.1957901E1,3.0212517E1,1.998622E0,2.1538535E2,1.1262729E2,1.0984213E2,2.0311874E1,5.948395E2,3.0986493E2,3.8579082E1,4.78799E1,1.3264131E2,6.0442524E1,1.859113E1,1.3366773E1,1.9871254E1,1.0341263E1,5.9185307E1,1.5620004E2,9.801563E1,1.4611654E1,9.696073E1,1.2881402E1,1.862882E1,1.6830541E0,5.0530487E2,8.953459E1,1.539909E2,1.5587404E2,3.6676456E1,1.9026278E0,4.680537E1,1.0745344E0,1.00465965E2,3.2175346E1,2.0707867E1,3.9734657E1,7.0572715E0,1.1533857E1,1.0728115E1,2.638657E0,1.8631992E1,1.2392619E0,1.064223E0,9.27704E0,1.24589424E2,3.161061E1,7.665555E1,2.1360086E1,7.970912E0,6.6407423E0,5.2550097E0,9.170572E1,9.885513E0,2.995889E0,1.7103933E1,1.5248858E0,1.5680258E2,3.485023E2,1.918953E1,7.034506E1,4.9325687E1,1.04665215E2,4.029028E1,1.15583755E2,1.657774E1,2.0098715E1,4.5691357E1,1.1140139E0,1.1065359E0,9.935943E1,3.0268984E1,1.906362E0,8.854595E0,1.1853271E1,3.7180115E1,2.554543E0,3.1712906E0,3.8859806E0,2.096559E0,9.437298E0,9.715942E0,1.0121734E0,1.1516461E0,1.487011E0],"tree_param":{"num_deleted":"0","num_feature":"20","num_nodes":"99","size_leaf_vector":"1"}},{"base_weights":[-1.1424037E-1,-6.709547E-1,1.4456755E-1,-1.1131716E0,-4.3523595E-1,2.976931E-1,-6.225649E-1,-3.440412E-1,-8.135001E-1,-3.2779852E-1,-1.0660864E0,2.362322E-1,1.4033098E0,-3.620112E-1,-9.3370396E-1,-9.4035393E-1,1.2228299E-1,-5.1711655E-1,8.385216E-2,-1.0953106E0,-4.1899619E-1,3.1105196E-1,-6.310106E-1,9.598375E-1,1.6573921E0,-5.2094114E-1,7.1978146E-1,-9.7112614E-1,1.9086017E-1,-3.9088005E-1,-1.0070003E0,-9.1520756E-1,-3.4661466E-1,2.6004082E-1,-5.7812184E-1,-1.1112998E0,-1.0798719E-1,1.1529755E-1,-2.4587782E-1,1.3668606E-1,6.463562E-1,-2.6784325E-1,-9.374024E-1,-4.790505E-2,1.1650896E0,1.1060023E-1,5.0787836E-1,-7.491345E-1,-2.5804115E-3,-2.384098E-1,1.0733783E0,-1.059838E0,-7.6883984E-1,-1.4804025E-1,2.7521482E-1,3.5992887E-2,-2.1455042E-1,-3.2872483E-1,-1.619186E-1,-1.5739089E-1,-2.8741506E-1,-5.935292E-2,-2.7925032E-1,-1.8699181E-1,1.1350279E-1,-2.4228103E-1,4.3494226E-3,-3.388695E-1,-8.658491E-2,-5.6724958E-2,9.3867004E-2,7.496964E-2,2.3200904E-1,-2.1172665E-1,1.771141E-2,3.466652E-2,-2.932411E-1,1.1880645E-1,-2.4323483E-1,3.803753E-1,-5.5016875E-3,-2.5689027E-1,3.210319E-2,-1.12124756E-1,1.6321445E-1,1.1641977E-1,-1.7935444E-1,1.8042438E-1,4.8895013E-1,-1.4352904E-1,-3.3102316E-1,-3.02893E-1,-9.7582124E-2],"categories":[],"categories_nodes":[],"categories_segments":[],"categories_sizes":[],"default_left":[0,0,1,0,1,0,0,0,1,0,1,0,0,0,0,0,0,0,1,0,0,0,1,0,0,0,0,1,1,1,0,1,1,0,1,0,0,0,0,0,0,0,0,0,1,0,0,0,0,0,0,0,0,0,0,0,0,0,0,0,0,0,0,0,0,0,0,0,0,0,0,0,0,0,0,0,0,0,0,0,0,0,0,0,0,0,0,0,0,0,0,0,0],"id":2,"left_children":[1,3,5,7,9,11,13,-1,15,17,19,21,23,25,27,29,-1,31,33,35,37,39,41,43,45,47,49,51,53,55,57,59,61,63,65,67,-1,-1,-1,69,71,73,75,77,79,-1,-1,81,83,85,87,89,91,-1,-1,-1,-1,-1,-1,-1,-1,-1,-1,-1,-1,-1,-1,-1,-1,-1,-1,-1,-1,-1,-1,-1,-1,-1,-1,-1,-1,-1,-1,-1,-1,-1,-1,-1,-1,-1,-1,-1,-1],"loss_changes":[2.634198E2,5.9991394E1,1.4683444E2,1.0937195E0,2.5411499E1,7.043176E1,1.6528564E1,0E0,4.0593233E0,2.5466434E1,5.7863235E-1,6.4287E1,4.5657425E0,2.0123562E1,4.1491623E0,4.047184E-1,0E0,1.4859108E1,1.2236475E1,2.0993423E-1,1.5991216E0,5.311261E1,8.514547E0,4.6637955E0,9.036255E-1,1.1913208E1,5.3833103E0,8.239136E-1,2.3763525E0,7.472328E-1,1.8854713E-1,6.090927E-1,1.3561804E1,8.860615E0,3.0162926E0,4.2971802E-1,0E0,0E0,0E0,3.4495228E1,1.5468552E1,5.4022465E0,1.8987808E0,1.9230139E0,2.2803154E0,0E0,0E0,6.508442E0,6.653902E0,1.334825E0,1.9706411E0,1.0133438E0,3.034174E0,0E0,0E0,0E0,0E0,0E0,0E0,0E0,0E0,0E0,0E0,0E0,0E0,0E0,0E0,0E0,0E0,0E0,0E0,0E0,0E0,0E0,0E0,0E0,0E0,0E0,0E0,0E0,0E0,0E0,0E0,0E0,0E0,0E0,0E0,0E0,0E0,0E0,0E0,0E0,0E0],"parents":[2147483647,0,0,1,1,2,2,3,3,4,4,5,5,6,6,8,8,9,9,10,10,11,11,12,12,13,13,14,14,15,15,17,17,18,18,19,19,20,20,21,21,22,22,23,23,24,24,25,25,26,26,27,27,28,28,29,29,30,30,31,31,32,32,33,33,34,34,35,35,39,39,40,40,41,41,42,42,43,43,44,44,47,47,48,48,49,49,50,50,51,51,52,52],"right_children":[2,4,6,8,10,12,14,-1,16,18,20,22,24,26,28,30,-1,32,34,36,38,40,42,44,46,48,50,52,54,56,58,60,62,64,66,68,-1,-1,-1,70,72,74,76,78,80,-1,-1,82,84,86,88,90,92,-1,-1,-1,-1,-1,-1,-1,-1,-1,-1,-1,-1,-1,-1,-1,-1,-1,-1,-1,-1,-1,-1,-1,-1,-1,-1,-1,-1,-1,-1,-1,-1,-1,-1,-1,-1,-1,-1,-1,-1],"split_conditions":[1.8045112E-1,5.882353E-2,2E0,3.0303031E-2,1E0,6.666667E-1,4.5E3,-3.440412E-1,3.1684983E-1,1E0,3.1684983E-1,1E0,7.5E-1,4.1666666E-1,5.882353E-1,1.9117647E-1,1.2228299E-1,6E3,1.2E1,2.015E3,2E4,1E0,1E0,5.0004E3,1.8003E2,1E0,1.5384616E-1,2.333604E-1,2.607053E-1,2.333604E-1,1.26E4,1.6177E2,8E0,2.006E3,2.842863E-1,1.764706E-1,-1.0798719E-1,1.1529755E-1,-2.4587782E-1,3.116E3,4.3867E2,3.772E3,1.8181819E-1,3.2E4,3.1684983E-1,1.1060023E-1,5.0787836E-1,2.115E4,1.4E4,1.1E3,6.1E3,1.55E4,1E0,-1.4804025E-1,2.7521482E-1,3.5992887E-2,-2.1455042E-1,-3.2872483E-1,-1.619186E-1,-1.5739089E-1,-2.8741506E-1,-5.935292E-2,-2.7925032E-1,-1.8699181E-1,1.1350279E-1,-2.4228103E-1,4.3494226E-3,-3.388695E-1,-8.658491E-2,-5.6724958E-2,9.3867004E-2,7.496964E-2,2.3200904E-1,-2.1172665E-1,1.771141E-2,3.466652E-2,-2.932411E-1,1.1880645E-1,-2.4323483E-1,3.803753E-1,-5.5016875E-3,-2.5689027E-1,3.210319E-2,-1.12124756E-1,1.6321445E-1,1.1641977E-1,-1.7935444E-1,1.8042438E-1,4.8895013E-1,-1.4352904E-1,-3.3102316E-1,-3.02893E-1,-9.7582124E-2],"split_indices":[13,13,3,13,4,13,3,0,17,15,18,4,13,13,13,19,0,2,3,14,1,15,10,2,11,15,17,18,16,18,2,11,3,14,17,13,0,0,0,0,11,0,13,1,17,0,0,2,2,3,0,1,15,0,0,0,0,0,0,0,0,0,0,0,0,0,0,0,0,0,0,0,0,0,0,0,0,0,0,0,0,0,0,0,0,0,0,0,0,0,0,0,0],"split_type":[0,0,0,0,0,0,0,0,0,0,0,0,0,0,0,0,0,0,0,0,0,0,0,0,0,0,0,0,0,0,0,0,0,0,0,0,0,0,0,0,0,0,0,0,0,0,0,0,0,0,0,0,0,0,0,0,0,0,0,0,0,0,0,0,0,0,0,0,0,0,0,0,0,0,0,0,0,0,0,0,0,0,0,0,0,0,0,0,0,0,0,0,0],"sum_hessian":[1.8265886E3,5.791668E2,1.2474218E3,2.000825E2,3.7908432E2,1.0403682E3,2.0705359E2,1.7735129E2,2.273121E1,3.2521753E2,5.3866783E1,9.8672986E2,5.363836E1,1.1386466E2,9.318893E1,2.0800308E1,1.9309015E0,2.2259155E2,1.02625984E2,5.0876415E1,2.9903693E0,9.0895294E2,7.777689E1,2.127787E1,3.236049E1,9.973124E1,1.413342E1,9.031979E1,2.8691344E0,2.9925833E0,1.7807726E1,6.543798E1,1.5715356E2,8.15327E1,2.1093285E1,4.9293358E1,1.5830554E0,1.008543E0,1.9818262E0,5.989124E2,3.1004056E2,3.644852E1,4.1328377E1,3.730168E0,1.7547703E1,1.1735982E0,3.1186892E1,6.893806E1,3.0793182E1,3.89752E0,1.02359E1,5.9838535E1,3.0481253E1,1.6426591E0,1.2264754E0,1.4066677E0,1.5859156E0,1.3835038E1,3.9726872E0,7.777817E0,5.766016E1,1.26323845E2,3.0829727E1,9.125416E0,7.240729E1,1.4943796E1,6.149489E0,4.785779E1,1.4355692E0,2.1020613E2,3.8870627E2,7.594455E1,2.34096E2,1.508311E1,2.136541E1,1.4459441E0,3.988243E1,2.6620045E0,1.0681636E0,1.607919E1,1.4685137E0,6.1268684E1,7.6693754E0,1.8528397E1,1.2264787E1,1.3918968E0,2.5056233E0,6.6642976E0,3.5716028E0,5.007062E0,5.4831474E1,1.8928915E1,1.1552338E1],"tree_param":{"num_deleted":"0","num_feature":"20","num_nodes":"93","size_leaf_vector":"1"}},{"base_weights":[-9.6951865E-2,-6.5875024E-1,7.6215744E-2,-1.085003E0,-4.1858295E-1,1.883882E-1,-5.7546496E-1,-3.3067095E-1,-5.8480394E-1,-3.2232058E-1,-1.0282052E0,6.612837E-2,5.840753E-1,-7.5992453E-1,-2.2228026E-1,-2.7585825E-1,1.8503979E-1,-5.101602E-1,-4.366542E-3,-3.1540713E-1,-7.263089E-2,-9.0442353E-1,1.0683519E-1,4.8423657E-1,1.3704212E0,-8.569908E-1,-2.3806274E-1,2.8846964E-1,-5.9390163E-1,-6.6692674E-1,-1.6298091E-1,-8.4631985E-1,1.0703858E-1,3.0590305E-1,-1.0071503E0,1.5958704E-1,-5.581698E-1,2.637584E-1,7.788398E-1,9.215205E-2,4.2126408E-1,-9.4941056E-1,-5.528414E-1,3.6579278E-1,-5.657231E-1,4.872455E-1,-7.9373074E-1,-7.6601267E-1,2.2785637E-1,-2.4168436E-1,-6.612136E-2,-1.3955991E-2,-3.4210995E-1,1.5596808E-2,-3.0420104E-1,5.2055E-2,-2.751529E-1,-3.3471394E-1,-9.962679E-2,-4.3230012E-2,8.5319564E-2,-2.3771007E-1,1.6577272E-3,1.0140576E-1,-2.4207987E-1,7.021846E-3,2.8403795E-1,-2.928555E-1,-1.2499628E-1,-2.216579E-1,-7.0675625E-3,-5.6428775E-2,2.8214708E-1,-2.7608243E-1,-4.8091877E-2,-1.7287783E-1,2.0629339E-1,-4.1534897E-2,-2.8126043E-1,-2.4572386E-1,2.8873626E-2,3.0543584E-1,-8.1144854E-2],"categories":[],"categories_nodes":[],"categories_segments":[],"categories_sizes":[],"default_left":[0,0,1,1,1,0,0,0,0,0,0,0,0,0,0,0,0,0,0,0,0,0,0,0,0,1,0,0,0,0,0,0,1,0,0,0,0,0,0,0,0,1,1,1,1,0,0,0,0,0,0,0,0,0,0,0,0,0,0,0,0,0,0,0,0,0,0,0,0,0,0,0,0,0,0,0,0,0,0,0,0,0,0],"id":3,"left_children":[1,3,5,7,9,11,13,-1,15,17,19,21,23,25,27,-1,-1,29,31,-1,-1,33,35,37,39,41,43,45,47,49,51,53,55,-1,57,59,61,63,65,-1,-1,67,69,71,73,75,77,79,81,-1,-1,-1,-1,-1,-1,-1,-1,-1,-1,-1,-1,-1,-1,-1,-1,-1,-1,-1,-1,-1,-1,-1,-1,-1,-1,-1,-1,-1,-1,-1,-1,-1,-1],"loss_changes":[1.6761661E2,4.1101578E1,9.641805E1,6.110687E-1,1.5000683E1,5.4374073E1,1.2451721E1,0E0,3.3752036E0,1.3560825E1,3.855934E-1,3.4089405E1,2.0170113E1,6.221321E0,1.3054775E1,0E0,0E0,7.660534E0,8.095861E0,0E0,0E0,7.893532E0,2.9088543E1,1.5189926E1,6.2322617E-1,2.4706497E0,4.4169197E0,6.6810884E0,5.7776833E0,5.892475E0,5.1521835E0,1.5718999E0,5.3515596E0,0E0,2.0832825E0,2.9101046E1,8.054461E0,1.1171823E1,1.2785309E1,0E0,0E0,7.392349E-1,2.6634884E0,2.752643E0,1.8915739E0,5.796751E0,3.339002E-1,1.5881596E0,3.280728E0,0E0,0E0,0E0,0E0,0E0,0E0,0E0,0E0,0E0,0E0,0E0,0E0,0E0,0E0,0E0,0E0,0E0,0E0,0E0,0E0,0E0,0E0,0E0,0E0,0E0,0E0,0E0,0E0,0E0,0E0,0E0,0E0,0E0,0E0],"parents":[2147483647,0,0,1,1,2,2,3,3,4,4,5,5,6,6,8,8,9,9,10,10,11,11,12,12,13,13,14,14,17,17,18,18,21,21,22,22,23,23,24,24,25,25,26,26,27,27,28,28,29,29,30,30,31,31,32,32,34,34,35,35,36,36,37,37,38,38,41,41,42,42,43,43,44,44,45,45,46,46,47,47,48,48],"right_children":[2,4,6,8,10,12,14,-1,16,18,20,22,24,26,28,-1,-1,30,32,-1,-1,34,36,38,40,42,44,46,48,50,52,54,56,-1,58,60,62,64,66,-1,-1,68,70,72,74,76,78,80,82,-1,-1,-1,-1,-1,-1,-1,-1,-1,-1,-1,-1,-1,-1,-1,-1,-1,-1,-1,-1,-1,-1,-1,-1,-1,-1,-1,-1,-1,-1,-1,-1,-1,-1],"split_conditions":[1.6101696E-1,5E-2,8E0,3.1684983E-1,1E0,3.4375E-1,1E0,-3.3067095E-1,3.0303031E-2,2.5E-1,2.015E3,1.1E4,7.5E-1,4E-1,2.76E3,-2.7585825E-1,1.8503979E-1,1E0,1.7151767E-1,-3.1540713E-1,-7.263089E-2,2.004E3,1E0,2.5E-1,1.8003E2,2.4936171E-1,1.9E3,1E0,2.43E4,8.3333E2,2.015E3,3.4433E2,4.1E3,3.0590305E-1,5E3,1.5384616E-1,1E0,1E0,2.465039E-1,9.215205E-2,4.2126408E-1,3.1684983E-1,2.1428572E-1,2.842863E-1,2.465039E-1,2.9E2,2.0481928E-1,4.375E-1,6.958E3,-2.4168436E-1,-6.612136E-2,-1.3955991E-2,-3.4210995E-1,1.5596808E-2,-3.0420104E-1,5.2055E-2,-2.751529E-1,-3.3471394E-1,-9.962679E-2,-4.3230012E-2,8.5319564E-2,-2.3771007E-1,1.6577272E-3,1.0140576E-1,-2.4207987E-1,7.021846E-3,2.8403795E-1,-2.928555E-1,-1.2499628E-1,-2.216579E-1,-7.0675625E-3,-5.6428775E-2,2.8214708E-1,-2.7608243E-1,-4.8091877E-2,-1.7287783E-1,2.0629339E-1,-4.1534897E-2,-2.8126043E-1,-2.4572386E-1,2.8873626E-2,3.0543584E-1,-8.1144854E-2],"split_indices":[13,13,3,18,4,13,15,0,13,17,14,1,13,13,3,0,0,15,16,0,0,14,4,17,11,16,3,4,2,11,14,11,3,0,0,17,15,4,16,0,0,17,18,17,16,3,13,13,3,0,0,0,0,0,0,0,0,0,0,0,0,0,0,0,0,0,0,0,0,0,0,0,0,0,0,0,0,0,0,0,0,0,0],"split_type":[0,0,0,0,0,0,0,0,0,0,0,0,0,0,0,0,0,0,0,0,0,0,0,0,0,0,0,0,0,0,0,0,0,0,0,0,0,0,0,0,0,0,0,0,0,0,0,0,0,0,0,0,0,0,0,0,0,0,0,0,0,0,0,0,0,0,0,0,0,0,0,0,0,0,0,0,0,0,0,0,0,0,0],"sum_hessian":[1.7214231E3,4.0492914E2,1.3164939E3,1.4466235E2,2.602668E2,1.1237722E3,1.9272168E2,1.3868073E2,5.9816155E0,2.2609415E2,3.4172665E1,8.594008E2,2.6437146E2,1.2584458E2,6.68771E1,4.8619895E0,1.1196263E0,1.417482E2,8.434595E1,3.2867245E1,1.3054197E0,3.3739883E1,8.256609E2,2.360208E2,2.8350676E1,1.0556695E2,2.027763E1,2.8260338E1,3.8616764E1,9.701894E1,4.4729248E1,9.085414E0,7.526054E1,1.2576504E0,3.2482235E1,7.6568274E2,5.997815E1,1.3607724E2,9.994356E1,1.1841002E0,2.7166574E1,7.933765E1,2.6229303E1,7.0917125E0,1.3185916E1,2.4339487E1,3.9208517E0,3.1985481E1,6.6312814E0,7.3413E1,2.3605946E1,4.0903023E1,3.8262272E0,1.5376921E0,7.547722E0,7.145335E1,3.807192E0,2.7419838E1,5.0623956E0,2.2298024E2,5.427025E2,4.2086796E1,1.7891354E1,1.2789127E2,8.185961E0,1.8385798E1,8.155776E1,7.474871E1,4.588932E0,1.911523E1,7.114074E0,3.9537883E0,3.1379244E0,6.356758E0,6.8291583E0,3.5617824E0,2.0777704E1,1.0588206E0,2.862031E0,3.0178263E1,1.8072175E0,2.161138E0,4.4701433E0],"tree_param":{"num_deleted":"0","num_feature":"20","num_nodes":"83","size_leaf_vector":"1"}},{"base_weights":[-8.1827745E-2,-9.615188E-1,8.569849E-4,-3.2037356E-1,-6.354809E-1,7.163034E-2,-6.714704E-1,-6.973797E-1,2.1637508E-1,-9.362604E-2,2.895901E-1,-4.1935268E-1,-8.511374E-1,-7.5184166E-1,-8.842448E-2,-2.2431077E-1,1.7432624E-1,1.7158921E-1,6.3070315E-1,-6.109758E-1,2.3316556E-1,-8.8210183E-1,9.000856E-2,-8.8788384E-1,-4.547233E-1,1.2244925E-1,-2.2276768E-1,-5.8915097E-1,-9.2250206E-2,2.661113E-1,-5.0366765E-1,3.4703758E-2,4.4389707E-1,6.529332E-1,-2.2756732E-1,-7.539813E-1,-1.4714584E-1,5.0917983E-1,-4.1141808E-1,-9.286633E-1,-5.3767437E-1,-1.1586671E-1,1.843499E-1,-1.1718992E-1,-2.8387594E-1,1.2838602E-1,-2.018666E-1,-2.1150891E-1,-8.307144E-2,-1.08724665E-2,-2.409275E-1,6.1790843E-2,3.353682E-1,-1.9861716E-1,2.3658127E-1,-2.0627705E-2,1.8547536E-1,-1.3747437E-2,1.6496997E-1,2.6050967E-1,1.4715452E-1,-2.463224E-1,-6.336219E-2,-1.9858046E-1,1.8139377E-1,-8.524777E-2,3.283696E-1,-2.2587171E-1,8.818795E-2,-1.0116804E-1,-2.851095E-1,-2.5804213E-1,3.5489045E-2],"categories":[],"categories_nodes":[],"categories_segments":[],"categories_sizes":[],"default_left":[0,0,1,0,1,0,0,1,0,0,0,0,0,0,0,0,0,0,0,0,1,0,1,0,0,0,0,0,0,0,0,0,1,1,0,0,0,0,0,0,1,0,0,0,0,0,0,0,0,0,0,0,0,0,0,0,0,0,0,0,0,0,0,0,0,0,0,0,0,0,0,0,0],"id":4,"left_children":[1,3,5,-1,7,9,11,13,-1,15,17,19,21,23,25,27,29,31,33,35,37,39,41,43,45,-1,-1,47,49,51,53,55,57,59,-1,61,63,65,67,69,71,-1,-1,-1,-1,-1,-1,-1,-1,-1,-1,-1,-1,-1,-1,-1,-1,-1,-1,-1,-1,-1,-1,-1,-1,-1,-1,-1,-1,-1,-1,-1,-1],"loss_changes":[1.19038475E2,4.198822E0,7.127677E1,0E0,3.6156359E0,4.8843044E1,6.105446E0,1.1259766E0,0E0,2.7057991E1,2.3426369E1,7.8116274E0,2.4786835E0,9.2490005E-1,1.6300323E0,2.4955252E1,1.590997E1,1.6228466E1,5.124733E0,3.0522041E0,2.8154018E0,7.804642E-1,1.1190223E0,2.5429726E-1,2.6706948E0,0E0,0E0,4.789608E0,1.51918125E1,1.1241598E1,6.7799077E0,1.7617113E1,7.58856E0,4.755333E0,0E0,1.1451283E0,5.2303667E0,5.2813463E0,1.4123633E0,5.641327E-1,2.6143677E0,0E0,0E0,0E0,0E0,0E0,0E0,0E0,0E0,0E0,0E0,0E0,0E0,0E0,0E0,0E0,0E0,0E0,0E0,0E0,0E0,0E0,0E0,0E0,0E0,0E0,0E0,0E0,0E0,0E0,0E0,0E0,0E0],"parents":[2147483647,0,0,1,1,2,2,4,4,5,5,6,6,7,7,9,9,10,10,11,11,12,12,13,13,14,14,15,15,16,16,17,17,18,18,19,19,20,20,21,21,22,22,23,23,24,24,27,27,28,28,29,29,30,30,31,31,32,32,33,33,35,35,36,36,37,37,38,38,39,39,40,40],"right_children":[2,4,6,-1,8,10,12,14,-1,16,18,20,22,24,26,28,30,32,34,36,38,40,42,44,46,-1,-1,48,50,52,54,56,58,60,-1,62,64,66,68,70,72,-1,-1,-1,-1,-1,-1,-1,-1,-1,-1,-1,-1,-1,-1,-1,-1,-1,-1,-1,-1,-1,-1,-1,-1,-1,-1,-1,-1,-1,-1,-1,-1],"split_conditions":[9.090909E-2,3.0303031E-2,1.8E3,-3.2037356E-1,1.7766E3,2.6190478E-1,4.8E3,3.1684983E-1,2.1637508E-1,1E0,7.777E3,8.8427E2,5.882353E-1,6.3677E2,4.2119977E-1,2.465039E-1,1E0,1E0,1E0,2.9545453E-1,1.25E3,2.735562E4,2.607053E-1,1.9117647E-1,6.93E2,1.2244925E-1,-2.2276768E-1,2.3076923E-1,1E0,5E-1,2.886076E-1,3E-1,1.7151767E-1,3.226E4,-2.2756732E-1,5.602E3,1E0,5.2E3,2.5925925E-1,1.343E4,2.333604E-1,-1.1586671E-1,1.843499E-1,-1.1718992E-1,-2.8387594E-1,1.2838602E-1,-2.018666E-1,-2.1150891E-1,-8.307144E-2,-1.08724665E-2,-2.409275E-1,6.1790843E-2,3.353682E-1,-1.9861716E-1,2.3658127E-1,-2.0627705E-2,1.8547536E-1,-1.3747437E-2,1.6496997E-1,2.6050967E-1,1.4715452E-1,-2.463224E-1,-6.336219E-2,-1.9858046E-1,1.8139377E-1,-8.524777E-2,3.283696E-1,-2.2587171E-1,8.818795E-2,-1.0116804E-1,-2.851095E-1,-2.5804213E-1,3.5489045E-2],"split_indices":[13,13,3,0,11,13,3,18,0,15,0,11,13,11,19,16,10,15,7,13,11,2,16,19,11,0,0,13,4,17,16,17,16,1,0,0,15,0,12,1,18,0,0,0,0,0,0,0,0,0,0,0,0,0,0,0,0,0,0,0,0,0,0,0,0,0,0,0,0,0,0,0,0],"split_type":[0,0,0,0,0,0,0,0,0,0,0,0,0,0,0,0,0,0,0,0,0,0,0,0,0,0,0,0,0,0,0,0,0,0,0,0,0,0,0,0,0,0,0,0,0,0,0,0,0,0,0,0,0,0,0,0,0,0,0,0,0,0,0,0,0,0,0,0,0,0,0,0,0],"sum_hessian":[1.6355483E3,1.396087E2,1.4959396E3,1.0354451E2,3.6064198E1,1.3542738E3,1.416658E2,3.49554E1,1.1088011E0,7.705874E2,5.836864E2,6.033491E1,8.1330894E1,3.1870422E1,3.0849764E0,5.1807605E2,2.5251135E2,4.347848E2,1.4890161E2,4.6687885E1,1.364703E1,7.880102E1,2.5298774E0,2.049707E1,1.1373351E1,1.9674236E0,1.117553E0,1.3676842E2,3.8130765E2,2.2293806E2,2.9573277E1,2.9008862E2,1.4469617E2,1.4707819E2,1.8234309E0,3.5207382E1,1.14805E1,9.702451E0,3.9445791E0,6.792263E1,1.0878386E1,1.4641097E0,1.0657676E0,2.9613757E0,1.7535694E1,2.0634053E0,9.309946E0,9.883245E1,3.7935966E1,3.544322E2,2.6875454E1,2.0939511E2,1.3542957E1,2.6778772E1,2.7945056E0,2.4715102E2,4.2937622E1,2.5848143E1,1.1884802E2,6.135288E1,8.57253E1,3.0877783E1,4.3296013E0,6.8853106E0,4.595189E0,4.3379946E0,5.3644557E0,2.6124573E0,1.332122E0,2.9894662E0,6.493317E1,7.0844994E0,3.793886E0],"tree_param":{"num_deleted":"0","num_feature":"20","num_nodes":"73","size_leaf_vector":"1"}},{"base_weights":[-6.748558E-2,-9.0527964E-1,-3.6281748E-3,-3.1303388E-1,-5.3998923E-1,4.8994463E-2,-6.2831837E-1,-6.01993E-1,1.6989718E-1,8.0327906E-2,-6.971564E-1,-3.0818337E-1,-8.9295244E-1,-4.613242E-1,-9.4553035E-1,-8.263127E-2,2.3746662E-1,-8.8273644E-1,-3.734333E-1,-3.8302717E-1,9.4122076E-1,-9.553462E-1,-5.580826E-1,-6.459723E-1,-4.3524697E-2,-3.130312E-1,-5.1635664E-2,-1.4517963E-1,4.5356297E-1,1.70383E-1,5.8063024E-1,-2.7635983E-1,-9.859676E-1,-8.6538196E-1,3.9858767E-4,-5.87332E-1,3.617851E-2,3.463772E-1,7.8295186E-2,-9.6987134E-1,-1.0954015E-1,-7.443218E-1,1.0155255E-1,-2.2741812E-1,-3.3990726E-2,1.3200311E-1,-2.550999E-1,-2.2615393E-1,-3.123826E-2,5.285611E-2,2.2980034E-1,-1.8872999E-1,6.0383882E-2,1.9624324E-1,-5.9560232E-2,5.56865E-2,-2.2583622E-1,-3.0526194E-1,-3.3168353E-2,-1.6444819E-2,-2.8792244E-1,3.8795045E-1,-6.383937E-2,6.53695E-2,-1.9974789E-1,-8.7114796E-2,1.9903542E-1,-1.74965E-1,-3.0045706E-1,-9.0662755E-2,-2.8562734E-1],"categories":[],"categories_nodes":[],"categories_segments":[],"categories_sizes":[],"default_left":[0,0,0,0,1,1,1,0,0,1,0,0,0,0,0,0,0,0,0,0,0,0,0,0,0,0,0,0,0,0,0,0,0,0,0,1,1,0,0,0,0,0,0,0,0,0,0,0,0,0,0,0,0,0,0,0,0,0,0,0,0,0,0,0,0,0,0,0,0,0,0],"id":5,"left_children":[1,3,5,-1,7,9,11,13,-1,15,17,19,21,23,25,27,29,31,33,35,37,39,41,43,45,-1,-1,47,49,51,53,55,57,59,61,63,65,-1,-1,67,-1,69,-1,-1,-1,-1,-1,-1,-1,-1,-1,-1,-1,-1,-1,-1,-1,-1,-1,-1,-1,-1,-1,-1,-1,-1,-1,-1,-1,-1,-1],"loss_changes":[8.36165E1,5.023285E0,4.7805325E1,0E0,2.566883E0,3.1415552E1,9.296738E0,1.0721731E0,0E0,3.3005993E1,2.9241161E0,5.2845483E0,7.4819565E-1,1.8309412E0,4.3489838E-1,2.1299278E1,1.5003857E1,1.8365421E0,3.9484696E0,4.3371434E0,1.726098E-1,7.6999664E-2,2.261869E0,9.076028E-1,3.6738615E0,0E0,0E0,1.4107473E1,5.6178503E0,1.3717062E1,6.250889E0,1.5243562E0,6.724701E-1,6.564107E-1,3.912749E0,2.2901936E0,3.767981E0,0E0,0E0,9.20105E-3,0E0,6.56487E-1,0E0,0E0,0E0,0E0,0E0,0E0,0E0,0E0,0E0,0E0,0E0,0E0,0E0,0E0,0E0,0E0,0E0,0E0,0E0,0E0,0E0,0E0,0E0,0E0,0E0,0E0,0E0,0E0,0E0],"parents":[2147483647,0,0,1,1,2,2,4,4,5,5,6,6,7,7,9,9,10,10,11,11,12,12,13,13,14,14,15,15,16,16,17,17,18,18,19,19,20,20,21,21,22,22,23,23,24,24,27,27,28,28,29,29,30,30,31,31,32,32,33,33,34,34,35,35,36,36,39,39,41,41],"right_children":[2,4,6,-1,8,10,12,14,-1,16,18,20,22,24,26,28,30,32,34,36,38,40,42,44,46,-1,-1,48,50,52,54,56,58,60,62,64,66,-1,-1,68,-1,70,-1,-1,-1,-1,-1,-1,-1,-1,-1,-1,-1,-1,-1,-1,-1,-1,-1,-1,-1,-1,-1,-1,-1,-1,-1,-1,-1,-1,-1],"split_conditions":[9.090909E-2,3.0303031E-2,1E0,-3.1303388E-1,1.7766E3,4.5E3,1E0,2.607053E-1,1.6989718E-1,5.5324E2,1E0,5.555556E-1,3.243243E-1,2.842863E-1,3.5399E4,2.9090908E-1,4.117647E-1,1.8E4,5.3333E2,1E0,4.2477E4,2.888889E-1,2.013E3,2.2338665E-1,2.89E4,-3.130312E-1,-5.1635664E-2,1.05E4,2.3809524E-1,2.006E3,2.015E3,3.1E3,2.91667E3,1.2770012E-1,5.5267E2,1.6177E2,2.1059488E-1,3.463772E-1,7.8295186E-2,1.25E4,-1.0954015E-1,1.529E1,1.0155255E-1,-2.2741812E-1,-3.3990726E-2,1.3200311E-1,-2.550999E-1,-2.2615393E-1,-3.123826E-2,5.285611E-2,2.2980034E-1,-1.8872999E-1,6.0383882E-2,1.9624324E-1,-5.9560232E-2,5.56865E-2,-2.2583622E-1,-3.0526194E-1,-3.3168353E-2,-1.6444819E-2,-2.8792244E-1,3.8795045E-1,-6.383937E-2,6.53695E-2,-1.9974789E-1,-8.7114796E-2,1.9903542E-1,-1.74965E-1,-3.0045706E-1,-9.0662755E-2,-2.8562734E-1],"split_indices":[13,13,4,0,11,3,10,16,0,11,15,13,13,17,1,17,13,1,11,15,1,16,14,12,1,0,0,1,13,14,14,0,11,16,11,11,19,0,0,1,0,3,0,0,0,0,0,0,0,0,0,0,0,0,0,0,0,0,0,0,0,0,0,0,0,0,0,0,0,0,0],"split_type":[0,0,0,0,0,0,0,0,0,0,0,0,0,0,0,0,0,0,0,0,0,0,0,0,0,0,0,0,0,0,0,0,0,0,0,0,0,0,0,0,0,0,0,0,0,0,0,0,0,0,0,0,0,0,0,0,0,0,0,0,0,0,0,0,0,0,0,0,0,0,0],"sum_hessian":[1.5620054E3,1.0969226E2,1.4523131E3,7.824179E1,3.1450474E1,1.3403281E3,1.1198497E2,3.0213028E1,1.2374452E0,1.2871678E3,5.3160267E1,5.1657757E1,6.032721E1,2.3097939E1,7.1150894E0,6.321142E2,6.550537E2,3.2692112E1,2.0468157E1,4.9392406E1,2.26535E0,4.9290413E1,1.1036797E1,1.5639758E1,7.458182E0,6.005687E0,1.1094021E0,5.6673267E2,6.538151E1,5.4919116E2,1.05862564E2,5.29086E0,2.740125E1,8.270108E0,1.2198049E1,3.293842E1,1.6453989E1,1.1936134E0,1.0717367E0,4.7478706E1,1.8117077E0,9.279166E0,1.7576305E0,1.2571286E1,3.0684714E0,4.9476137E0,2.510568E0,3.4711594E1,5.3202106E2,3.546253E1,2.9918976E1,1.9713795E1,5.2947736E2,9.688222E1,8.980345E0,2.9960465E0,2.2948134E0,2.6290693E1,1.1105571E0,1.027199E0,7.2429094E0,1.0097235E0,1.1188325E1,2.7679121E0,3.0170507E1,1.1173883E1,5.2801046E0,5.0624895E0,4.2416218E1,3.7513025E0,5.5278635E0],"tree_param":{"num_deleted":"0","num_feature":"20","num_nodes":"71","size_leaf_vector":"1"}},{"base_weights":[-5.5342603E-2,-9.926584E-1,-1.3013097E-2,-3.080822E-1,-2.756376E-1,4.790547E-2,-4.199512E-1,-2.15569E-1,1.5610166E-1,-3.8570544E-1,6.400923E-2,-7.358336E-1,-2.0563047E-1,4.4150427E-2,1.1355504E0,-7.636613E-1,1.6267887E-1,-3.3143058E-1,3.7240446E-1,-2.9307795E-1,1.0518519E-1,6.9663696E-2,3.5173333E-1,-8.675454E-1,-5.444275E-1,-1.5889302E-1,-7.7154845E-1,1.6720533E-2,1.1685259E0,-1.291595E-1,-9.838693E-4,-2.0132141E-1,3.8852654E-2,-2.6702577E-1,-3.1302698E-2,-3.1659544E-1,-1.2751068E-1,-2.0245583E-1,4.599388E-3,-2.4879128E-1,-5.599683E-3,-9.2405945E-2,2.1357074E-1,1.2444616E-1,3.8497663E-1],"categories":[],"categories_nodes":[],"categories_segments":[],"categories_sizes":[],"default_left":[0,1,1,0,0,0,1,0,0,0,0,1,0,0,0,0,0,0,0,0,0,0,0,0,0,0,0,0,0,0,0,0,0,0,0,0,0,0,0,0,0,0,0,0,0],"id":6,"left_children":[1,3,5,-1,7,9,11,-1,-1,-1,13,15,17,19,21,23,-1,25,27,29,31,-1,-1,33,35,37,39,41,43,-1,-1,-1,-1,-1,-1,-1,-1,-1,-1,-1,-1,-1,-1,-1,-1],"loss_changes":[5.9865906E1,1.3195572E0,3.5841625E1,0E0,1.9046527E0,2.7093317E1,1.2593361E1,0E0,0E0,0E0,2.641494E1,3.1067772E0,8.379969E0,2.5184853E1,4.8059464E-1,1.2246399E0,0E0,6.998657E0,5.8604813E0,7.4695683E0,1.9639433E1,0E0,0E0,7.4782944E-1,1.1764083E0,6.1794834E0,1.121645E0,3.688498E0,2.0917892E-2,0E0,0E0,0E0,0E0,0E0,0E0,0E0,0E0,0E0,0E0,0E0,0E0,0E0,0E0,0E0,0E0],"parents":[2147483647,0,0,1,1,2,2,4,4,5,5,6,6,10,10,11,11,12,12,13,13,14,14,15,15,17,17,18,18,19,19,20,20,23,23,24,24,25,25,26,26,27,27,28,28],"right_children":[2,4,6,-1,8,10,12,-1,-1,-1,14,16,18,20,22,24,-1,26,28,30,32,-1,-1,34,36,38,40,42,44,-1,-1,-1,-1,-1,-1,-1,-1,-1,-1,-1,-1,-1,-1,-1,-1],"split_conditions":[5E-2,3.1684983E-1,2E0,-3.080822E-1,3.0303031E-2,5.5555556E-2,2.2382672E-1,-2.15569E-1,1.5610166E-1,-3.8570544E-1,7.1428573E-1,2.59151E3,3.4375E-1,1.7151767E-1,1.8003E2,1E0,1.6267887E-1,6.958E3,9.8E3,1E0,1.05E4,6.9663696E-2,3.5173333E-1,6E-1,6.44E2,3.81E2,2.015E3,1E0,2.222758E-1,-1.291595E-1,-9.838693E-4,-2.0132141E-1,3.8852654E-2,-2.6702577E-1,-3.1302698E-2,-3.1659544E-1,-1.2751068E-1,-2.0245583E-1,4.599388E-3,-2.4879128E-1,-5.599683E-3,-9.2405945E-2,2.1357074E-1,1.2444616E-1,3.8497663E-1],"split_indices":[13,18,3,0,13,17,17,0,0,0,13,11,13,16,11,15,0,3,0,15,1,0,0,13,3,11,14,15,12,0,0,0,0,0,0,0,0,0,0,0,0,0,0,0,0],"split_type":[0,0,0,0,0,0,0,0,0,0,0,0,0,0,0,0,0,0,0,0,0,0,0,0,0,0,0,0,0,0,0,0,0,0,0,0,0,0,0,0,0,0,0,0,0],"sum_hessian":[1.5081907E3,6.419736E1,1.4439933E3,6.0855503E1,3.3418505E0,1.2567416E3,1.8725172E2,2.2095752E0,1.1322755E0,1.405406E1,1.2426875E3,7.4708E1,1.1254372E2,1.2210981E3,2.1589327E1,7.350999E1,1.1980163E0,9.2778564E1,1.9765156E1,1.8655353E2,1.0345447E3,1.1333628E0,2.0455965E1,4.7869713E1,2.5640274E1,6.762776E1,2.5150805E1,1.4367276E1,5.3978786E0,1.2620695E2,6.034658E1,3.0624231E1,1.0039204E3,4.6335007E1,1.5347075E0,3.372005E0,2.2268269E1,1.6346033E1,5.1281727E1,2.3264605E1,1.8861992E0,1.0172376E1,4.1949005E0,1.3228921E0,4.074987E0],"tree_param":{"num_deleted":"0","num_feature":"20","num_nodes":"45","size_leaf_vector":"1"}},{"base_weights":[-4.450167E-2,-9.686765E-1,-1.2060374E-2,-3.0305135E-1,-2.3747103E-1,9.80723E-3,-8.711822E-1,-2.0007262E-1,1.287926E-1,-8.409774E-2,1.8900421E-1,-1.0268295E0,-5.5408746E-1,-4.6997257E-2,-5.6367683E-1,8.622149E-2,3.9122584E-1,-3.1608608E-1,-6.9655344E-2,-7.336166E-1,5.413753E-3,-2.3743741E-1,5.459837E-2,-6.027769E-1,2.733787E-1,1.2293237E-1,-6.1169744E-1,3.29424E-1,9.22276E-1,-3.8590916E-2,-2.9107925E-1,1.9174914E-1,-2.2590776E-1,-9.302803E-2,5.3326234E-2,1.2609706E-2,4.1397658E-1,-1.1233785E-1,-2.4274889E-1,2.3553798E-1,-1.3579683E-1,5.7632208E-2,-7.6424494E-2,-2.6755014E-1,1.6423598E-1,1.4237724E-1,4.2576488E-2,3.0426896E-1,-4.4539593E-2,-1.9275059E-1,1.9424732E-1],"categories":[],"categories_nodes":[],"categories_segments":[],"categories_sizes":[],"default_left":[0,1,0,0,0,0,0,0,0,1,0,0,0,0,0,0,0,0,0,0,0,0,1,0,0,0,0,0,1,0,0,0,0,0,0,0,0,0,0,0,0,0,0,0,0,0,0,0,0,0,0],"id":7,"left_children":[1,3,5,-1,7,9,11,-1,-1,13,15,17,19,21,23,25,27,-1,-1,29,31,33,35,37,39,41,43,45,47,49,-1,-1,-1,-1,-1,-1,-1,-1,-1,-1,-1,-1,-1,-1,-1,-1,-1,-1,-1,-1,-1],"loss_changes":[4.3944103E1,1.268261E0,2.6637026E1,0E0,1.4249747E0,2.3291681E1,1.168005E0,0E0,0E0,1.6134274E1,9.858122E0,2.3296356E-1,1.3860378E0,1.6345592E1,2.2963867E0,8.192528E0,4.9504814E0,0E0,0E0,1.6770668E0,2.565035E0,8.919697E0,9.123325E0,2.6437206E0,1.6909094E0,7.9343348E0,5.6835938E0,3.878376E0,1.7390556E0,1.9445536E0,0E0,0E0,0E0,0E0,0E0,0E0,0E0,0E0,0E0,0E0,0E0,0E0,0E0,0E0,0E0,0E0,0E0,0E0,0E0,0E0,0E0],"parents":[2147483647,0,0,1,1,2,2,4,4,5,5,6,6,9,9,10,10,11,11,12,12,13,13,14,14,15,15,16,16,19,19,20,20,21,21,22,22,23,23,24,24,25,25,26,26,27,27,28,28,29,29],"right_children":[2,4,6,-1,8,10,12,-1,-1,14,16,18,20,22,24,26,28,-1,-1,30,32,34,36,38,40,42,44,46,48,50,-1,-1,-1,-1,-1,-1,-1,-1,-1,-1,-1,-1,-1,-1,-1,-1,-1,-1,-1,-1,-1],"split_conditions":[5E-2,3.1684983E-1,1E0,-3.0305135E-1,3.0303031E-2,1E0,1.759159E4,-2.0007262E-1,1.287926E-1,9.8E2,2.8947368E-1,4.7368422E-1,2.013E3,3.116E3,6E-1,2.015E3,6.666667E-1,-3.1608608E-1,-6.9655344E-2,2E-1,4E4,3.1684983E-1,5.625E-1,2.4323E4,1.53E4,2.5799087E-1,1.4025E3,4.28E3,2.2E3,1E0,-2.9107925E-1,1.9174914E-1,-2.2590776E-1,-9.302803E-2,5.3326234E-2,1.2609706E-2,4.1397658E-1,-1.1233785E-1,-2.4274889E-1,2.3553798E-1,-1.3579683E-1,5.7632208E-2,-7.6424494E-2,-2.6755014E-1,1.6423598E-1,1.4237724E-1,4.2576488E-2,3.0426896E-1,-4.4539593E-2,-1.9275059E-1,1.9424732E-1],"split_indices":[13,18,7,0,13,15,3,0,0,3,13,13,14,0,13,14,13,0,0,12,1,17,17,1,2,12,11,3,3,15,0,0,0,0,0,0,0,0,0,0,0,0,0,0,0,0,0,0,0,0,0],"split_type":[0,0,0,0,0,0,0,0,0,0,0,0,0,0,0,0,0,0,0,0,0,0,0,0,0,0,0,0,0,0,0,0,0,0,0,0,0,0,0,0,0,0,0,0,0,0,0,0,0,0,0],"sum_hessian":[1.4651001E3,4.870659E1,1.4163934E3,4.5729977E1,2.9766142E0,1.3822003E3,3.4193165E1,1.8104229E0,1.1661915E0,9.0728467E2,4.7491562E2,2.1433971E1,1.2759193E1,8.431557E2,6.412897E1,3.158206E2,1.5909503E2,2.0419641E1,1.0143305E0,9.424064E0,3.3351305E0,2.9285825E2,5.502974E2,6.153449E1,2.594479E0,3.008211E2,1.4999481E1,1.439616E2,1.5133447E1,2.6891618E0,6.7349014E0,1.9025934E0,1.4325371E0,2.4945778E2,4.340048E1,5.461509E2,4.1465974E0,3.055118E1,3.0983309E1,1.4740797E0,1.1203995E0,2.5466812E2,4.615299E1,1.2265778E1,2.7337031E0,8.02781E1,6.3683487E1,1.3985195E1,1.148251E0,1.464012E0,1.2251496E0],"tree_param":{"num_deleted":"0","num_feature":"20","num_nodes":"51","size_leaf_vector":"1"}},{"base_weights":[-3.543338E-2,-2.9791802E-1,-1.1748192E-2,1.911094E-2,-4.8041412E-1,6.9744866E-3,3.4517363E-1,-2.0099589E-1,-7.5469285E-1,-3.5034835E-1,1.8510355E-2,-8.2641196E-1,-6.424464E-2,-4.964429E-1,-9.1383576E-1,-2.3064097E-2,2.9561678E-1,-2.7600577E-1,-3.4822397E-2,9.010627E-2,-7.2399104E-1,-1.8292624E-1,-2.7639753E-1,-8.041399E-2,-9.458045E-1,-8.6662476E-4,-1.9923098E-1,1.5330595E-1,2.030559E-2,-3.52589E-2,1.7987804E-1,-2.360819E-3,-2.7941626E-1,-1.7186038E-1,1.409933E-1,-2.9333165E-1,-9.208447E-2],"categories":[],"categories_nodes":[],"categories_segments":[],"categories_sizes":[],"default_left":[0,0,1,0,1,0,0,0,0,0,0,0,1,0,0,1,0,0,0,1,0,0,0,0,0,0,0,0,0,0,0,0,0,0,0,0,0],"id":8,"left_children":[1,-1,3,5,7,9,-1,11,13,-1,15,17,19,21,23,25,27,-1,-1,29,31,33,-1,-1,35,-1,-1,-1,-1,-1,-1,-1,-1,-1,-1,-1,-1],"loss_changes":[3.234516E1,0E0,2.0157774E1,1.7954077E1,6.447092E0,1.7574244E1,0E0,3.7113342E0,1.3171902E0,0E0,1.4794145E1,4.127183E-1,3.8535821E0,2.3115134E0,2.7231216E-1,1.4444945E1,8.190318E0,0E0,0E0,3.3538823E0,1.0566823E0,3.3143544E0,0E0,0E0,1.8742943E-1,0E0,0E0,0E0,0E0,0E0,0E0,0E0,0E0,0E0,0E0,0E0,0E0],"parents":[2147483647,0,0,2,2,3,3,4,4,5,5,7,7,8,8,10,10,11,11,12,12,13,13,14,14,15,15,16,16,19,19,20,20,21,21,24,24],"right_children":[2,-1,4,6,8,10,-1,12,14,-1,16,18,20,22,24,26,28,-1,-1,30,32,34,-1,-1,36,-1,-1,-1,-1,-1,-1,-1,-1,-1,-1,-1,-1],"split_conditions":[3.0303031E-2,-2.9791802E-1,1E0,1E0,1E0,5.5555556E-2,3.4517363E-1,1.6101696E-1,5.5E2,-3.5034835E-1,1E4,3.9E4,2E0,1E0,2.006E3,5.55E4,1.7E3,-2.7600577E-1,-3.4822397E-2,2.1059488E-1,3.9139E2,3.9E3,-2.7639753E-1,-8.041399E-2,1.278E3,-8.6662476E-4,-1.9923098E-1,1.5330595E-1,2.030559E-2,-3.52589E-2,1.7987804E-1,-2.360819E-3,-2.7941626E-1,-1.7186038E-1,1.409933E-1,-2.9333165E-1,-9.208447E-2],"split_indices":[13,0,4,13,10,17,0,13,3,0,0,1,3,7,14,1,3,0,0,19,11,0,0,0,11,0,0,0,0,0,0,0,0,0,0,0,0],"split_type":[0,0,0,0,0,0,0,0,0,0,0,0,0,0,0,0,0,0,0,0,0,0,0,0,0,0,0,0,0,0,0,0,0,0,0,0,0],"sum_hessian":[1.4255692E3,3.3420063E1,1.3921492E3,1.3070464E3,8.510275E1,1.2941709E3,1.287549E1,4.3014774E1,4.2087982E1,1.1609752E1,1.2825612E3,6.813023E0,3.620175E1,1.761791E1,2.4470072E1,1.116038E3,1.6652312E2,5.758933E0,1.0540903E0,3.0037706E1,6.164046E0,1.0960668E1,6.6572423E0,1.596872E0,2.28732E1,1.0829587E3,3.307932E1,8.497595E1,8.154716E1,2.1887154E1,8.150553E0,1.617366E0,4.54668E0,6.9389925E0,4.0216746E0,2.127797E1,1.5952305E0],"tree_param":{"num_deleted":"0","num_feature":"20","num_nodes":"37","size_leaf_vector":"1"}},{"base_weights":[-2.8415946E-2,-6.695243E-1,-1.3648573E-3,-2.933823E-1,-3.9479655E-1,-1.3557229E-2,1.0671582E0,-2.6447418E-1,-2.9580626E-1,-1.3155842E-1,7.811984E-2,6.1105406E-1,1.5434005E0,-4.753647E-1,1.301724E-1,-9.7501904E-2,-5.7379633E-1,6.3254654E-2,3.2265443E-1,8.875548E-2,3.9298347E-1,4.9580368E-1,1.395914E-1,2.5181964E-1,-6.473998E-1,5.9916043E-1,-4.5201287E-1,-1.3108891E-1,4.0796632E-1,6.377143E-2,-6.4968085E-1,8.585464E-2,-5.788989E-1,7.5110394E-1,-5.237383E-1,2.681563E-1,-1.2185531E-1,-2.2046807E-1,-4.5928746E-3,3.7272877E-1,-3.5512235E-2,-2.6636255E-1,2.0221277E-1,-6.7152485E-2,1.4310692E-2,1.5409362E-1,-2.6917833E-1,-2.0978908E-1,2.0901154E-1,-1.2531646E-1,-2.2651829E-1,-3.2936417E-2,4.759491E-2,-2.958887E-1,-7.206845E-2,3.4325254E-1,-1.7327787E-2,-2.9289743E-1,8.559165E-5],"categories":[],"categories_nodes":[],"categories_segments":[],"categories_sizes":[],"default_left":[0,0,1,0,0,0,0,1,0,1,0,0,0,0,0,1,0,0,0,0,0,0,0,0,0,0,0,0,0,0,1,0,0,0,0,0,0,0,0,0,0,0,0,0,0,0,0,0,0,0,0,0,0,0,0,0,0,0,0],"id":9,"left_children":[1,3,5,-1,7,9,11,13,-1,15,17,19,21,23,25,27,29,31,-1,33,-1,-1,-1,35,37,39,41,43,45,47,49,51,53,55,57,-1,-1,-1,-1,-1,-1,-1,-1,-1,-1,-1,-1,-1,-1,-1,-1,-1,-1,-1,-1,-1,-1,-1,-1],"loss_changes":[2.4344254E1,4.429243E0,1.7575216E1,0E0,2.1843295E0,1.44384775E1,2.3628597E0,2.339725E0,0E0,8.732377E0,1.1069735E1,3.325822E0,3.0958176E-2,2.4213743E0,3.0877156E0,9.271975E0,2.0501451E0,1.080707E1,0E0,3.0178654E0,0E0,0E0,0E0,2.1262646E0,8.115921E-1,2.982904E0,3.1373599E0,8.466838E0,5.1610985E0,3.0597968E0,5.9370136E-1,1.0227531E1,3.2578592E0,1.1849098E0,9.371569E-1,0E0,0E0,0E0,0E0,0E0,0E0,0E0,0E0,0E0,0E0,0E0,0E0,0E0,0E0,0E0,0E0,0E0,0E0,0E0,0E0,0E0,0E0,0E0,0E0],"parents":[2147483647,0,0,1,1,2,2,4,4,5,5,6,6,7,7,9,9,10,10,11,11,12,12,13,13,14,14,15,15,16,16,17,17,19,19,23,23,24,24,25,25,26,26,27,27,28,28,29,29,30,30,31,31,32,32,33,33,34,34],"right_children":[2,4,6,-1,8,10,12,14,-1,16,18,20,22,24,26,28,30,32,-1,34,-1,-1,-1,36,38,40,42,44,46,48,50,52,54,56,58,-1,-1,-1,-1,-1,-1,-1,-1,-1,-1,-1,-1,-1,-1,-1,-1,-1,-1,-1,-1,-1,-1,-1,-1],"split_conditions":[9.52381E-2,3.0303031E-2,5E-1,-2.933823E-1,2.8490567E-1,2.3655914E-1,5.2E3,6.3677E2,-2.9580626E-1,1.8E3,1E0,1E0,2.742857E-1,1.9117647E-1,9.5106E2,1.36615E3,1.44E4,1E0,3.2265443E-1,1.17E4,3.9298347E-1,4.9580368E-1,1.395914E-1,2.5E3,2.4528302E-1,1.73502E4,1.83076E3,1E0,7.4E4,2E-1,4.2059E2,1.5789473E-1,3.772E3,1.9406E4,2.2338665E-1,2.681563E-1,-1.2185531E-1,-2.2046807E-1,-4.5928746E-3,3.7272877E-1,-3.5512235E-2,-2.6636255E-1,2.0221277E-1,-6.7152485E-2,1.4310692E-2,1.5409362E-1,-2.6917833E-1,-2.0978908E-1,2.0901154E-1,-1.2531646E-1,-2.2651829E-1,-3.2936417E-2,4.759491E-2,-2.958887E-1,-7.206845E-2,3.4325254E-1,-1.7327787E-2,-2.9289743E-1,8.559165E-5],"split_indices":[13,13,17,0,16,13,0,11,0,3,13,17,12,19,11,11,1,8,0,2,0,0,0,0,12,2,11,15,1,12,11,17,0,1,12,0,0,0,0,0,0,0,0,0,0,0,0,0,0,0,0,0,0,0,0,0,0,0,0],"split_type":[0,0,0,0,0,0,0,0,0,0,0,0,0,0,0,0,0,0,0,0,0,0,0,0,0,0,0,0,0,0,0,0,0,0,0,0,0,0,0,0,0,0,0,0,0,0,0,0,0,0,0,0,0,0,0,0,0,0,0],"sum_hessian":[1.402772E3,5.583104E1,1.346941E3,2.5096914E1,3.0734125E1,1.3327213E3,1.4219691E1,2.6368994E1,4.365131E0,5.8251196E2,7.5020935E2,8.429607E0,5.790084E0,1.7052158E1,9.316835E0,5.419938E2,4.05182E1,7.4024023E2,9.969123E0,5.4692755E0,2.9603317E0,4.7732906E0,1.0167931E0,3.1736238E0,1.3878535E1,5.143918E0,4.172918E0,5.0891815E2,3.3075592E1,4.326593E0,3.6191605E1,7.159107E2,2.4329498E1,2.518968E0,2.9503071E0,1.4248861E0,1.7487378E0,1.2048186E1,1.8303486E0,2.3265996E0,2.8173184E0,3.1609328E0,1.011985E0,3.349184E2,1.7399977E2,3.1159225E1,1.9163684E0,1.9140968E0,2.4124959E0,1.2856416E1,2.3335192E1,1.940031E2,5.219076E2,1.017611E1,1.4153388E1,1.4162079E0,1.1027603E0,1.1199245E0,1.8303827E0],"tree_param":{"num_deleted":"0","num_feature":"20","num_nodes":"59","size_leaf_vector":"1"}},{"base_weights":[-2.2190817E-2,-2.8849798E-1,-8.3904965E-3,-1.8858382E-1,4.5196626E-2,-5.0773674E-1,-1.1566195E-1,-3.2288814E-1,5.725573E-2,-7.4766415E-1,-2.3292619E-1,-6.000508E-2,-5.0450665E-1,-3.33908E-1,8.042815E-2,-8.2321733E-1,1.07457854E-1,-8.6355764E-1,1.3533664E-2,3.7032206E-2,-2.7535683E-1,-7.2621053E-1,-1.3260579E-1,8.6022353E-1,-5.168978E-1,-6.0694355E-1,9.577938E-2,-1.1063232E-1,-2.8409037E-1,-2.0620931E-2,-2.9240832E-1,-1.0583879E-1,1.8020768E-1,-1.12852894E-1,4.423577E-2,-1.1519119E-1,8.0189735E-2,-7.076612E-2,-2.3643298E-1,-1.2983099E-1,1.2886193E-1,-1.0847965E-2,3.7502936E-1,-2.9172355E-2,-2.3000972E-1,-2.0816506E-1,1.7603678E-1,5.79413E-2,1.0652128E-3],"categories":[],"categories_nodes":[],"categories_segments":[],"categories_sizes":[],"default_left":[0,0,0,0,0,0,1,0,0,0,0,0,0,0,0,0,0,0,0,0,0,0,0,1,0,0,1,0,0,0,0,0,0,0,0,0,0,0,0,0,0,0,0,0,0,0,0,0,0],"id":10,"left_children":[1,-1,3,5,7,9,11,-1,13,15,17,19,21,23,25,27,-1,29,31,33,35,37,39,41,43,45,47,-1,-1,-1,-1,-1,-1,-1,-1,-1,-1,-1,-1,-1,-1,-1,-1,-1,-1,-1,-1,-1,-1],"loss_changes":[1.7799162E1,0E0,1.30887165E1,7.172206E0,1.4193231E1,3.6165276E0,5.47122E0,0E0,9.4060335E0,2.8215618E0,4.402485E0,4.6809454E0,2.5169783E0,1.3132462E1,1.0374654E1,1.2597675E0,0E0,6.355796E-1,4.7926755E0,7.1259303E0,4.201774E0,4.099903E-1,2.389739E0,2.872757E0,5.2690115E0,2.6378932E0,8.594141E0,0E0,0E0,0E0,0E0,0E0,0E0,0E0,0E0,0E0,0E0,0E0,0E0,0E0,0E0,0E0,0E0,0E0,0E0,0E0,0E0,0E0,0E0],"parents":[2147483647,0,0,2,2,3,3,4,4,5,5,6,6,8,8,9,9,10,10,11,11,12,12,13,13,14,14,15,15,17,17,18,18,19,19,20,20,21,21,22,22,23,23,24,24,25,25,26,26],"right_children":[2,-1,4,6,8,10,12,-1,14,16,18,20,22,24,26,28,-1,30,32,34,36,38,40,42,44,46,48,-1,-1,-1,-1,-1,-1,-1,-1,-1,-1,-1,-1,-1,-1,-1,-1,-1,-1,-1,-1,-1,-1],"split_conditions":[3.0303031E-2,-2.8849798E-1,2.465039E-1,1.6949153E-1,5.5555556E-2,2.01E3,1.85E2,-3.2288814E-1,2.006E3,7.777E3,7E3,3E4,2.333604E-1,2.004E3,1.1E4,2.8805E2,1.07457854E-1,9.090909E-2,2.222758E-1,1.5989E4,1.43793E3,2.5471E2,5.602E3,2.333604E-1,1.5E4,8.7354E2,2.4323E4,-1.1063232E-1,-2.8409037E-1,-2.0620931E-2,-2.9240832E-1,-1.0583879E-1,1.8020768E-1,-1.12852894E-1,4.423577E-2,-1.1519119E-1,8.0189735E-2,-7.076612E-2,-2.3643298E-1,-1.2983099E-1,1.2886193E-1,-1.0847965E-2,3.7502936E-1,-2.9172355E-2,-2.3000972E-1,-2.0816506E-1,1.7603678E-1,5.79413E-2,1.0652128E-3],"split_indices":[13,0,16,13,17,14,3,0,14,0,2,1,18,14,1,11,0,13,12,1,11,11,0,17,1,11,1,0,0,0,0,0,0,0,0,0,0,0,0,0,0,0,0,0,0,0,0,0,0],"split_type":[0,0,0,0,0,0,0,0,0,0,0,0,0,0,0,0,0,0,0,0,0,0,0,0,0,0,0,0,0,0,0,0,0,0,0,0,0,0,0,0,0,0,0,0,0,0,0,0,0],"sum_hessian":[1.3724873E3,1.8874943E1,1.3536124E3,3.096974E2,1.043915E3,5.6491516E1,2.5320587E2,1.0166689E1,1.0337483E3,2.9241308E1,2.7250208E1,2.2251128E2,3.0694597E1,5.7064102E1,9.766842E2,2.7610518E1,1.6307906E0,6.9536486E0,2.0296558E1,1.5396352E2,6.854777E1,1.8633675E1,1.2060923E1,7.090817E0,4.9973286E1,2.0494146E1,9.5619006E2,6.761305E0,2.0849213E1,1.051571E0,5.902077E0,1.2744428E1,7.552131E0,3.1959564E1,1.22003944E2,5.735955E1,1.1188216E1,2.6279235E0,1.600575E1,8.012631E0,4.0482917E0,2.424274E0,4.666543E0,1.9165401E1,3.0807882E1,1.949318E1,1.0009673E0,4.6462708E2,4.9156302E2],"tree_param":{"num_deleted":"0","num_feature":"20","num_nodes":"49","size_leaf_vector":"1"}},{"base_weights":[-1.9258542E-2,-2.8295505E-1,-8.773982E-3,3.4543173E-3,-7.2195613E-1,-3.5408076E-3,1.0495938E0,-9.445122E-1,-3.669031E-1,1.0600084E-2,-4.9423343E-1,4.49893E-1,1.1824735E0,-2.9625875E-1,-6.399973E-2,-5.8329445E-1,1.5656994E-1,-9.162653E-2,8.077799E-2,-8.548807E-1,-3.3783638E-1,-5.6065418E-2,2.521222E-1,3.9397478E-1,1.12466805E-1,7.320623E-2,-2.62147E-1,2.1144521E-1,-2.0058173E-1,-1.7408427E-2,-1.2789428E-1,1.7579306E-2,1.3973357E-1,-1.9358467E-2,-2.8156513E-1,-5.2385908E-3,-2.1365438E-1,-1.6856202E-1,1.8953453E-1],"categories":[],"categories_nodes":[],"categories_segments":[],"categories_sizes":[],"default_left":[0,0,0,1,0,1,0,0,0,0,0,0,0,0,0,0,0,0,1,0,0,0,0,0,0,1,0,0,0,0,0,0,0,0,0,0,0,0,0],"id":11,"left_children":[1,-1,3,5,7,9,11,13,15,17,19,21,23,-1,-1,25,27,29,31,33,35,-1,-1,-1,-1,37,-1,-1,-1,-1,-1,-1,-1,-1,-1,-1,-1,-1,-1],"loss_changes":[1.3151156E1,0E0,1.1725594E1,9.682139E0,1.4443989E0,9.128305E0,1.6832352E-1,2.0754814E-1,1.2657659E0,9.182545E0,1.7896519E0,9.5483667E-1,2.026043E-1,0E0,0E0,1.5034788E0,2.1997604E0,5.834616E0,6.4530344E0,6.333189E-1,3.2684443E0,0E0,0E0,0E0,0E0,1.5036451E0,0E0,0E0,0E0,0E0,0E0,0E0,0E0,0E0,0E0,0E0,0E0,0E0,0E0],"parents":[2147483647,0,0,2,2,3,3,4,4,5,5,6,6,7,7,8,8,9,9,10,10,11,11,12,12,15,15,16,16,17,17,18,18,19,19,20,20,25,25],"right_children":[2,-1,4,6,8,10,12,14,16,18,20,22,24,-1,-1,26,28,30,32,34,36,-1,-1,-1,-1,38,-1,-1,-1,-1,-1,-1,-1,-1,-1,-1,-1,-1,-1],"split_conditions":[3.0303031E-2,-2.8295505E-1,1E0,6E-1,1.759159E4,4.5E3,3.1E3,4.117647E-1,2.013E3,3.7E3,1.923077E-1,1E0,2.013E3,-2.9625875E-1,-6.399973E-2,2E-1,4E4,2.014E3,2.886076E-1,1.85E3,2.2338665E-1,-5.6065418E-2,2.521222E-1,3.9397478E-1,1.12466805E-1,2.1059488E-1,-2.62147E-1,2.1144521E-1,-2.0058173E-1,-1.7408427E-2,-1.2789428E-1,1.7579306E-2,1.3973357E-1,-1.9358467E-2,-2.8156513E-1,-5.2385908E-3,-2.1365438E-1,-1.6856202E-1,1.8953453E-1],"split_indices":[13,0,7,17,3,3,0,13,14,0,13,17,14,0,0,12,1,14,16,0,12,0,0,0,0,19,0,0,0,0,0,0,0,0,0,0,0,0,0],"split_type":[0,0,0,0,0,0,0,0,0,0,0,0,0,0,0,0,0,0,0,0,0,0,0,0,0,0,0,0,0,0,0,0,0,0,0,0,0,0,0],"sum_hessian":[1.3574706E3,1.4233356E1,1.3432372E3,1.3215725E3,2.166467E1,1.3137844E3,7.7881465E0,1.2296636E1,9.368035E0,1.2779349E3,3.5849426E1,2.2081668E0,5.57998E0,1.1282277E1,1.0143582E0,6.547271E0,2.8207648E0,5.200638E2,7.578712E2,9.49292E0,2.6356506E1,1.0376312E0,1.1705356E0,4.2634373E0,1.3165426E0,2.2380445E0,4.3092265E0,1.7823967E0,1.038368E0,4.7368515E2,4.6378662E1,7.1767725E2,4.0193966E1,1.0783106E0,8.414609E0,1.4766006E1,1.1590499E1,1.0445387E0,1.1935056E0],"tree_param":{"num_deleted":"0","num_feature":"20","num_nodes":"39","size_leaf_vector":"1"}},{"base_weights":[-1.5415915E-2,-2.764776E-1,-7.4039064E-3,-1.6101439E-2,7.930192E-1,1.1937429E-2,-2.558304E-1,2.848619E-1,9.4161797E-1,-9.073155E-1,1.9936616E-2,-8.078642E-1,-1.6740201E-1,-9.1762096E-2,2.3205562E-1,3.0577797E-1,4.2837415E-2,-3.0313286E-1,-4.5475742E-1,-4.076628E-2,1.3278301E-1,-1.0234878E0,2.2916885E-1,-3.291102E-1,1.7096451E-1,1.8380499E-2,-2.2101477E-1,-7.996351E-3,-2.665544E-1,1.1265225E-2,8.471345E-2,-1.6210546E-1,-3.798066E-1,-1.2942776E-1,9.242344E-2,1.2539156E-1,-1.00609064E-1],"categories":[],"categories_nodes":[],"categories_segments":[],"categories_sizes":[],"default_left":[0,0,0,1,0,0,0,0,1,0,0,0,0,0,0,0,0,0,0,0,0,0,0,0,0,0,0,0,0,0,0,0,0,0,0,0,0],"id":12,"left_children":[1,-1,3,5,7,9,11,13,15,17,19,21,23,-1,-1,-1,-1,-1,25,27,29,31,-1,33,35,-1,-1,-1,-1,-1,-1,-1,-1,-1,-1,-1,-1],"loss_changes":[9.754686E0,0E0,9.297816E0,8.878256E0,8.158617E-1,8.717525E0,6.616207E0,1.5881679E0,5.165205E-1,1.7825127E-2,8.04635E0,7.1649857E0,6.648038E0,0E0,0E0,0E0,0E0,0E0,5.858745E-1,9.1165695E0,5.841961E0,1.3067036E0,0E0,5.469487E0,5.0946426E0,0E0,0E0,0E0,0E0,0E0,0E0,0E0,0E0,0E0,0E0,0E0,0E0],"parents":[2147483647,0,0,2,2,3,3,4,4,5,5,6,6,7,7,8,8,9,9,10,10,11,11,12,12,18,18,19,19,20,20,21,21,23,23,24,24],"right_children":[2,-1,4,6,8,10,12,14,16,18,20,22,24,-1,-1,-1,-1,-1,26,28,30,32,-1,34,36,-1,-1,-1,-1,-1,-1,-1,-1,-1,-1,-1,-1],"split_conditions":[3.0303031E-2,-2.764776E-1,7.1428573E-1,1E0,4.2059E2,8.3333336E-2,2.1059488E-1,1E0,2.375E3,5.2E3,1E0,2.014E3,3E-1,-9.1762096E-2,2.3205562E-1,3.0577797E-1,4.2837415E-2,-3.0313286E-1,1.18E0,2.016E3,1.57905E4,2.512E3,2.2916885E-1,3.1684983E-1,6.8867E2,1.8380499E-2,-2.2101477E-1,-7.996351E-3,-2.665544E-1,1.1265225E-2,8.471345E-2,-1.6210546E-1,-3.798066E-1,-1.2942776E-1,9.242344E-2,1.2539156E-1,-1.00609064E-1],"split_indices":[13,0,13,10,11,17,19,13,11,0,15,14,13,0,0,0,0,0,3,14,2,0,0,17,11,0,0,0,0,0,0,0,0,0,0,0,0],"split_type":[0,0,0,0,0,0,0,0,0,0,0,0,0,0,0,0,0,0,0,0,0,0,0,0,0,0,0,0,0,0,0,0,0,0,0,0,0],"sum_hessian":[1.3435067E3,1.0775252E1,1.3327314E3,1.3193749E3,1.3356666E1,1.1820693E3,1.3730545E2,3.6821048E0,9.674561E0,9.227563E0,1.1728418E3,1.7834412E1,1.1947105E2,1.836282E0,1.8458229E0,8.566039E0,1.1085217E0,6.5111003E0,2.7164629E0,7.6302844E2,4.0981335E2,1.5989677E1,1.8447344E0,8.085643E1,3.8614613E1,1.2363901E0,1.4800727E0,7.515495E2,1.14789915E1,2.5116975E2,1.586436E2,6.422927E0,9.566751E0,6.994762E1,1.0908818E1,2.6070747E1,1.2543863E1],"tree_param":{"num_deleted":"0","num_feature":"20","num_nodes":"37","size_leaf_vector":"1"}},{"base_weights":[-1.2503367E-2,-3.4280872E-1,7.067744E-3,5.8902502E-2,-5.062086E-1,1.6763216E-2,-6.7588156E-1,-4.5956615E-1,4.6864218E-1,-1.7347799E-1,-9.105854E-1,-4.8799005E-1,2.8878514E-2,-8.755277E-1,-3.4824473E-1,2.6393074E-1,-8.447804E-1,-2.6259968E-1,1.0504897E0,5.133371E-1,-4.037424E-1,-3.9010653E-1,-1.0200068E0,-6.43051E-1,1.19961075E-1,1.13835946E-1,-5.444523E-2,-2.8757268E-1,-4.874467E-2,1.9895174E-1,-6.064615E-1,-2.175314E-1,8.721381E-1,-3.183842E-1,-6.666406E-2,2.834923E-1,-7.858599E-1,1.1701467E0,9.016597E-2,-5.426093E-1,4.079012E-1,-6.818089E-1,2.4565919E-1,1.3715284E-1,-2.816347E-1,-3.6774743E-1,-6.642824E-1,-8.926116E-1,-4.4681293E-1,4.227044E-1,-3.5073787E-1,1.2234063E-1,-3.2452437E-1,-2.4237357E-1,5.2441057E-2,-2.5454018E-1,-1.9771926E-1,4.751713E-2,3.4402806E-1,-3.5479933E-2,-2.7830818E-1,1.4766654E-1,4.748465E-1,-2.479073E-1,-1.6235147E-2,-2.884913E-1,-1.3102629E-2,2.9925546E-1,-1.8652731E-1,-2.8168395E-1,9.817781E-2,-1.9581318E-2,-2.976704E-1,1.1174723E-1,-2.0049636E-1,2.693297E-2,-2.3705009E-1,5.142958E-3,5.974054E-2,-1.0232888E-1,9.715654E-3,-4.20134E-2,3.2810476E-2,7.352603E-2,-2.0205776E-1],"categories":[],"categories_nodes":[],"categories_segments":[],"categories_sizes":[],"default_left":[0,0,0,0,0,0,0,0,0,0,0,0,1,0,0,0,1,0,0,1,0,0,0,0,1,0,0,0,0,0,0,0,1,0,0,0,0,0,0,0,0,0,0,0,0,0,0,0,0,0,0,0,0,0,1,0,0,0,0,0,0,0,0,0,0,0,0,0,0,0,0,0,0,0,0,0,0,0,0,0,0,0,0,0,0],"id":13,"left_children":[1,3,5,7,9,11,13,15,17,19,21,23,25,27,29,31,33,35,37,39,41,43,45,47,49,51,53,-1,-1,-1,55,-1,57,-1,-1,-1,59,61,-1,63,-1,65,67,-1,-1,-1,69,71,73,-1,75,77,-1,79,81,-1,83,-1,-1,-1,-1,-1,-1,-1,-1,-1,-1,-1,-1,-1,-1,-1,-1,-1,-1,-1,-1,-1,-1,-1,-1,-1,-1,-1,-1],"loss_changes":[8.577538E0,4.901662E0,8.309969E0,4.964736E0,6.9548903E0,7.576904E0,8.442068E-1,3.1141443E0,5.799665E0,4.9891863E0,9.477272E-1,2.815127E0,8.562352E0,4.515381E-1,2.5729947E0,3.2588546E0,7.086835E-1,4.8832116E0,3.1503487E-1,7.916057E0,4.357706E0,3.0900626E0,5.6975174E-1,7.4220085E-1,4.586895E0,6.2209E0,1.2283422E1,0E0,0E0,0E0,5.388975E-1,0E0,4.3729043E-1,0E0,0E0,0E0,3.748753E-1,9.1680527E-1,0E0,5.496825E-1,0E0,2.9065952E0,5.636849E0,0E0,0E0,0E0,2.7887702E0,6.979575E-1,2.979386E0,0E0,1.1823857E0,4.8070736E0,0E0,6.0234222E0,4.2912693E0,0E0,9.995214E-1,0E0,0E0,0E0,0E0,0E0,0E0,0E0,0E0,0E0,0E0,0E0,0E0,0E0,0E0,0E0,0E0,0E0,0E0,0E0,0E0,0E0,0E0,0E0,0E0,0E0,0E0,0E0,0E0],"parents":[2147483647,0,0,1,1,2,2,3,3,4,4,5,5,6,6,7,7,8,8,9,9,10,10,11,11,12,12,13,13,14,14,15,15,16,16,17,17,18,18,19,19,20,20,21,21,22,22,23,23,24,24,25,25,26,26,30,30,32,32,36,36,37,37,39,39,41,41,42,42,46,46,47,47,48,48,50,50,51,51,53,53,54,54,56,56],"right_children":[2,4,6,8,10,12,14,16,18,20,22,24,26,28,30,32,34,36,38,40,42,44,46,48,50,52,54,-1,-1,-1,56,-1,58,-1,-1,-1,60,62,-1,64,-1,66,68,-1,-1,-1,70,72,74,-1,76,78,-1,80,82,-1,84,-1,-1,-1,-1,-1,-1,-1,-1,-1,-1,-1,-1,-1,-1,-1,-1,-1,-1,-1,-1,-1,-1,-1,-1,-1,-1,-1,-1],"split_conditions":[2.006E3,4.2119977E-1,1E0,1.9E1,1.55E4,1.1E4,1.44E4,8.1E3,1.923077E-1,2.005E3,4.132E2,5E3,2.4323E4,2.5925925E-1,1.57905E4,2.465039E-1,6.6667E2,3.0594E2,6.4707E2,2.333604E-1,4E3,1.85E4,4.6E3,2.6389E2,2.6206E2,3.06E4,6.6667E2,-2.8757268E-1,-4.874467E-2,1.9895174E-1,3.226E4,-2.175314E-1,3.81E2,-3.183842E-1,-6.666406E-2,2.834923E-1,4.2961E2,2.2338665E-1,9.016597E-2,3.3333E2,4.079012E-1,2.607053E-1,2.1E3,1.3715284E-1,-2.816347E-1,-3.6774743E-1,3.0769232E-1,5.882353E-2,2.8125E2,4.227044E-1,7.54E2,3.116E3,-3.2452437E-1,1.17E4,2.465039E-1,-2.5454018E-1,4.1E4,4.751713E-2,3.4402806E-1,-3.5479933E-2,-2.7830818E-1,1.4766654E-1,4.748465E-1,-2.479073E-1,-1.6235147E-2,-2.884913E-1,-1.3102629E-2,2.9925546E-1,-1.8652731E-1,-2.8168395E-1,9.817781E-2,-1.9581318E-2,-2.976704E-1,1.1174723E-1,-2.0049636E-1,2.693297E-2,-2.3705009E-1,5.142958E-3,5.974054E-2,-1.0232888E-1,9.715654E-3,-4.20134E-2,3.2810476E-2,7.352603E-2,-2.0205776E-1],"split_indices":[14,19,7,3,1,1,2,2,13,14,11,0,1,12,2,16,11,11,11,17,0,1,0,11,11,2,11,0,0,0,1,0,11,0,0,0,11,12,0,11,0,16,3,0,0,0,13,13,11,0,3,0,0,2,16,0,1,0,0,0,0,0,0,0,0,0,0,0,0,0,0,0,0,0,0,0,0,0,0,0,0,0,0,0,0],"split_type":[0,0,0,0,0,0,0,0,0,0,0,0,0,0,0,0,0,0,0,0,0,0,0,0,0,0,0,0,0,0,0,0,0,0,0,0,0,0,0,0,0,0,0,0,0,0,0,0,0,0,0,0,0,0,0,0,0,0,0,0,0,0,0,0,0,0,0,0,0,0,0,0,0,0,0,0,0,0,0,0,0,0,0,0,0],"sum_hessian":[1.3255049E3,7.322117E1,1.2522837E3,2.1356558E1,5.1864613E1,1.2357163E3,1.656736E1,9.373761E0,1.1982797E1,2.9236855E1,2.262776E1,2.8044256E1,1.2076721E3,9.255347E0,7.3120136E0,3.366242E0,6.007519E0,5.5528655E0,6.4299316E0,7.032253E0,2.2204603E1,4.723745E0,1.7904015E1,2.2299042E1,5.745215E0,5.977926E2,6.0987946E2,7.981417E0,1.2739298E0,1.1681548E0,6.143859E0,1.2086302E0,2.1576116E0,3.9345706E0,2.0729482E0,1.4350764E0,4.117789E0,5.0619397E0,1.367992E0,3.2883468E0,3.743906E0,1.55124445E1,6.6921577E0,1.9221947E0,2.80155E0,9.792306E0,8.111709E0,8.253832E0,1.4045209E1,1.0035224E0,4.7416925E0,5.944617E2,3.3309789E0,2.206548E2,3.8922464E2,3.1833057E0,2.9605532E0,1.0376078E0,1.1200039E0,1.0428891E0,3.0748997E0,2.7451246E0,2.3168151E0,1.6425792E0,1.6457677E0,1.0431264E1,5.08118E0,3.504523E0,3.187635E0,6.3936625E0,1.7180461E0,1.0649458E0,7.188886E0,2.8440754E0,1.1201134E1,2.7652798E0,1.9764127E0,2.5135907E2,3.4310257E2,1.6215135E2,5.850345E1,8.8505226E1,3.0071942E2,1.7846158E0,1.1759374E0],"tree_param":{"num_deleted":"0","num_feature":"20","num_nodes":"85","size_leaf_vector":"1"}},{"base_weights":[-1.1963266E-2,-2.910154E-1,-6.315778E-3,-7.091837E-2,7.719872E-2,-2.6690367E-1,-6.10789E-2,6.335151E-2,7.764605E-1,-4.2963736E-2,-3.7977114E-1,-1.5756558E-1,9.8981544E-2,8.904021E-1,1.194783E-2,-6.220242E-2,2.9882228E-1,2.5799122E-1,-4.6542153E-1,1.10919975E-1,-4.2401326E-1,-5.1615185E-1,1.12028755E-1,4.1921917E-2,2.914075E-1,-2.4801698E-2,6.993592E-2,-1.8192872E-1,1.3756503E-1,-1.8276908E-1,2.1851431E-1,-2.7499157E-1,-1.0101635E-1,-2.0688939E-1,7.316286E-2,-1.4362644E-1,2.3526493E-1,8.853216E-4,-3.3775526E-1,5.8820277E-2,6.330229E-3],"categories":[],"categories_nodes":[],"categories_segments":[],"categories_sizes":[],"default_left":[0,0,0,0,0,0,1,0,1,1,0,0,0,1,0,1,0,0,0,0,0,0,0,0,0,0,0,0,0,0,0,0,0,0,0,0,0,0,0,0,0],"id":14,"left_children":[1,-1,3,5,7,-1,9,11,13,15,17,19,21,23,-1,25,27,29,31,33,35,37,39,-1,-1,-1,-1,-1,-1,-1,-1,-1,-1,-1,-1,-1,-1,-1,-1,-1,-1],"loss_changes":[7.10987E0,0E0,7.064888E0,5.8933535E0,5.4813533E0,0E0,4.2014713E0,4.4327106E0,8.8798857E-1,4.5715938E0,2.2595515E0,5.6500206E0,3.9410605E0,4.4046307E-1,0E0,3.9870358E0,5.6382656E0,2.5978951E0,1.7172575E0,4.404931E0,2.9891691E0,3.2403655E0,3.6226482E0,0E0,0E0,0E0,0E0,0E0,0E0,0E0,0E0,0E0,0E0,0E0,0E0,0E0,0E0,0E0,0E0,0E0,0E0],"parents":[2147483647,0,0,2,2,3,3,4,4,6,6,7,7,8,8,9,9,10,10,11,11,12,12,13,13,15,15,16,16,17,17,18,18,19,19,20,20,21,21,22,22],"right_children":[2,-1,4,6,8,-1,10,12,14,16,18,20,22,24,-1,26,28,30,32,34,36,38,40,-1,-1,-1,-1,-1,-1,-1,-1,-1,-1,-1,-1,-1,-1,-1,-1,-1,-1],"split_conditions":[5.5555556E-2,-2.910154E-1,2.5925925E-1,3.0303031E-2,7.5E-1,-2.6690367E-1,1.8E3,1.7151767E-1,9E2,2.886076E-1,1.44E4,1.8181819E-1,1.5E3,2.0833E2,1.194783E-2,1.36615E3,1.3043478E-1,2E-1,1.78E4,1.78E4,6.666667E-1,3.0752E2,2.75E4,4.1921917E-2,2.914075E-1,-2.4801698E-2,6.993592E-2,-1.8192872E-1,1.3756503E-1,-1.8276908E-1,2.1851431E-1,-2.7499157E-1,-1.0101635E-1,-2.0688939E-1,7.316286E-2,-1.4362644E-1,2.3526493E-1,8.853216E-4,-3.3775526E-1,5.8820277E-2,6.330229E-3],"split_indices":[17,0,13,13,13,0,3,16,3,16,1,17,0,11,0,11,13,12,1,1,13,11,1,0,0,0,0,0,0,0,0,0,0,0,0,0,0,0,0,0,0],"split_type":[0,0,0,0,0,0,0,0,0,0,0,0,0,0,0,0,0,0,0,0,0,0,0,0,0,0,0,0,0,0,0,0,0,0,0,0,0,0,0,0,0],"sum_hessian":[1.3141493E3,6.7002187E0,1.3074491E3,7.3727856E2,5.7017053E2,7.6932025E0,7.295853E2,5.6016833E2,1.0002195E1,6.914184E2,3.816692E1,7.7322556E1,4.8284576E2,8.48154E0,1.5206556E0,6.553478E2,3.6070656E1,4.280642E0,3.3886276E1,3.8804737E1,3.851782E1,9.227737E0,4.7361804E2,1.0910397E0,7.3905E0,6.1354095E2,4.180679E1,4.990506E0,3.108015E1,1.4015505E0,2.8790915E0,6.1616344E0,2.7724642E1,4.930497E0,3.387424E1,3.742591E1,1.0919086E0,5.5216866E0,3.706051E0,2.4553224E2,2.2808578E2],"tree_param":{"num_deleted":"0","num_feature":"20","num_nodes":"41","size_leaf_vector":"1"}},{"base_weights":[-1.000882E-2,3.0280098E-3,-3.9655897E-1,-2.3906988E-3,8.7078506E-1,-1.0305516E-1,-5.7245106E-1,-2.7228543E-1,1.9091149E-3,8.9363694E-2,2.9395387E-1,-4.25939E-1,4.6973604E-1,-6.9061553E-1,-5.5731412E-2,-2.6307747E-1,1.6352383E-2,-7.029673E-1,7.176187E-2,4.6892357E-1,-3.415129E-1,-8.5867023E-1,-2.7837232E-1,3.382186E-1,-8.0276704E-1,-1.3186131E-1,-7.004357E-1,3.8598333E-2,-1.7903273E-1,-2.7965423E-1,3.79987E-2,5.020869E-1,-1.8624553E-1,7.65632E-2,-2.5294968E-1,-6.2725045E-2,-9.115321E-1,2.5900164E-1,-5.8632594E-1,-2.7557877E-1,-6.4360544E-2,-2.7507594E-1,-1.1977618E-2,-2.5809932E-1,7.1381174E-2,1.6580643E-2,-6.89637E-2,-1.9165891E-1,-2.1431543E-2,2.9185244E-1,-7.007548E-2,-2.8811678E-1,-8.2034096E-2,-2.3640858E-1,-9.163812E-3],"categories":[],"categories_nodes":[],"categories_segments":[],"categories_sizes":[],"default_left":[0,1,0,0,0,0,1,0,0,0,0,0,0,0,0,0,1,1,0,0,0,0,0,0,0,0,1,1,0,0,0,0,0,0,0,0,0,0,0,0,0,0,0,0,0,0,0,0,0,0,0,0,0,0,0],"id":15,"left_children":[1,3,5,7,9,11,13,-1,15,-1,-1,17,19,21,23,25,27,29,31,-1,33,35,37,-1,39,41,43,45,47,-1,-1,49,-1,-1,-1,-1,51,-1,53,-1,-1,-1,-1,-1,-1,-1,-1,-1,-1,-1,-1,-1,-1,-1,-1],"loss_changes":[6.563368E0,5.929969E0,2.1346583E0,4.882132E0,1.9712114E-1,3.370438E0,1.5703793E0,0E0,4.784287E0,0E0,0E0,1.6342418E0,6.4367657E0,1.2406301E0,6.201005E0,3.6157107E0,5.1589093E0,1.5389836E0,1.8063196E0,0E0,1.6044979E0,3.139429E-1,3.2011511E0,0E0,9.297633E-2,3.6395464E0,2.4072628E0,4.7791557E0,5.9575944E0,0E0,0E0,1.4899049E0,0E0,0E0,0E0,0E0,1.5168667E-1,0E0,7.1941614E-1,0E0,0E0,0E0,0E0,0E0,0E0,0E0,0E0,0E0,0E0,0E0,0E0,0E0,0E0,0E0,0E0],"parents":[2147483647,0,0,1,1,2,2,3,3,4,4,5,5,6,6,8,8,11,11,12,12,13,13,14,14,15,15,16,16,17,17,18,18,20,20,21,21,22,22,24,24,25,25,26,26,27,27,28,28,31,31,36,36,38,38],"right_children":[2,4,6,8,10,12,14,-1,16,-1,-1,18,20,22,24,26,28,30,32,-1,34,36,38,-1,40,42,44,46,48,-1,-1,50,-1,-1,-1,-1,52,-1,54,-1,-1,-1,-1,-1,-1,-1,-1,-1,-1,-1,-1,-1,-1,-1,-1],"split_conditions":[1E0,6E-1,4.2119977E-1,5.5555556E-2,6.4285713E-1,1E0,2.333604E-1,-2.7228543E-1,2.006E3,8.9363694E-2,2.9395387E-1,4.8E3,4.3867E2,2.8E-1,2.173913E-1,7.3889E2,2E0,1.444E1,1E0,4.6892357E-1,2.2105263E-1,1.25E4,3.043478E-1,3.382186E-1,5.98E3,1.0526316E-1,1.04825E3,5.33E4,3E2,-2.7965423E-1,3.79987E-2,2.75E-1,-1.8624553E-1,7.65632E-2,-2.5294968E-1,-6.2725045E-2,4E-1,2.5900164E-1,3.4E4,-2.7557877E-1,-6.4360544E-2,-2.7507594E-1,-1.1977618E-2,-2.5809932E-1,7.1381174E-2,1.6580643E-2,-6.89637E-2,-1.9165891E-1,-2.1431543E-2,2.9185244E-1,-7.007548E-2,-2.8811678E-1,-8.2034096E-2,-2.3640858E-1,-9.163812E-3],"split_indices":[8,17,19,17,17,15,18,0,14,0,0,0,11,13,13,11,3,3,10,0,12,1,13,0,0,13,11,1,3,0,0,13,0,0,0,0,17,0,3,0,0,0,0,0,0,0,0,0,0,0,0,0,0,0,0],"split_type":[0,0,0,0,0,0,0,0,0,0,0,0,0,0,0,0,0,0,0,0,0,0,0,0,0,0,0,0,0,0,0,0,0,0,0,0,0,0,0,0,0,0,0,0,0,0,0,0,0,0,0,0,0,0,0],"sum_hessian":[1.3011753E3,1.2596832E3,4.1492043E1,1.252857E3,6.82622E0,1.614217E1,2.534987E1,4.929741E0,1.2479272E3,1.6883736E0,5.1378465E0,1.0487001E1,5.6551695E0,2.0357857E1,4.9920144E0,6.3613514E1,1.1843138E3,6.4720984E0,4.014903E0,2.0140386E0,3.641131E0,1.36929E1,6.664956E0,1.7350111E0,3.2570033E0,4.993386E1,1.3679656E1,1.0639752E3,1.2033851E2,4.9741964E0,1.497902E0,2.6459365E0,1.3689665E0,1.8873541E0,1.7537767E0,1.4033449E0,1.2289556E1,1.0327301E0,5.632226E0,2.2519498E0,1.0050535E0,4.293906E0,4.5639954E1,1.1759112E1,1.9205437E0,1.00252026E3,6.1455017E1,2.1882141E1,9.845637E1,1.4168882E0,1.2290481E0,1.0946303E1,1.3432517E0,3.82587E0,1.806356E0],"tree_param":{"num_deleted":"0","num_feature":"20","num_nodes":"55","size_leaf_vector":"1"}},{"base_weights":[-9.075992E-3,2.578689E-4,-4.4976044E-1,-4.4752355E-3,2.5988063E-1,1.0433607E-1,-5.2469593E-1,-3.8190222E-1,5.618815E-3,-7.0881665E-1,-5.438727E-2,4.9725378E-1,-4.9803877E-1,1.0704437E-1,-2.947294E-2,1.095746E-1,-8.0429596E-1,2.5802037E-1,-4.7994834E-1,-1.1399641E-3,3.1426322E-1,-6.2467855E-1,-5.16037E-2,2.238618E-1,-7.066056E-2,-2.1981329E-1,6.7618866E-3,-9.012383E-1,-1.1877156E-2,-6.751364E-1,3.90112E-2,-4.0858306E-2,3.716603E-2,-2.1209054E-1,1.02101795E-1,2.8951433E-1,-1.2884392E-1,7.753065E-2,-2.2916113E-1,-5.0452266E-2,2.2881189E-1,-1.5175204E-1,-4.2391073E-2,-1.2505777E-1,6.148824E-3,-2.8866747E-1,-1.5973892E-2,-5.244632E-2,-2.4144588E-1],"categories":[],"categories_nodes":[],"categories_segments":[],"categories_sizes":[],"default_left":[1,0,0,0,0,0,0,0,1,0,0,0,0,0,0,0,1,0,1,0,0,1,1,0,1,0,0,0,0,0,0,0,0,0,0,0,0,0,0,0,0,0,0,0,0,0,0,0,0],"id":16,"left_children":[1,3,5,7,-1,-1,9,11,13,15,17,19,21,23,25,-1,27,-1,29,31,-1,33,35,37,39,41,43,45,-1,47,-1,-1,-1,-1,-1,-1,-1,-1,-1,-1,-1,-1,-1,-1,-1,-1,-1,-1,-1],"loss_changes":[5.3264003E0,5.2055664E0,1.7876477E0,4.814399E0,0E0,0E0,2.1219573E0,3.6084828E0,4.3853126E0,2.1240253E0,3.5659935E0,1.1918353E0,1.639833E0,6.5902185E0,6.315774E0,0E0,1.2025223E0,0E0,8.2255507E-1,7.2205566E-2,0E0,2.0630531E0,3.3439941E0,6.731124E0,1.039802E1,3.2170377E0,4.488916E0,7.1299744E-1,0E0,1.731205E-1,0E0,0E0,0E0,0E0,0E0,0E0,0E0,0E0,0E0,0E0,0E0,0E0,0E0,0E0,0E0,0E0,0E0,0E0,0E0],"parents":[2147483647,0,0,1,1,2,2,3,3,6,6,7,7,8,8,9,9,10,10,11,11,12,12,13,13,14,14,16,16,18,18,19,19,21,21,22,22,23,23,24,24,25,25,26,26,27,27,29,29],"right_children":[2,4,6,8,-1,-1,10,12,14,16,18,20,22,24,26,-1,28,-1,30,32,-1,34,36,38,40,42,44,46,-1,48,-1,-1,-1,-1,-1,-1,-1,-1,-1,-1,-1,-1,-1,-1,-1,-1,-1,-1,-1],"split_conditions":[6.958E3,8.333333E-1,1.85E3,1.1E4,2.5988063E-1,1.0433607E-1,4.2E4,2.004E3,1.9E4,1.44E4,1.759159E4,2.002E3,5E3,1.094225E4,6E3,1.095746E-1,1.2E3,2.5802037E-1,2.3529412E-1,3.772E3,3.1426322E-1,3.1684983E-1,2.6206E2,2.013E3,8.3869E2,2E-1,1.9E3,2.8E4,-1.1877156E-2,1.7151767E-1,3.90112E-2,-4.0858306E-2,3.716603E-2,-2.1209054E-1,1.02101795E-1,2.8951433E-1,-1.2884392E-1,7.753065E-2,-2.2916113E-1,-5.0452266E-2,2.2881189E-1,-1.5175204E-1,-4.2391073E-2,-1.2505777E-1,6.148824E-3,-2.8866747E-1,-1.5973892E-2,-5.244632E-2,-2.4144588E-1],"split_indices":[3,13,0,1,0,0,1,14,1,1,3,14,0,2,2,0,11,0,17,0,0,18,11,14,11,13,0,3,0,16,0,0,0,0,0,0,0,0,0,0,0,0,0,0,0,0,0,0,0],"split_type":[0,0,0,0,0,0,0,0,0,0,0,0,0,0,0,0,0,0,0,0,0,0,0,0,0,0,0,0,0,0,0,0,0,0,0,0,0,0,0,0,0,0,0,0,0,0,0,0,0],"sum_hessian":[1.2938973E3,1.2680392E3,2.585813E1,1.262136E3,5.903258E0,1.9081638E0,2.3949966E1,3.1916346E1,1.2302196E3,1.68473E1,7.102666E0,3.3412666E0,2.8575079E1,3.157007E2,9.145189E2,1.1447183E0,1.5702581E1,1.9314032E0,5.1712627E0,2.276965E0,1.0643017E0,2.1949446E1,6.625634E0,1.9032652E2,1.253742E2,1.4544336E2,7.6907556E2,1.3777458E1,1.9251235E0,3.8367443E0,1.3345186E0,1.0516483E0,1.2253166E0,2.0471209E1,1.478236E0,1.3742982E0,5.251336E0,1.846032E2,5.7233286E0,1.1295531E2,1.2418889E1,3.0151674E1,1.1529168E2,2.3229412E1,7.458461E2,1.2727409E1,1.0500486E0,1.2731231E0,2.5636213E0],"tree_param":{"num_deleted":"0","num_feature":"20","num_nodes":"49","size_leaf_vector":"1"}},{"base_weights":[-7.4421577E-3,-8.2378444E-4,-5.526951E-1,-2.5179777E-1,3.2163365E-3,-8.5135615E-1,-1.8522847E-1,-4.846825E-3,3.9802557E-1,-2.749056E-1,-6.035181E-2,-4.2329627E-1,2.3235813E-1,-1.0102769E-2,6.650989E-1,7.0410514E-1,9.668776E-2,4.924025E-2,-2.3056757E-1,-1.1051031E-1,2.6701573E-1,2.1733323E-3,-3.0988076E-1,8.95513E-1,-1.6604897E-1,2.9726008E-1,9.0223974E-1,-4.4119567E-1,3.0789083E-1,-2.2267567E-1,1.9873134E-3,-1.883775E-1,3.2446023E-2,-4.2184606E-2,3.4119478E-1,1.9824106E-1,-7.163579E-2,5.428221E-3,3.0993992E-1,1.2507683E-1,-2.8453588E-1,1.6586769E-1,-1.6152346E-1],"categories":[],"categories_nodes":[],"categories_segments":[],"categories_sizes":[],"default_left":[0,0,0,0,0,0,0,1,0,0,0,0,0,1,1,0,0,0,0,0,0,0,0,0,0,0,0,0,1,0,0,0,0,0,0,0,0,0,0,0,0,0,0],"id":17,"left_children":[1,3,5,-1,7,9,11,13,15,-1,-1,17,19,21,23,25,27,-1,-1,-1,-1,29,31,33,-1,35,37,39,41,-1,-1,-1,-1,-1,-1,-1,-1,-1,-1,-1,-1,-1,-1],"loss_changes":[4.6411552E0,4.3111415E0,1.5350337E0,0E0,4.034375E0,1.6346455E-1,9.128926E-1,4.3812513E0,2.271339E0,0E0,0E0,1.2564003E0,1.7583522E0,4.540659E0,3.2152224E0,7.3329115E-1,1.7194881E0,0E0,0E0,0E0,0E0,3.935085E0,6.5212803E0,2.2963915E0,0E0,1.2413504E0,8.9135313E-1,2.285202E0,2.495295E0,0E0,0E0,0E0,0E0,0E0,0E0,0E0,0E0,0E0,0E0,0E0,0E0,0E0,0E0],"parents":[2147483647,0,0,1,1,2,2,4,4,5,5,6,6,7,7,8,8,11,11,12,12,13,13,14,14,15,15,16,16,21,21,22,22,23,23,25,25,26,26,27,27,28,28],"right_children":[2,4,6,-1,8,10,12,14,16,-1,-1,18,20,22,24,26,28,-1,-1,-1,-1,30,32,34,-1,36,38,40,42,-1,-1,-1,-1,-1,-1,-1,-1,-1,-1,-1,-1,-1,-1],"split_conditions":[1E0,3.0303031E-2,1.759159E4,-2.5179777E-1,6.666667E-1,3.6363637E-1,2.013E3,2.91667E3,8.07E2,-2.749056E-1,-6.035181E-2,2E-1,2.631579E-1,5.55E4,2.8490567E-1,2.011E3,2.565E4,4.924025E-2,-2.3056757E-1,-1.1051031E-1,2.6701573E-1,1.058E3,9.5E3,1.15E4,-1.6604897E-1,5.3E3,5.0004E3,3.6E3,1.9E3,-2.2267567E-1,1.9873134E-3,-1.883775E-1,3.2446023E-2,-4.2184606E-2,3.4119478E-1,1.9824106E-1,-7.163579E-2,5.428221E-3,3.0993992E-1,1.2507683E-1,-2.8453588E-1,1.6586769E-1,-1.6152346E-1],"split_indices":[7,13,3,0,13,13,14,11,3,0,0,12,13,1,16,14,1,0,0,0,0,0,0,0,0,0,2,0,11,0,0,0,0,0,0,0,0,0,0,0,0,0,0],"split_type":[0,0,0,0,0,0,0,0,0,0,0,0,0,0,0,0,0,0,0,0,0,0,0,0,0,0,0,0,0,0,0,0,0,0,0,0,0,0,0,0,0,0,0],"sum_hessian":[1.2852323E3,1.2708086E3,1.44237795E1,5.1023374E0,1.2657063E3,7.230398E0,7.1933813E0,1.2413422E3,2.4364119E1,6.201127E0,1.0292715E0,4.5727596E0,2.6206217E0,1.2326565E3,8.685676E0,1.142388E1,1.2940239E1,1.8869339E0,2.6858256E0,1.599541E0,1.0210809E0,1.1851178E3,4.753859E1,7.527491E0,1.158184E0,4.5602527E0,6.8636265E0,3.3414376E0,9.598802E0,6.058692E0,1.1790592E3,2.6713003E1,2.0825588E1,1.5034899E0,6.0240016E0,2.578674E0,1.9815787E0,1.0318717E0,5.831755E0,1.3075542E0,2.0338833E0,7.7127E0,1.8861017E0],"tree_param":{"num_deleted":"0","num_feature":"20","num_nodes":"43","size_leaf_vector":"1"}},{"base_weights":[-6.0756872E-3,-2.050175E-3,-7.848281E-1,-4.2515013E-2,7.472468E-2,-2.6565635E-1,-6.231332E-2,-3.2515606E-1,-2.2712983E-2,2.0905813E-2,2.765258E-1,-5.3869927E-1,-1.3670799E-1,-1.3492534E-2,-7.2553265E-1,3.487909E-3,7.0520824E-1,1.1165146E-1,5.414946E-1,2.2929057E-1,-6.761002E-1,-3.6480224E-1,4.0802163E-1,2.4751944E-2,-1.5829872E-1,-3.2562724E-1,3.1310085E-3,3.957347E-2,-4.60294E-1,-1.0085747E-1,9.307561E-1,-2.9508463E-1,2.3529108E-1,7.277343E-1,-3.6132452E-1,2.1854225E-1,-1.8578556E-1,-2.2472939E-1,9.833305E-2,-1.3704447E-1,1.7005683E-1,2.4545182E-1,-1.6498776E-1,-5.460697E-2,2.196466E-2,-8.207677E-2,4.5813847E-2,1.868793E-1,-2.382315E-1,2.946768E-3,1.9112243E-1,-2.1352695E-1,-7.467197E-4,3.2793564E-1,4.0122237E-2,1.362909E-1,-1.7351004E-1,1.5802283E-2,1.8986337E-1,-1.7200173E-1,2.3890136E-1,1.4311238E-1,-2.6429245E-1],"categories":[],"categories_nodes":[],"categories_segments":[],"categories_sizes":[],"default_left":[0,0,0,0,1,0,0,0,0,0,0,0,0,1,1,0,0,0,0,0,0,0,0,1,0,0,0,0,0,0,0,0,0,0,0,0,0,0,0,0,0,0,0,0,0,0,0,0,0,0,0,0,0,0,0,0,0,0,0,0,0,0,0],"id":18,"left_children":[1,3,5,7,9,-1,-1,11,13,15,17,19,21,23,25,27,29,31,33,35,37,39,41,43,45,-1,47,49,51,-1,53,55,57,59,61,-1,-1,-1,-1,-1,-1,-1,-1,-1,-1,-1,-1,-1,-1,-1,-1,-1,-1,-1,-1,-1,-1,-1,-1,-1,-1,-1,-1],"loss_changes":[4.0109677E0,3.96233E0,1.9843054E-1,4.6670194E0,4.775284E0,0E0,0E0,2.1238513E0,5.055062E0,4.1527123E0,3.9850268E0,2.820425E0,3.9196026E0,4.2819033E0,2.6525269E0,5.724562E0,2.3442554E0,3.003417E0,6.191539E0,2.3912132E0,1.8341923E0,2.137948E0,4.1548243E0,6.1456823E0,5.8335958E0,0E0,2.6376822E0,5.6336403E0,2.840973E0,0E0,8.080411E-1,3.2442021E0,3.2556083E0,3.0951939E0,3.3382804E0,0E0,0E0,0E0,0E0,0E0,0E0,0E0,0E0,0E0,0E0,0E0,0E0,0E0,0E0,0E0,0E0,0E0,0E0,0E0,0E0,0E0,0E0,0E0,0E0,0E0,0E0,0E0,0E0],"parents":[2147483647,0,0,1,1,2,2,3,3,4,4,7,7,8,8,9,9,10,10,11,11,12,12,13,13,14,14,15,15,16,16,17,17,18,18,19,19,20,20,21,21,22,22,23,23,24,24,26,26,27,27,28,28,30,30,31,31,32,32,33,33,34,34],"right_children":[2,4,6,8,10,-1,-1,12,14,16,18,20,22,24,26,28,30,32,34,36,38,40,42,44,46,-1,48,50,52,-1,54,56,58,60,62,-1,-1,-1,-1,-1,-1,-1,-1,-1,-1,-1,-1,-1,-1,-1,-1,-1,-1,-1,-1,-1,-1,-1,-1,-1,-1,-1,-1],"split_conditions":[1E0,1E0,3.4042552E-1,1.2E-1,2.1059488E-1,-2.6565635E-1,-6.231332E-2,3.1684983E-1,2.016E3,3.3333334E-1,3.7037036E-1,1.9117647E-1,2.012E3,2.1059488E-1,1.2E3,3.06E4,2.8947368E-1,1.8045112E-1,8.7E3,2.35E4,2.886076E-1,2.5799087E-1,2.2338665E-1,1.7151767E-1,3.3333334E-1,-3.2562724E-1,2.4936171E-1,1.36615E3,3.125E-1,-1.0085747E-1,5.882353E-1,1.6895E4,7.2E2,1.38E4,1.8181819E-1,2.1854225E-1,-1.8578556E-1,-2.2472939E-1,9.833305E-2,-1.3704447E-1,1.7005683E-1,2.4545182E-1,-1.6498776E-1,-5.460697E-2,2.196466E-2,-8.207677E-2,4.5813847E-2,1.868793E-1,-2.382315E-1,2.946768E-3,1.9112243E-1,-2.1352695E-1,-7.467197E-4,3.2793564E-1,4.0122237E-2,1.362909E-1,-1.7351004E-1,1.5802283E-2,1.8986337E-1,-1.7200173E-1,2.3890136E-1,1.4311238E-1,-2.6429245E-1],"split_indices":[5,15,13,13,19,0,0,18,14,12,18,19,14,19,11,2,13,13,0,1,16,12,12,16,13,0,16,11,13,0,13,1,11,1,13,0,0,0,0,0,0,0,0,0,0,0,0,0,0,0,0,0,0,0,0,0,0,0,0,0,0,0,0],"split_type":[0,0,0,0,0,0,0,0,0,0,0,0,0,0,0,0,0,0,0,0,0,0,0,0,0,0,0,0,0,0,0,0,0,0,0,0,0,0,0,0,0,0,0,0,0,0,0,0,0,0,0,0,0,0,0,0,0,0,0,0,0,0,0],"sum_hessian":[1.2789789E3,1.273399E3,5.5797973E0,8.3418243E2,4.3921667E2,4.2958817E0,1.2839154E0,5.3607285E1,7.8057513E2,3.4761414E2,9.160253E1,2.4259077E1,2.934821E1,7.714732E2,9.101932E0,3.399659E2,7.6482306E0,5.7342854E1,3.4259678E1,3.580034E0,2.0679043E1,2.0919083E1,8.429127E0,6.109464E2,1.6052681E2,5.764969E0,3.3369622E0,3.162723E2,2.3693583E1,1.2742423E0,6.3739886E0,1.3044346E1,4.4298508E1,2.8561703E1,5.6979737E0,2.3431718E0,1.2368622E0,1.9513872E1,1.1651713E0,1.9502634E1,1.4164485E0,6.0043554E0,2.4247715E0,1.1548048E2,4.9546594E2,1.17201195E2,4.3325607E1,2.0004086E0,1.3365533E0,3.022396E2,1.4032738E1,1.4935251E1,8.75833E0,4.9866295E0,1.3873588E0,3.4127173E0,9.631628E0,3.1131765E1,1.3166742E1,1.0620733E0,2.749963E1,2.2117283E0,3.4862452E0],"tree_param":{"num_deleted":"0","num_feature":"20","num_nodes":"63","size_leaf_vector":"1"}},{"base_weights":[-5.528238E-3,-1.1428549E-2,5.0272685E-1,-2.584883E-1,-7.948284E-3,-1.3262793E-1,6.0565174E-1,1.283348E-3,-3.1321186E-1,1.0405285E0,3.0130553E-1,-2.1699327E-1,1.2726246E-2,-1.8848805E-1,-8.291607E-1,3.561254E-1,1.08390205E-1,-4.169798E-1,6.431933E-1,1.2979433E-1,-3.6817446E-1,1.9229606E-2,-3.2731104E-1,-2.4549925E-1,-8.300205E-2,-5.7361115E-2,-2.7663955E-1,-1.9091333E-1,-2.3290492E-3,9.2133766E-1,-9.292995E-2,-1.01638295E-1,1.401735E-1,-4.806071E-2,-2.8481758E-1,1.8587522E-3,6.467275E-2,1.3227257E-1,-1.2454442E-1,2.5205734E-1,-4.628782E-2,3.4289372E-1,-1.7018173E-3],"categories":[],"categories_nodes":[],"categories_segments":[],"categories_sizes":[],"default_left":[1,0,0,0,0,0,0,0,0,0,0,0,1,0,0,0,0,0,0,0,0,0,0,0,0,0,0,0,0,1,0,0,0,0,0,0,0,0,0,0,0,0,0],"id":19,"left_children":[1,3,5,-1,7,-1,9,11,13,15,17,19,21,23,25,-1,-1,27,29,31,33,35,37,-1,39,-1,-1,-1,-1,41,-1,-1,-1,-1,-1,-1,-1,-1,-1,-1,-1,-1,-1],"loss_changes":[3.8105536E0,3.707091E0,1.6857939E0,0E0,3.5259912E0,0E0,1.4827194E0,3.0383196E0,2.2071655E0,8.674526E-2,2.5745196E0,3.2246022E0,2.5620775E0,1.9831805E0,2.303114E-1,0E0,0E0,3.2144266E-1,2.0762205E0,3.1841073E0,4.9801817E0,2.9032626E0,1.6503317E0,0E0,1.9432292E0,0E0,0E0,0E0,0E0,1.1327229E0,0E0,0E0,0E0,0E0,0E0,0E0,0E0,0E0,0E0,0E0,0E0,0E0,0E0],"parents":[2147483647,0,0,1,1,2,2,4,4,6,6,7,7,8,8,9,9,10,10,11,11,12,12,13,13,14,14,17,17,18,18,19,19,20,20,21,21,22,22,24,24,29,29],"right_children":[2,4,6,-1,8,-1,10,12,14,16,18,20,22,24,26,-1,-1,28,30,32,34,36,38,-1,40,-1,-1,-1,-1,42,-1,-1,-1,-1,-1,-1,-1,-1,-1,-1,-1,-1,-1],"split_conditions":[4.4444445E-1,5.5555556E-2,1.14035085E-1,-2.584883E-1,1E0,-1.3262793E-1,1.17E4,2.006E3,2.013E3,2.2456E4,1.57905E4,4.2119977E-1,6.958E3,2E3,1.7151767E-1,3.561254E-1,1.08390205E-1,6E-1,2.886076E-1,1.9E1,1.85E4,1.4E4,1.85E3,-2.4549925E-1,2.1E3,-5.7361115E-2,-2.7663955E-1,-1.9091333E-1,-2.3290492E-3,2.1428572E-1,-9.292995E-2,-1.01638295E-1,1.401735E-1,-4.806071E-2,-2.8481758E-1,1.8587522E-3,6.467275E-2,1.3227257E-1,-1.2454442E-1,2.5205734E-1,-4.628782E-2,3.4289372E-1,-1.7018173E-3],"split_indices":[17,17,13,0,8,0,2,14,14,1,2,19,3,0,16,0,0,17,16,3,1,0,0,0,0,0,0,0,0,18,0,0,0,0,0,0,0,0,0,0,0,0,0],"split_type":[0,0,0,0,0,0,0,0,0,0,0,0,0,0,0,0,0,0,0,0,0,0,0,0,0,0,0,0,0,0,0,0,0,0,0,0,0,0,0,0,0,0,0],"sum_hessian":[1.2677501E3,1.2541681E3,1.3582067E1,4.107736E0,1.2500604E3,1.010517E0,1.2571549E1,1.2143329E3,3.5727467E1,4.179958E0,8.391592E0,5.9594143E1,1.1547388E3,2.9871702E1,5.855765E0,2.8231192E0,1.3568385E0,2.6353154E0,5.756276E0,1.8135473E1,4.1458668E1,1.133994E3,2.0744677E1,3.315798E0,2.6555902E1,1.1336166E0,4.7221484E0,1.3541731E0,1.2811424E0,4.481442E0,1.2748342E0,7.5908012E0,1.0544673E1,3.1472694E1,9.985974E0,1.0643711E3,6.962304E1,1.7161E0,1.9028578E1,1.1305242E0,2.5425379E1,3.4286935E0,1.0527487E0],"tree_param":{"num_deleted":"0","num_feature":"20","num_nodes":"43","size_leaf_vector":"1"}},{"base_weights":[-4.766591E-3,-7.79109E-3,2.5051853E-1,-2.3872298E-1,-4.7430526E-3,-2.4169156E-1,-2.0493655E-3,-6.5480936E-1,1.2533264E-3,-2.8174594E-1,9.109256E-2,4.275313E-3,-7.0191395E-1,4.2971544E-4,2.1284065E-1,-2.4725433E-1,-2.9397542E-2],"categories":[],"categories_nodes":[],"categories_segments":[],"categories_sizes":[],"default_left":[0,0,0,0,0,0,0,0,0,0,0,1,0,0,0,0,0],"id":20,"left_children":[1,3,-1,-1,5,-1,7,9,11,-1,-1,13,15,-1,-1,-1,-1],"loss_changes":[3.2118304E0,3.0184658E0,0E0,0E0,2.7048204E0,0E0,2.6985102E0,2.0024357E0,2.650756E0,0E0,0E0,2.4883344E0,3.1340528E-1,0E0,0E0,0E0,0E0],"parents":[2147483647,0,0,1,1,4,4,6,6,7,7,8,8,11,11,12,12],"right_children":[2,4,-1,-1,6,-1,8,10,12,-1,-1,14,16,-1,-1,-1,-1],"split_conditions":[1E0,3.0303031E-2,2.5051853E-1,-2.3872298E-1,5.5555556E-2,-2.4169156E-1,1.058E3,6.3E3,1E0,-2.8174594E-1,9.109256E-2,6.4285713E-1,8.1E3,4.2971544E-4,2.1284065E-1,-2.4725433E-1,-2.9397542E-2],"split_indices":[13,13,0,0,17,0,0,2,5,0,0,17,0,0,0,0,0],"split_type":[0,0,0,0,0,0,0,0,0,0,0,0,0,0,0,0,0],"sum_hessian":[1.2609089E3,1.2573715E3,3.5374866E0,3.8430076E0,1.2535284E3,3.202717E0,1.2503257E3,5.301222E0,1.2450245E3,4.1038632E0,1.1973587E0,1.2406864E3,4.3381505E0,1.2367028E3,3.9836318E0,3.3044362E0,1.0337145E0],"tree_param":{"num_deleted":"0","num_feature":"20","num_nodes":"17","size_leaf_vector":"1"}},{"base_weights":[-3.9282707E-3,-6.3223485E-3,2.3444548E-1,-2.030206E-1,3.6826998E-3,-2.6861584E-1,-1.3840657E-1,4.9295664E-2,-4.452166E-2,1.596678E-1,-2.8038937E-1,-5.003438E-1,6.356845E-2,4.7151487E-2,-1.2999448E-1,-5.7622936E-2,7.8704417E-1,-8.382872E-2,-8.744183E-1,-7.987101E-1,2.2921804E-1,-2.1509124E-1,9.006881E-2,1.4254647E0,2.5342934E-2,-3.6100897E-1,-3.769816E-2,-1.4984503E-1,1.09197676E-1,4.7896948E-1,-1.7332485E-1,3.0150775E-2,-2.394916E-1,-3.036106E-1,2.4981577E-2,-2.848345E-1,6.6928955E-4,-1.4062737E-1,2.0957336E-1,-8.128521E-2,2.7439678E-1,1.8432677E-2,9.6107736E-2,6.201456E-1,-9.303865E-2,-5.7794306E-2,3.3975635E-2,-3.2787982E-1,-8.788884E-2,-1.8496832E-1,-3.3892551E-3],"categories":[],"categories_nodes":[],"categories_segments":[],"categories_sizes":[],"default_left":[0,0,0,0,1,0,0,0,0,0,0,1,1,0,0,0,0,0,1,0,0,0,0,0,0,1,0,0,0,0,0,0,0,0,0,0,0,0,0,0,0,0,0,0,0,0,0,0,0,0,0],"id":21,"left_children":[1,3,-1,5,7,-1,9,11,13,15,17,19,21,23,25,27,29,31,33,35,37,39,41,43,45,47,49,-1,-1,-1,-1,-1,-1,-1,-1,-1,-1,-1,-1,-1,-1,-1,-1,-1,-1,-1,-1,-1,-1,-1,-1],"loss_changes":[2.370719E0,2.4712126E0,0E0,2.5951428E0,2.6309109E0,0E0,2.447547E0,4.854553E0,4.5647864E0,2.629388E0,4.4593387E0,3.5946305E0,4.4507895E0,8.423909E0,6.411567E0,2.9782429E0,6.3851943E0,4.067306E0,1.3423057E0,1.3720016E0,2.0723126E0,3.5551093E0,3.5974636E0,5.5032845E0,5.350802E0,3.9584541E0,3.300665E0,0E0,0E0,0E0,0E0,0E0,0E0,0E0,0E0,0E0,0E0,0E0,0E0,0E0,0E0,0E0,0E0,0E0,0E0,0E0,0E0,0E0,0E0,0E0,0E0],"parents":[2147483647,0,0,1,1,3,3,4,4,6,6,7,7,8,8,9,9,10,10,11,11,12,12,13,13,14,14,15,15,16,16,17,17,18,18,19,19,20,20,21,21,22,22,23,23,24,24,25,25,26,26],"right_children":[2,4,-1,6,8,-1,10,12,14,16,18,20,22,24,26,28,30,32,34,36,38,40,42,44,46,48,50,-1,-1,-1,-1,-1,-1,-1,-1,-1,-1,-1,-1,-1,-1,-1,-1,-1,-1,-1,-1,-1,-1,-1,-1],"split_conditions":[1E0,2.006E3,2.3444548E-1,1.0526316E-1,2.4323E4,-2.6861584E-1,4.2119977E-1,1.8963166E-1,5.7E0,2.4528302E-1,1.85E4,2.1E4,1.8003E2,1.6997E2,1.008E4,2.3863636E-1,2.3529412E-1,1.231003E4,1E3,2.015E3,7.4075073E-1,2.014E3,1.846505E4,3.6E3,2.1818182E-1,1.8003E2,7E2,-1.4984503E-1,1.09197676E-1,4.7896948E-1,-1.7332485E-1,3.0150775E-2,-2.394916E-1,-3.036106E-1,2.4981577E-2,-2.848345E-1,6.6928955E-4,-1.4062737E-1,2.0957336E-1,-8.128521E-2,2.7439678E-1,1.8432677E-2,9.6107736E-2,6.201456E-1,-9.303865E-2,-5.7794306E-2,3.3975635E-2,-3.2787982E-1,-8.788884E-2,-1.8496832E-1,-3.3892551E-3],"split_indices":[13,14,0,13,1,0,19,12,3,12,1,1,11,11,2,17,17,2,11,14,18,14,2,0,13,11,3,0,0,0,0,0,0,0,0,0,0,0,0,0,0,0,0,0,0,0,0,0,0,0,0],"split_type":[0,0,0,0,0,0,0,0,0,0,0,0,0,0,0,0,0,0,0,0,0,0,0,0,0,0,0,0,0,0,0,0,0,0,0,0,0,0,0,0,0,0,0,0,0,0,0,0,0,0,0],"sum_hessian":[1.2571648E3,1.2543333E3,2.8314786E0,5.9779648E1,1.1945536E3,4.0051694E0,5.5774475E1,6.13763E2,5.8079065E2,1.7955238E1,3.7819237E1,1.46725645E1,5.9909045E2,2.8044748E2,3.0034317E2,1.401078E1,3.9444578E0,2.9273823E1,8.545416E0,1.0346437E1,4.3261266E0,5.1407513E1,5.476829E2,3.365776E0,2.770817E2,8.490857E1,2.154346E2,6.75096E0,7.259821E0,2.3692985E0,1.5751593E0,2.3953321E1,5.3205004E0,7.4221334E0,1.123282E0,8.5515995E0,1.7948382E0,1.7399552E0,2.5861712E0,4.970982E1,1.697695E0,4.8825635E2,5.9426582E1,2.3177998E0,1.0479764E0,7.9285065E1,1.9779663E2,5.9412456E0,7.896732E1,8.42187E0,2.0701273E2],"tree_param":{"num_deleted":"0","num_feature":"20","num_nodes":"51","size_leaf_vector":"1"}},{"base_weights":[-4.2626755E-3,-5.367167E-5,-4.286799E-1,-2.2494541E-1,2.0845924E-3,-7.820501E-1,-6.0065884E-2,6.634606E-2,-2.2252195E-2,-2.623498E-1,-5.235693E-2,-3.146719E-1,3.0302706E-1,-1.2724561E-2,3.3723456E-1,-8.832878E-2,2.5653372E-2,6.04528E-2,-2.0579307E-1,-8.016071E-2,2.4110948E-1,6.316047E-2,-1.7321265E-1,6.7331547E-1,-1.5721321E-2,-1.6987316E-1,1.3229598E-2,-1.2114097E-1,7.027317E-2,-3.9959542E-2,6.0369156E-2,5.0452806E-2,-1.11075036E-1,-1.5485229E-1,2.3479928E-1,-4.3447614E-2,2.3716795E-1,-2.565931E-3,-8.8086024E-2,-2.4838725E-2,7.7758916E-2,-1.7472433E-1,-3.8315402E-3,1.4520983E-3,4.888591E-2],"categories":[],"categories_nodes":[],"categories_segments":[],"categories_sizes":[],"default_left":[0,0,0,0,1,1,0,0,0,0,0,0,0,0,1,0,0,0,0,0,0,1,0,0,0,0,0,0,1,0,0,0,0,0,0,0,0,0,0,0,0,0,0,0,0],"id":22,"left_children":[1,3,5,-1,7,9,11,13,15,-1,-1,17,19,21,23,25,27,-1,-1,-1,-1,29,31,33,35,37,39,41,43,-1,-1,-1,-1,-1,-1,-1,-1,-1,-1,-1,-1,-1,-1,-1,-1],"loss_changes":[2.2324262E0,1.9870201E0,1.5515049E0,0E0,1.9343433E0,1.9460702E-1,7.507478E-1,7.281303E0,2.84221E0,0E0,0E0,1.0309657E0,1.1944658E0,3.2254007E0,9.120521E0,3.1268463E0,3.4202101E0,0E0,0E0,0E0,0E0,4.905191E0,5.780113E0,5.523817E0,4.115441E0,4.176543E0,4.012052E0,6.080391E0,2.4254727E0,0E0,0E0,0E0,0E0,0E0,0E0,0E0,0E0,0E0,0E0,0E0,0E0,0E0,0E0,0E0,0E0],"parents":[2147483647,0,0,1,1,2,2,4,4,5,5,6,6,7,7,8,8,11,11,12,12,13,13,14,14,15,15,16,16,21,21,22,22,23,23,24,24,25,25,26,26,27,27,28,28],"right_children":[2,4,6,-1,8,10,12,14,16,-1,-1,18,20,22,24,26,28,-1,-1,-1,-1,30,32,34,36,38,40,42,44,-1,-1,-1,-1,-1,-1,-1,-1,-1,-1,-1,-1,-1,-1,-1,-1],"split_conditions":[1E0,5.5555556E-2,1.759159E4,-2.2494541E-1,1.9E4,2.607053E-1,2.013E3,1.78E4,2.011E3,-2.623498E-1,-5.235693E-2,2E-1,2.647059E-1,1.094225E4,5.0417E2,2.777778E-1,5.0417E2,6.04528E-2,-2.0579307E-1,-8.016071E-2,2.4110948E-1,3.2353E2,2.0481928E-1,1.9117647E-1,1.85E4,6.14E2,6.98E3,1.923077E-1,2.7906978E-1,-3.9959542E-2,6.0369156E-2,5.0452806E-2,-1.11075036E-1,-1.5485229E-1,2.3479928E-1,-4.3447614E-2,2.3716795E-1,-2.565931E-3,-8.8086024E-2,-2.4838725E-2,7.7758916E-2,-1.7472433E-1,-3.8315402E-3,1.4520983E-3,4.888591E-2],"split_indices":[7,17,3,0,1,16,14,1,14,0,0,12,13,2,11,13,11,0,0,0,0,11,13,19,1,11,0,13,17,0,0,0,0,0,0,0,0,0,0,0,0,0,0,0,0],"split_type":[0,0,0,0,0,0,0,0,0,0,0,0,0,0,0,0,0,0,0,0,0,0,0,0,0,0,0,0,0,0,0,0,0,0,0,0,0,0,0,0,0,0,0,0,0],"sum_hessian":[1.24871E3,1.2374384E3,1.1271718E1,2.5246487E0,1.2349137E3,5.1822157E0,6.089503E0,3.3874057E2,8.961731E2,4.1163726E0,1.065843E0,3.6578927E0,2.4316099E0,2.629424E2,7.579817E1,3.76298E2,5.1987506E2,1.721705E0,1.9361879E0,1.3548464E0,1.0767635E0,1.7893935E2,8.400306E1,3.836232E1,3.7435852E1,2.0834148E2,1.6795654E2,1.2078626E2,3.990888E2,7.389023E1,1.0504912E2,3.079459E1,5.3208473E1,2.916488E0,3.544583E1,3.2976017E1,4.4598355E0,9.090465E1,1.1743682E2,1.2127442E2,4.6682114E1,2.2146276E1,9.863999E1,2.3454799E2,1.645408E2],"tree_param":{"num_deleted":"0","num_feature":"20","num_nodes":"45","size_leaf_vector":"1"}},{"base_weights":[-4.3197596E-3,9.815806E-3,-1.2141315E-1,7.174031E-3,2.9164836E-1,-2.4905929E-1,1.8150924E-1,1.0474732E-2,-7.2479874E-1,-3.8633543E-1,4.4124383E-2,-1.0522703E-2,1.0560813E0,1.334212E-2,-7.6326275E-1,-3.358674E-1,7.491843E-2,-2.4339996E-1,-9.246208E-1,-5.3871745E-1,2.1609959E-1,-2.3072182E-1,4.2348686E-1,1.3165994E-2,1.3481132E0,-5.2342474E-1,1.6944433E-2,-3.340932E-1,1.1123153E-2,-4.2038572E-1,3.631277E-1,-2.4496064E-1,-3.6594665E-1,-8.89396E-1,2.4340765E-1,6.4572024E-1,-1.1490772E-1,9.008394E-2,-6.895225E-1,-1.66959E-1,6.896678E-1,4.5073345E-1,1.05230756E-1,-2.5493786E-1,-2.5273891E-2,-1.8673955E-2,1.1903255E-2,-1.4403154E-1,2.2141275E-1,4.34972E-1,-1.5356316E-2,-2.1312277E-1,2.293655E-1,-4.0436275E-2,-3.1327906E-1,2.2419721E-1,-1.1716413E-1,2.7370918E-1,-1.1632445E-1,-1.8735296E-1,2.0525458E-1,-1.8673238E-1,1.0524252E-1,1.4320375E-1,-3.1079876E-1,9.416147E-2,-2.523711E-1,4.0076828E-1,2.102258E-2],"categories":[],"categories_nodes":[],"categories_segments":[],"categories_sizes":[],"default_left":[1,1,0,0,0,0,0,1,0,0,0,0,0,0,0,0,0,0,1,0,0,0,0,0,0,0,0,0,0,0,0,0,0,0,0,0,0,0,0,1,1,0,0,0,0,0,0,0,0,0,0,0,0,0,0,0,0,0,0,0,0,0,0,0,0,0,0,0,0],"id":23,"left_children":[1,3,5,7,-1,9,11,13,15,17,19,21,23,25,27,-1,-1,29,31,33,35,37,39,-1,41,43,45,-1,-1,47,49,51,-1,53,55,57,59,61,63,65,67,-1,-1,-1,-1,-1,-1,-1,-1,-1,-1,-1,-1,-1,-1,-1,-1,-1,-1,-1,-1,-1,-1,-1,-1,-1,-1,-1,-1],"loss_changes":[2.0616457E0,2.8192616E0,5.232993E0,2.6885293E0,0E0,3.832993E0,6.7882767E0,2.4631917E0,2.20139E0,4.751355E0,3.2371006E0,3.3545096E0,2.091302E0,2.14077E0,1.1908846E0,0E0,0E0,5.7846236E0,2.3523645E0,2.240561E0,3.5944238E0,3.4849515E0,1.9733133E0,0E0,3.368683E-1,9.8641443E-1,1.9758588E0,0E0,0E0,3.1961017E0,5.652046E0,3.0112157E0,0E0,4.7980642E-1,1.2724966E0,3.3639278E0,6.4665833E0,2.9251027E0,4.410062E0,1.7161524E0,3.24735E0,0E0,0E0,0E0,0E0,0E0,0E0,0E0,0E0,0E0,0E0,0E0,0E0,0E0,0E0,0E0,0E0,0E0,0E0,0E0,0E0,0E0,0E0,0E0,0E0,0E0,0E0,0E0,0E0],"parents":[2147483647,0,0,1,1,2,2,3,3,5,5,6,6,7,7,8,8,9,9,10,10,11,11,12,12,13,13,14,14,17,17,18,18,19,19,20,20,21,21,22,22,24,24,25,25,26,26,29,29,30,30,31,31,33,33,34,34,35,35,36,36,37,37,38,38,39,39,40,40],"right_children":[2,4,6,8,-1,10,12,14,16,18,20,22,24,26,28,-1,-1,30,32,34,36,38,40,-1,42,44,46,-1,-1,48,50,52,-1,54,56,58,60,62,64,66,68,-1,-1,-1,-1,-1,-1,-1,-1,-1,-1,-1,-1,-1,-1,-1,-1,-1,-1,-1,-1,-1,-1,-1,-1,-1,-1,-1,-1],"split_conditions":[4.2477E4,2.91667E3,1.1E4,3.87E4,2.9164836E-1,1E0,3E-1,2.19911E3,2.012E3,7E4,2E-1,2.742857E-1,2.012E3,8.3333336E-2,3.915E3,-3.358674E-1,7.491843E-2,3.87E4,8.6667E2,8.1E3,9.0804E2,2.4936171E-1,2.52E4,1.3165994E-2,2.4528302E-1,2.5E-1,2.465039E-1,-3.340932E-1,1.1123153E-2,6.666667E-1,1.47E3,2.014E3,-3.6594665E-1,1.2820514E-1,2E-1,8.1E3,1.5792E3,1.4025E3,1.47E3,1.05556E3,1.83076E3,4.5073345E-1,1.05230756E-1,-2.5493786E-1,-2.5273891E-2,-1.8673955E-2,1.1903255E-2,-1.4403154E-1,2.2141275E-1,4.34972E-1,-1.5356316E-2,-2.1312277E-1,2.293655E-1,-4.0436275E-2,-3.1327906E-1,2.2419721E-1,-1.1716413E-1,2.7370918E-1,-1.1632445E-1,-1.8735296E-1,2.0525458E-1,-1.8673238E-1,1.0524252E-1,1.4320375E-1,-3.1079876E-1,9.416147E-2,-2.523711E-1,4.0076828E-1,2.102258E-2],"split_indices":[1,11,0,2,0,15,17,11,14,1,13,12,14,17,3,0,0,2,11,0,11,16,2,0,12,13,16,0,0,13,11,14,0,13,12,0,11,11,11,11,11,0,0,0,0,0,0,0,0,0,0,0,0,0,0,0,0,0,0,0,0,0,0,0,0,0,0,0,0],"split_type":[0,0,0,0,0,0,0,0,0,0,0,0,0,0,0,0,0,0,0,0,0,0,0,0,0,0,0,0,0,0,0,0,0,0,0,0,0,0,0,0,0,0,0,0,0,0,0,0,0,0,0,0,0,0,0,0,0,0,0,0,0,0,0,0,0,0,0,0,0],"sum_hessian":[1.243851E3,1.1106848E3,1.3316618E2,1.1086488E3,2.0359437E0,9.38129E1,3.9353283E1,1.1046533E3,3.9955478E0,6.3679016E1,3.0133879E1,3.307819E1,6.2750916E0,1.1015538E3,3.0994835E0,2.7377312E0,1.2578166E0,5.1465202E1,1.2213813E1,6.3797417E0,2.3754137E1,2.225519E1,1.0823E1,1.6626289E0,4.6124625E0,6.381415E0,1.0951724E3,1.8834592E0,1.2160244E0,4.007744E1,1.1387764E1,4.2526E0,7.961213E0,4.3100896E0,2.0696523E0,9.923485E0,1.3830651E1,1.3570197E1,8.684993E0,3.4788759E0,7.344124E0,3.555785E0,1.0566775E0,3.12452E0,3.2568948E0,2.43879E2,8.512934E2,3.86695E1,1.4079392E0,2.4532337E0,8.93453E0,3.113408E0,1.139192E0,1.0524164E0,3.257673E0,1.0534555E0,1.0161967E0,7.9813986E0,1.9420865E0,8.578423E0,5.2522297E0,3.2636695E0,1.0306527E1,1.9019146E0,6.7830787E0,2.3427546E0,1.1361213E0,3.028919E0,4.315205E0],"tree_param":{"num_deleted":"0","num_feature":"20","num_nodes":"69","size_leaf_vector":"1"}},{"base_weights":[-3.445933E-3,2.55879E-3,-2.7197477E-1,-9.037501E-2,2.0265317E-2,-4.9800533E-1,4.0052425E-2,-1.2822936E-1,5.159363E-1,-4.764264E-1,3.0368244E-2,2.125125E-1,-6.2767965E-1,-5.3322345E-1,4.7884607E-1,8.9839414E-2,-2.6122475E-1,7.4906117E-1,-1.731145E-1,-6.587465E-2,-8.9462787E-1,3.0226633E-1,1.6375273E-2,1.3947494E-1,-3.546544E-2,-7.1806633E-1,4.9869157E-2,1.2915023E-1,-2.507013E-1,8.3202094E-1,-8.039575E-2,1.4896612E-1,-2.7356088E-1,-6.125666E-1,-1.3957293E-1,-1.0223638E-1,1.154624E0,-3.339454E-1,3.7751865E-1,-4.768638E-2,-9.6178645E-1,4.710307E-1,-4.024606E-1,2.614626E-1,3.4205865E-3,-2.7910358E-1,-2.7474543E-1,1.6007374E-1,4.5309713E-1,6.607466E-2,-2.111642E-1,-1.4746385E-2,-2.5502163E-1,-2.8294307E-1,-2.4284964E-2,-1.6880777E-1,1.5106821E-1,3.7373638E-1,1.0074768E-1,1.7900454E-2,-2.7569032E-1,-1.0099396E-1,-3.416409E-1,1.6337627E-1,-1.8186627E-1,1.20158374E-1,-2.1967486E-1,7.7485563E-3,2.769422E-1,-3.3151242E-3,8.002053E-2,1.0826301E-1,-2.2003213E-1,2.4448806E-1,-1.7849141E-1],"categories":[],"categories_nodes":[],"categories_segments":[],"categories_sizes":[],"default_left":[1,0,1,0,0,0,0,0,0,0,0,1,0,0,0,0,0,0,0,0,0,0,0,0,0,0,0,0,0,0,0,1,0,0,0,0,1,0,0,0,0,0,0,0,1,0,0,0,0,0,0,0,0,0,0,0,0,0,0,0,0,0,0,0,0,0,0,0,0,0,0,0,0,0,0],"id":24,"left_children":[1,3,5,7,9,11,13,15,17,19,21,23,25,27,29,31,33,35,-1,37,39,41,43,-1,-1,45,-1,-1,-1,47,-1,49,-1,51,53,55,57,59,-1,-1,61,63,65,67,69,71,-1,73,-1,-1,-1,-1,-1,-1,-1,-1,-1,-1,-1,-1,-1,-1,-1,-1,-1,-1,-1,-1,-1,-1,-1,-1,-1,-1,-1],"loss_changes":[1.9998538E0,1.9990264E0,1.9331868E0,4.5284085E0,5.134299E0,1.5896959E0,3.3547904E0,5.353961E0,3.394108E0,3.4434814E0,3.8030813E0,3.2096803E-1,1.0966854E0,2.0547576E0,2.2028267E0,4.3038526E0,4.8051367E0,3.5760593E0,0E0,4.45772E0,3.4247208E-1,6.0090938E0,3.0247636E0,0E0,0E0,8.221178E-1,0E0,0E0,0E0,2.1920516E0,0E0,4.24702E0,0E0,3.8567638E0,3.9885662E0,1.44112E0,9.408951E-2,2.4148636E0,0E0,0E0,6.1138153E-1,3.4948044E0,2.9396214E0,7.4333086E0,3.4556706E0,1.8040993E0,0E0,2.3643746E0,0E0,0E0,0E0,0E0,0E0,0E0,0E0,0E0,0E0,0E0,0E0,0E0,0E0,0E0,0E0,0E0,0E0,0E0,0E0,0E0,0E0,0E0,0E0,0E0,0E0,0E0,0E0],"parents":[2147483647,0,0,1,1,2,2,3,3,4,4,5,5,6,6,7,7,8,8,9,9,10,10,11,11,12,12,13,13,14,14,15,15,16,16,17,17,19,19,20,20,21,21,22,22,25,25,29,29,31,31,33,33,34,34,35,35,36,36,37,37,40,40,41,41,42,42,43,43,44,44,45,45,47,47],"right_children":[2,4,6,8,10,12,14,16,18,20,22,24,26,28,30,32,34,36,-1,38,40,42,44,-1,-1,46,-1,-1,-1,48,-1,50,-1,52,54,56,58,60,-1,-1,62,64,66,68,70,72,-1,74,-1,-1,-1,-1,-1,-1,-1,-1,-1,-1,-1,-1,-1,-1,-1,-1,-1,-1,-1,-1,-1,-1,-1,-1,-1,-1,-1],"split_conditions":[4.5E3,2.5E3,2.333604E-1,4.4444445E-1,1.9412E2,1.55E4,2.89E4,5.5E3,5.4742E2,1.18E0,2.7636E2,2.3529412E-1,6.5E4,1.948E3,1.31031E3,3.6E4,3.4433E2,1.8181819E-1,-1.731145E-1,2.3529412E-1,1.38E4,3.1E4,2.512E3,1.3947494E-1,-3.546544E-2,2.222758E-1,4.9869157E-2,1.2915023E-1,-2.507013E-1,5.602E3,-8.039575E-2,8.07E2,-2.7356088E-1,1.49E3,1.49E3,8E3,2.607053E-1,1.6997E2,3.7751865E-1,-4.768638E-2,1.7151767E-1,1E0,2E-1,2.6225E4,5.5E2,1.08E4,-2.7474543E-1,1.759159E4,4.5309713E-1,6.607466E-2,-2.111642E-1,-1.4746385E-2,-2.5502163E-1,-2.8294307E-1,-2.4284964E-2,-1.6880777E-1,1.5106821E-1,3.7373638E-1,1.0074768E-1,1.7900454E-2,-2.7569032E-1,-1.0099396E-1,-3.416409E-1,1.6337627E-1,-1.8186627E-1,1.20158374E-1,-2.1967486E-1,7.7485563E-3,2.769422E-1,-3.3151242E-3,8.002053E-2,1.0826301E-1,-2.2003213E-1,2.4448806E-1,-1.7849141E-1],"split_indices":[3,0,18,17,11,1,1,2,11,3,11,17,1,0,11,1,11,13,0,17,1,1,0,0,0,12,0,0,0,0,0,3,0,0,0,2,16,11,0,0,16,4,12,1,3,3,0,3,0,0,0,0,0,0,0,0,0,0,0,0,0,0,0,0,0,0,0,0,0,0,0,0,0,0,0],"split_type":[0,0,0,0,0,0,0,0,0,0,0,0,0,0,0,0,0,0,0,0,0,0,0,0,0,0,0,0,0,0,0,0,0,0,0,0,0,0,0,0,0,0,0,0,0,0,0,0,0,0,0,0,0,0,0,0,0,0,0,0,0,0,0,0,0,0,0,0,0,0,0,0,0,0,0],"sum_hessian":[1.238833E3,1.2127054E3,2.6127512E1,1.9342073E2,1.0192847E3,1.4806061E1,1.132145E1,1.8279655E2,1.0624181E1,1.9399248E1,9.998855E2,2.1865566E0,1.2619504E1,4.815233E0,6.506217E0,6.937266E1,1.134239E2,9.015839E0,1.6083422E0,1.0373258E1,9.025991E0,4.793118E1,9.519543E2,1.0100162E0,1.1765404E0,1.1415394E1,1.2041107E0,1.0490696E0,3.7661636E0,4.339847E0,2.16637E0,6.6309944E1,3.062712E0,2.8134216E1,8.528968E1,3.150561E0,5.865278E0,9.248848E0,1.1244088E0,1.036688E0,7.9893036E0,3.8938095E1,8.993082E0,4.682866E1,9.051257E2,4.294341E0,7.1210523E0,2.801042E0,1.5388052E0,6.1879658E1,4.4302845E0,8.700884E0,1.9433332E1,4.7731986E0,8.051648E1,1.8304329E0,1.3201281E0,4.808431E0,1.0568467E0,6.0657253E0,3.1831229E0,2.4033978E0,5.585906E0,3.691213E1,2.025967E0,2.5557358E0,6.4373465E0,3.5297638E1,1.1531018E1,8.58882E2,4.6243626E1,1.8683228E0,2.4260185E0,1.4575161E0,1.3435259E0],"tree_param":{"num_deleted":"0","num_feature":"20","num_nodes":"75","size_leaf_vector":"1"}},{"base_weights":[-4.6580546E-3,8.463281E-3,-1.2842724E-1,3.3211596E-2,-7.610061E-2,-6.785094E-1,-4.4991195E-2,-4.054941E-3,1.18862845E-1,-2.872273E-1,9.408697E-3,-9.0044695E-1,1.981197E-1,1.7503804E-2,-8.3195186E-1,-6.4636074E-2,1.10894516E-1,-3.598351E-2,2.5023568E-1,-4.4492826E-2,-5.053222E-1,6.470092E-1,-2.9619358E-2,-4.0190932E-1,-3.464207E-1,-1.0127038E-1,2.94983E-1,-4.4954264E-1,2.5289366E-1,-7.884337E-2,5.6100607E-1,-4.308867E-1,1.6250066E-1,-1.8600184E-1,1.6421315E-1,-2.4973497E-1,2.7616733E-1,1.962784E-1,-4.1282383E-1,6.800797E-2,-5.8544034E-1,-2.0567887E-1,9.8996294E-1,-2.916489E-1,-1.1102557E-2,-2.5574467E-1,1.1109592E-1,-1.9719854E-1,6.395588E-1,-1.1223216E-2,5.702908E-1,2.5742003E-1,-8.542447E-2,-1.92697E-1,-1.913579E-2,2.759614E-1,-1.04029186E-1,2.2226622E-2,-2.7224663E-1,2.6399782E-1,3.7875716E-2,-1.1055363E-1,1.454025E-1,3.0306098E-1,-2.643455E-3,9.282121E-2,-1.59865E-1,1.7535777E-1,-3.696014E-2,-1.582413E-1,1.260941E-1,1.8285026E-1,-1.8875167E-1,-1.9498344E-1,6.1891202E-2,1.4144488E-1,-2.4721861E-1,3.7606353E-1,-1.0674163E-1,-1.1738036E-2,1.5084337E-1,-7.6648116E-2,1.1323725E-1,1.7743923E-2,-1.2915242E-1,4.4367306E-2,3.522823E-1,9.053281E-2,-4.14536E-1,-2.4836233E-2,2.5612405E-1],"categories":[],"categories_nodes":[],"categories_segments":[],"categories_sizes":[],"default_left":[1,0,0,1,0,0,0,0,0,0,0,0,0,0,0,1,0,0,0,0,0,0,1,0,0,1,0,0,0,0,0,0,0,0,0,0,0,0,1,0,1,0,1,0,0,0,0,0,0,0,0,0,0,0,0,0,0,0,0,0,0,0,0,0,0,0,0,0,0,0,0,0,0,0,0,0,0,0,0,0,0,0,0,0,0,0,0,0,0,0,0],"id":25,"left_children":[1,3,5,7,9,11,13,15,17,19,21,23,-1,25,27,29,31,33,35,37,39,41,43,45,-1,47,49,-1,51,53,55,57,59,61,63,-1,65,67,69,71,73,75,77,-1,79,-1,81,83,85,87,89,-1,-1,-1,-1,-1,-1,-1,-1,-1,-1,-1,-1,-1,-1,-1,-1,-1,-1,-1,-1,-1,-1,-1,-1,-1,-1,-1,-1,-1,-1,-1,-1,-1,-1,-1,-1,-1,-1,-1,-1],"loss_changes":[2.011052E0,2.3463874E0,5.4171352E0,2.7681816E0,4.5857525E0,5.218758E0,5.135925E0,4.2214537E0,5.357499E0,3.853241E0,4.539431E0,1.2817793E0,0E0,3.2416012E0,5.933413E0,3.57251E0,5.920002E0,3.6811748E0,4.2269783E0,3.2510018E0,1.8067236E0,3.2804308E0,2.9933708E0,1.5245007E0,0E0,5.028647E0,2.4903982E0,0E0,1.4739106E0,3.2595484E0,3.2303388E0,4.5125833E0,4.8762164E0,8.741301E0,7.708305E0,0E0,3.9238052E0,2.8371723E0,1.6020894E0,2.5021827E0,1.8630409E0,1.9989897E0,3.1686897E0,0E0,2.4654987E0,0E0,4.652589E-1,3.7240224E0,1.9674962E0,6.822079E0,2.9465103E0,0E0,0E0,0E0,0E0,0E0,0E0,0E0,0E0,0E0,0E0,0E0,0E0,0E0,0E0,0E0,0E0,0E0,0E0,0E0,0E0,0E0,0E0,0E0,0E0,0E0,0E0,0E0,0E0,0E0,0E0,0E0,0E0,0E0,0E0,0E0,0E0,0E0,0E0,0E0,0E0],"parents":[2147483647,0,0,1,1,2,2,3,3,4,4,5,5,6,6,7,7,8,8,9,9,10,10,11,11,13,13,14,14,15,15,16,16,17,17,18,18,19,19,20,20,21,21,22,22,23,23,25,25,26,26,28,28,29,29,30,30,31,31,32,32,33,33,34,34,36,36,37,37,38,38,39,39,40,40,41,41,42,42,44,44,46,46,47,47,48,48,49,49,50,50],"right_children":[2,4,6,8,10,12,14,16,18,20,22,24,-1,26,28,30,